################################################################################
# Neural network connection values (weights and biases).
################################################################################
# Col  Name       Description
################################################################################
# 1    connection Neural network connection value.
# 2    t          Connection type (a = weight, b = bias).
# 3    index      Index enumerating weights.
# 4    l_s        Starting point layer (end point layer for biases).
# 5    n_s        Starting point neuron in starting layer (end point neuron for biases).
# 6    l_e        End point layer.
# 7    n_e        End point neuron in end layer.
################################################################################
#                      1 2         3     4     5     6     7
#             connection t     index   l_s   n_s   l_e   n_e
############################################################
  4.6157487784725659E-01 a         1     0     1     1     1
 -1.7636744495871127E+01 a         2     0     1     1     2
 -1.2118671094825466E+01 a         3     0     1     1     3
  1.6776335473925116E+01 a         4     0     1     1     4
  4.9112988380467311E+00 a         5     0     1     1     5
 -1.1683454721643670E+01 a         6     0     1     1     6
 -4.3857134389049106E+00 a         7     0     1     1     7
  1.4267059700897214E+01 a         8     0     1     1     8
  2.2531541375535536E+01 a         9     0     1     1     9
  3.8325285985415327E+00 a        10     0     1     1    10
  1.9609406559994016E+00 a        11     0     1     1    11
  1.3703929650844167E+01 a        12     0     1     1    12
  1.5314989616835424E+01 a        13     0     1     1    13
 -3.8650308342141750E+00 a        14     0     1     1    14
  1.1594731804786775E+01 a        15     0     1     1    15
  1.0183523435359083E+01 a        16     0     1     1    16
 -4.8682322792541859E+00 a        17     0     1     1    17
  4.6481810037439670E+00 a        18     0     1     1    18
 -2.1128209913663728E+01 a        19     0     1     1    19
 -1.2618004247678639E+01 a        20     0     1     1    20
  1.8199937164511222E+00 a        21     0     2     1     1
 -1.2472908349166557E+01 a        22     0     2     1     2
 -1.2197984295413455E+01 a        23     0     2     1     3
  1.4379951332137201E+01 a        24     0     2     1     4
  4.4482196684529267E+00 a        25     0     2     1     5
 -9.8472685951774732E+00 a        26     0     2     1     6
 -1.2720512440636616E+01 a        27     0     2     1     7
  1.6396221791744676E+01 a        28     0     2     1     8
 -8.0225920701776126E+00 a        29     0     2     1     9
  2.7291143204493684E+00 a        30     0     2     1    10
 -3.1899404173336987E+00 a        31     0     2     1    11
  1.7372739160960588E+01 a        32     0     2     1    12
 -8.5508581976961473E+00 a        33     0     2     1    13
 -4.3253341356033701E+00 a        34     0     2     1    14
  1.1669118645081330E+01 a        35     0     2     1    15
  1.7043593521121458E+01 a        36     0     2     1    16
 -8.9371444916479437E+00 a        37     0     2     1    17
  2.8150962226817132E+01 a        38     0     2     1    18
 -2.5848036724498336E+01 a        39     0     2     1    19
 -1.7335550366977280E+01 a        40     0     2     1    20
 -9.2233972790026986E+00 a        41     0     3     1     1
 -2.2556099591053030E+01 a        42     0     3     1     2
 -2.2555291351255608E+01 a        43     0     3     1     3
  3.6587028366593557E+01 a        44     0     3     1     4
  1.5051382156045273E+01 a        45     0     3     1     5
 -2.6112534525080825E+01 a        46     0     3     1     6
 -1.6620328972964032E+01 a        47     0     3     1     7
  1.5120896999236052E+01 a        48     0     3     1     8
  1.5211308525030478E+00 a        49     0     3     1     9
  9.6910429294207727E+00 a        50     0     3     1    10
 -4.1095448266419501E+00 a        51     0     3     1    11
  1.8447625813263240E+01 a        52     0     3     1    12
 -1.4629540179883218E+01 a        53     0     3     1    13
 -9.1876339295844929E+00 a        54     0     3     1    14
  1.0201450012680397E+01 a        55     0     3     1    15
  2.7515431701732233E+01 a        56     0     3     1    16
 -7.8934362786906167E+00 a        57     0     3     1    17
 -3.9161002660115196E+00 a        58     0     3     1    18
 -1.6047089443397248E+01 a        59     0     3     1    19
 -1.2706685957660211E+01 a        60     0     3     1    20
  4.0623004608758677E+00 a        61     0     4     1     1
  4.8289359688172610E+01 a        62     0     4     1     2
  2.7206287634862569E+01 a        63     0     4     1     3
 -3.9398931824527494E+01 a        64     0     4     1     4
 -7.7148829036909650E+00 a        65     0     4     1     5
  1.8600004603588225E+01 a        66     0     4     1     6
  1.7600762590210355E+01 a        67     0     4     1     7
 -2.0507573221957969E+01 a        68     0     4     1     8
 -4.1356366947668157E+01 a        69     0     4     1     9
 -1.2618253520413424E+01 a        70     0     4     1    10
 -1.4614642732317815E+00 a        71     0     4     1    11
 -3.0818361130259991E+01 a        72     0     4     1    12
 -1.7819049335764554E+01 a        73     0     4     1    13
 -7.9859932421096200E+00 a        74     0     4     1    14
 -3.0599757397556338E+01 a        75     0     4     1    15
 -7.9297912758388813E+00 a        76     0     4     1    16
  1.5537784278866157E+01 a        77     0     4     1    17
 -1.1544432803165341E+01 a        78     0     4     1    18
  2.4016742451436976E+01 a        79     0     4     1    19
  2.0001934725468278E+01 a        80     0     4     1    20
 -7.9392688656223842E-02 a        81     0     5     1     1
  2.7924928697675423E+01 a        82     0     5     1     2
  2.6654564873401689E+01 a        83     0     5     1     3
 -2.5933039543493138E+01 a        84     0     5     1     4
  4.8882384621000448E+00 a        85     0     5     1     5
  1.1120772290896568E+01 a        86     0     5     1     6
  2.5987772605792340E+01 a        87     0     5     1     7
 -2.3414502590933626E+01 a        88     0     5     1     8
  2.5235150374744229E+01 a        89     0     5     1     9
 -1.0570935891929397E+01 a        90     0     5     1    10
 -1.2369266038188860E+00 a        91     0     5     1    11
 -3.7979451257346895E+01 a        92     0     5     1    12
  3.8980113784272667E+01 a        93     0     5     1    13
  4.6423748196260650E+00 a        94     0     5     1    14
 -3.1962866822562745E+01 a        95     0     5     1    15
 -2.0608445601387825E+01 a        96     0     5     1    16
  2.9303372004977192E+01 a        97     0     5     1    17
 -6.4769013954803015E+01 a        98     0     5     1    18
  2.6418210158462887E+01 a        99     0     5     1    19
  5.0377721319482816E+01 a       100     0     5     1    20
  2.9815815420161208E+01 a       101     0     6     1     1
  3.7490741171493397E+01 a       102     0     6     1     2
  5.1834012856179307E+01 a       103     0     6     1     3
 -7.9853854914730377E+01 a       104     0     6     1     4
 -3.7866888167069057E+01 a       105     0     6     1     5
  4.5302701864242266E+01 a       106     0     6     1     6
  2.8758388760403392E+01 a       107     0     6     1     7
 -1.5613502119169862E+01 a       108     0     6     1     8
 -4.4317356501744678E+00 a       109     0     6     1     9
 -2.7582816677734652E+01 a       110     0     6     1    10
 -5.1486533965954564E+00 a       111     0     6     1    11
 -4.2201761803139263E+01 a       112     0     6     1    12
  4.6517194206412022E+01 a       113     0     6     1    13
  1.7950587067917194E+01 a       114     0     6     1    14
 -3.6168619190582454E+01 a       115     0     6     1    15
 -1.9271197708120688E+01 a       116     0     6     1    16
  3.3827026768873168E+01 a       117     0     6     1    17
  1.2443982444991679E+01 a       118     0     6     1    18
 -1.8371328173457133E+00 a       119     0     6     1    19
  3.8439622411055360E+01 a       120     0     6     1    20
  2.7650433225841335E+00 a       121     0     7     1     1
 -3.2717661392804906E+01 a       122     0     7     1     2
 -2.2213988724451351E+01 a       123     0     7     1     3
  3.3821006609068782E+01 a       124     0     7     1     4
  2.3345186153206301E+00 a       125     0     7     1     5
  7.8940881399007656E+00 a       126     0     7     1     6
 -2.4043403811443459E-01 a       127     0     7     1     7
  1.3816811911246647E+01 a       128     0     7     1     8
  4.2107322036967183E+01 a       129     0     7     1     9
  1.1198565428609239E+01 a       130     0     7     1    10
 -8.0629548103857438E+00 a       131     0     7     1    11
  2.1235325617662955E+01 a       132     0     7     1    12
  4.9723558123056897E+00 a       133     0     7     1    13
  1.7355633831456714E+01 a       134     0     7     1    14
  2.5443710028961039E+01 a       135     0     7     1    15
  1.2609363880091506E+01 a       136     0     7     1    16
 -2.2519359609464807E+01 a       137     0     7     1    17
  5.6030932346973827E+00 a       138     0     7     1    18
 -1.5411718659873866E+01 a       139     0     7     1    19
 -2.5521690541973083E+01 a       140     0     7     1    20
  4.3303091778946996E+00 a       141     0     8     1     1
 -1.1253484252544933E+01 a       142     0     8     1     2
 -2.1923132341292494E+01 a       143     0     8     1     3
  1.1081716937406403E+01 a       144     0     8     1     4
 -2.4126292574078100E+01 a       145     0     8     1     5
  9.1530640168758470E+00 a       146     0     8     1     6
 -1.4371237720564565E+00 a       147     0     8     1     7
  1.6001207698303666E+01 a       148     0     8     1     8
 -3.1076707193093252E+01 a       149     0     8     1     9
  9.9746248594094169E+00 a       150     0     8     1    10
 -4.1668521695859342E+00 a       151     0     8     1    11
  2.6634566637162010E+01 a       152     0     8     1    12
 -5.5965368579302940E+01 a       153     0     8     1    13
  6.6713188461351738E+00 a       154     0     8     1    14
  2.7977631045145703E+01 a       155     0     8     1    15
  3.4401769581004352E+01 a       156     0     8     1    16
 -3.5922290467307768E+01 a       157     0     8     1    17
  5.8506320796014251E+01 a       158     0     8     1    18
 -1.7201719085501367E+01 a       159     0     8     1    19
 -5.3155056602071866E+01 a       160     0     8     1    20
 -2.8560075331513765E+01 a       161     0     9     1     1
 -1.0929764090618889E+01 a       162     0     9     1     2
 -4.4039745323832548E+01 a       163     0     9     1     3
  6.5937340856341393E+01 a       164     0     9     1     4
  2.4677605033452206E+01 a       165     0     9     1     5
 -3.1018137079969673E+01 a       166     0     9     1     6
 -9.4064579076201298E+00 a       167     0     9     1     7
  7.2262400822985331E+00 a       168     0     9     1     8
  1.1787858439700697E+01 a       169     0     9     1     9
  2.5770846854955735E+01 a       170     0     9     1    10
  2.7789852788010903E+00 a       171     0     9     1    11
  2.4827786616561038E+01 a       172     0     9     1    12
 -6.1896086378491042E+01 a       173     0     9     1    13
 -2.4276330486313174E+01 a       174     0     9     1    14
  3.0588775261851030E+01 a       175     0     9     1    15
  6.7015176583593696E+00 a       176     0     9     1    16
 -4.5646608733046030E+01 a       177     0     9     1    17
 -2.2048962037870300E+01 a       178     0     9     1    18
  1.4163596570819035E+01 a       179     0     9     1    19
 -3.6522394520083971E+01 a       180     0     9     1    20
 -1.4634481091761635E+00 a       181     0    10     1     1
  1.6517584431577284E+01 a       182     0    10     1     2
  8.8198351801286421E+00 a       183     0    10     1     3
 -1.5105450266152426E+01 a       184     0    10     1     4
 -9.5946323863929521E+00 a       185     0    10     1     5
  4.9770005676920359E+00 a       186     0    10     1     6
 -2.3323144825556805E+00 a       187     0    10     1     7
 -5.5123604175061347E+00 a       188     0    10     1     8
 -2.6958928087018943E+01 a       189     0    10     1     9
 -5.5898768611506098E+00 a       190     0    10     1    10
 -2.5409358366412160E+00 a       191     0    10     1    11
 -8.3787958540300700E+00 a       192     0    10     1    12
  8.5565412660800213E+00 a       193     0    10     1    13
 -1.2985094971900185E+01 a       194     0    10     1    14
 -1.3246717604532311E+01 a       195     0    10     1    15
 -1.0535301902883156E+00 a       196     0    10     1    16
  1.4009204904257471E+01 a       197     0    10     1    17
 -8.8363377799201910E+00 a       198     0    10     1    18
  7.3655625923976968E+00 a       199     0    10     1    19
  6.9958247875774946E+00 a       200     0    10     1    20
  4.2892086099860732E-01 a       201     0    11     1     1
  4.6883032927298283E+00 a       202     0    11     1     2
  8.2852322680116668E+00 a       203     0    11     1     3
  8.8918046281521548E+00 a       204     0    11     1     4
  9.4599175314105413E+00 a       205     0    11     1     5
  1.0789838105867595E+01 a       206     0    11     1     6
  6.1044058621143709E+00 a       207     0    11     1     7
 -5.9019132768434917E+00 a       208     0    11     1     8
  1.4430138284585189E+01 a       209     0    11     1     9
 -4.6933409325068416E+00 a       210     0    11     1    10
  9.4812299303636394E+00 a       211     0    11     1    11
 -9.9435039526197748E+00 a       212     0    11     1    12
  3.6689164348863748E+01 a       213     0    11     1    13
  3.1413563729953879E+00 a       214     0    11     1    14
 -1.2901389676858198E+01 a       215     0    11     1    15
 -1.1802729689844409E+01 a       216     0    11     1    16
  1.8759065189339175E+01 a       217     0    11     1    17
 -3.1551442300325011E+01 a       218     0    11     1    18
  8.0075062939655801E+00 a       219     0    11     1    19
  3.0466020991498088E+01 a       220     0    11     1    20
  2.7835178838757987E+01 a       221     0    12     1     1
  3.8458603557903843E+00 a       222     0    12     1     2
  1.8734580111594745E+01 a       223     0    12     1     3
 -3.0949980531392459E+01 a       224     0    12     1     4
 -2.4157206564115935E+01 a       225     0    12     1     5
  4.0055845185295716E+01 a       226     0    12     1     6
  7.6911045981839177E+00 a       227     0    12     1     7
 -1.0084929135016789E+00 a       228     0    12     1     8
 -1.0210158423177312E+01 a       229     0    12     1     9
 -1.2635561877703466E+01 a       230     0    12     1    10
 -7.7063757455543209E+00 a       231     0    12     1    11
 -7.1327608596034198E+00 a       232     0    12     1    12
  2.7400390109886402E+01 a       233     0    12     1    13
  1.2023412380776337E+01 a       234     0    12     1    14
 -1.3710851140778955E+01 a       235     0    12     1    15
  1.6212140407523734E+01 a       236     0    12     1    16
  2.3350509688814288E+01 a       237     0    12     1    17
  9.6537475527143481E+00 a       238     0    12     1    18
 -7.8090286127153892E+00 a       239     0    12     1    19
  2.7101293870059727E+01 a       240     0    12     1    20
  5.1759165844566510E+00 a       241     0    13     1     1
 -5.9689965561419980E+00 a       242     0    13     1     2
 -2.9087617959421372E+00 a       243     0    13     1     3
  6.5220764502426007E+00 a       244     0    13     1     4
  4.7031513451544447E+00 a       245     0    13     1     5
 -1.8598620652338882E+00 a       246     0    13     1     6
  6.5857889843316997E+00 a       247     0    13     1     7
  1.6413589956732026E+00 a       248     0    13     1     8
  1.2090953889070020E+01 a       249     0    13     1     9
  1.8177284292646660E+00 a       250     0    13     1    10
 -5.3992996764107719E+00 a       251     0    13     1    11
  1.2779263746029181E+00 a       252     0    13     1    12
 -5.0221583979319968E+00 a       253     0    13     1    13
  1.0972508667554262E+01 a       254     0    13     1    14
  4.7235580371969430E+00 a       255     0    13     1    15
  4.0923057493553161E+00 a       256     0    13     1    16
 -1.4351237264361275E+01 a       257     0    13     1    17
  6.6202608605311699E+00 a       258     0    13     1    18
 -1.5279225247320998E+00 a       259     0    13     1    19
 -2.1885557892890550E+00 a       260     0    13     1    20
  3.7113806481050240E+00 a       261     0    14     1     1
 -2.9274246934332040E+00 a       262     0    14     1     2
 -2.4043990034954188E+00 a       263     0    14     1     3
 -1.5344104181665503E+00 a       264     0    14     1     4
 -7.1402091793318876E+00 a       265     0    14     1     5
 -7.5408072670649897E+00 a       266     0    14     1     6
 -2.3715149899695231E+00 a       267     0    14     1     7
  1.7431356553855271E+00 a       268     0    14     1     8
 -6.0780077327747994E+00 a       269     0    14     1     9
  1.5839966677134762E+00 a       270     0    14     1    10
 -9.4650340463817138E+00 a       271     0    14     1    11
  1.9387830359395479E+00 a       272     0    14     1    12
 -1.4793021149830846E+01 a       273     0    14     1    13
  1.1903801444648632E+00 a       274     0    14     1    14
  4.4225959636668524E+00 a       275     0    14     1    15
  7.2617790533319386E+00 a       276     0    14     1    16
 -1.7177511632984643E+01 a       277     0    14     1    17
  1.1649435524643739E+01 a       278     0    14     1    18
 -2.8329418232956716E+00 a       279     0    14     1    19
 -3.1561165534636721E+00 a       280     0    14     1    20
 -1.1490213731106314E+01 a       281     0    15     1     1
 -2.4876067382189149E+00 a       282     0    15     1     2
 -5.4868987902235462E+00 a       283     0    15     1     3
  1.0300357107471150E+01 a       284     0    15     1     4
  1.2183436746577440E+01 a       285     0    15     1     5
 -7.5501235995081259E+00 a       286     0    15     1     6
  5.8439686809946965E+00 a       287     0    15     1     7
  3.4954551727795619E-01 a       288     0    15     1     8
  1.1180338927128084E+01 a       289     0    15     1     9
  3.5414014853949984E+00 a       290     0    15     1    10
 -1.6444397693999162E+00 a       291     0    15     1    11
  1.2764936537275101E-01 a       292     0    15     1    12
 -5.9489316232259908E+00 a       293     0    15     1    13
  7.6751813528388002E-01 a       294     0    15     1    14
  3.7279801978689604E+00 a       295     0    15     1    15
 -3.9815952402421968E+00 a       296     0    15     1    16
 -1.8640229414767532E+01 a       297     0    15     1    17
 -6.7344350501406702E-01 a       298     0    15     1    18
  2.8688867306093044E+00 a       299     0    15     1    19
 -6.6007723209804823E+00 a       300     0    15     1    20
  2.7607114527723065E+00 a       301     0    16     1     1
  4.3702597646217434E+01 a       302     0    16     1     2
 -1.0443926445285742E+01 a       303     0    16     1     3
 -1.1250199775231456E+01 a       304     0    16     1     4
 -1.5686742189580073E+01 a       305     0    16     1     5
 -6.8144469517707158E+00 a       306     0    16     1     6
 -5.1416109392260969E+00 a       307     0    16     1     7
  2.0960995567337979E+00 a       308     0    16     1     8
 -1.2772995130001330E+01 a       309     0    16     1     9
  2.0303593100981714E+00 a       310     0    16     1    10
 -2.3467403567373605E+01 a       311     0    16     1    11
  4.0302632915044683E+00 a       312     0    16     1    12
 -1.1435474828291026E+01 a       313     0    16     1    13
 -1.2844339895437804E+01 a       314     0    16     1    14
  6.9343632049635762E+00 a       315     0    16     1    15
  1.4395062331323027E+01 a       316     0    16     1    16
 -2.1009594435161785E+00 a       317     0    16     1    17
  2.1615096832806259E+01 a       318     0    16     1    18
  1.8090517808365629E+01 a       319     0    16     1    19
 -2.1169290560835292E+00 a       320     0    16     1    20
 -4.1862813806803416E+00 a       321     0    17     1     1
 -1.4489020501746182E+01 a       322     0    17     1     2
 -2.6625595121192571E+01 a       323     0    17     1     3
 -1.0656670204333084E+01 a       324     0    17     1     4
 -3.6213462479719345E+00 a       325     0    17     1     5
 -9.9287227882056790E+00 a       326     0    17     1     6
  1.4066652847990188E+01 a       327     0    17     1     7
 -2.0966268108212565E+00 a       328     0    17     1     8
 -1.3632992625376048E+00 a       329     0    17     1     9
  5.4232584131162795E+00 a       330     0    17     1    10
 -4.0105649284557382E-01 a       331     0    17     1    11
  1.9650598038632123E+00 a       332     0    17     1    12
  5.2415950996052647E+00 a       333     0    17     1    13
  9.0576126614051733E-01 a       334     0    17     1    14
  8.9755783786108481E+00 a       335     0    17     1    15
 -6.6475800759346280E+00 a       336     0    17     1    16
 -5.4358960202509765E+00 a       337     0    17     1    17
  7.0552507283068850E+00 a       338     0    17     1    18
  7.3832432273630557E+00 a       339     0    17     1    19
  1.3228284021173822E+01 a       340     0    17     1    20
  1.6311575401149543E+01 a       341     0    18     1     1
  1.3477838753702875E+01 a       342     0    18     1     2
  6.4515900317522545E+00 a       343     0    18     1     3
 -6.3211611012909321E+00 a       344     0    18     1     4
  7.2381252217924921E+00 a       345     0    18     1     5
 -6.5363295255956739E+00 a       346     0    18     1     6
  1.0588186787788023E+00 a       347     0    18     1     7
 -2.0377706102484958E-01 a       348     0    18     1     8
  9.4637014188390367E+00 a       349     0    18     1     9
  5.9416242843157119E-01 a       350     0    18     1    10
 -1.2822117908533961E+00 a       351     0    18     1    11
  1.8729363042326497E+00 a       352     0    18     1    12
 -6.4881464013085237E+00 a       353     0    18     1    13
 -2.0480909908883927E+01 a       354     0    18     1    14
  2.0839263867131224E+00 a       355     0    18     1    15
 -1.5277399162769125E+01 a       356     0    18     1    16
  5.1306482585533431E+00 a       357     0    18     1    17
  1.1172064670326611E+01 a       358     0    18     1    18
  5.9862274508654094E+00 a       359     0    18     1    19
 -4.1190251353769982E+00 a       360     0    18     1    20
 -6.6291822282730610E+00 a       361     0    19     1     1
  6.0399293721480811E+00 a       362     0    19     1     2
 -6.6773483771675597E+00 a       363     0    19     1     3
 -1.7883080363254596E+01 a       364     0    19     1     4
 -6.3804304003875592E+00 a       365     0    19     1     5
  7.1058549623784666E+00 a       366     0    19     1     6
 -1.1474780323050263E+01 a       367     0    19     1     7
 -1.1819051910322247E+00 a       368     0    19     1     8
  2.3671818356672969E+01 a       369     0    19     1     9
  6.2049413383079621E-01 a       370     0    19     1    10
  1.5434035467137470E+01 a       371     0    19     1    11
  1.1288128112886181E+01 a       372     0    19     1    12
 -2.0234848928373594E+01 a       373     0    19     1    13
  3.6300559246519652E+00 a       374     0    19     1    14
 -5.9167160862857262E+00 a       375     0    19     1    15
  7.5965048041869991E+00 a       376     0    19     1    16
  1.7682181943722565E+01 a       377     0    19     1    17
  1.4807737062624108E+01 a       378     0    19     1    18
 -2.5599334174253983E+00 a       379     0    19     1    19
 -2.1204172749577641E+01 a       380     0    19     1    20
  1.1890087986403261E+01 a       381     0    20     1     1
 -8.1906039655232998E+00 a       382     0    20     1     2
 -9.0643391083125096E+00 a       383     0    20     1     3
 -1.5292164670012058E+01 a       384     0    20     1     4
 -9.0712714240404608E+00 a       385     0    20     1     5
  4.4880657113552109E+00 a       386     0    20     1     6
 -6.0204063575015860E+00 a       387     0    20     1     7
 -4.3933949254930532E-01 a       388     0    20     1     8
 -7.9029577754155671E+00 a       389     0    20     1     9
 -2.2520045745442276E+00 a       390     0    20     1    10
  3.3541265853190976E+00 a       391     0    20     1    11
 -5.6770310320591311E-01 a       392     0    20     1    12
 -1.8972089877529402E+01 a       393     0    20     1    13
 -3.9339528167631901E+00 a       394     0    20     1    14
  3.9226551808126890E+00 a       395     0    20     1    15
 -3.4820555466740231E+01 a       396     0    20     1    16
  2.4764820744730489E+00 a       397     0    20     1    17
 -9.3298463749575724E+00 a       398     0    20     1    18
  6.2424041540385753E+00 a       399     0    20     1    19
 -7.3469903883936061E+00 a       400     0    20     1    20
  2.6095702739867228E+01 a       401     0    21     1     1
 -1.1928488702383895E+01 a       402     0    21     1     2
  4.9536982936351306E+00 a       403     0    21     1     3
 -1.4056690646631926E+01 a       404     0    21     1     4
  7.9233068720306230E+00 a       405     0    21     1     5
  1.9953594605829341E+01 a       406     0    21     1     6
  2.1616205273442866E+01 a       407     0    21     1     7
  3.0056405467193366E+00 a       408     0    21     1     8
 -1.0564146398083974E+01 a       409     0    21     1     9
  1.0416459776469107E+00 a       410     0    21     1    10
  2.5087122263957609E+00 a       411     0    21     1    11
 -7.7271092784201345E+00 a       412     0    21     1    12
  3.1297495362829433E+00 a       413     0    21     1    13
 -1.2836094101465804E+01 a       414     0    21     1    14
  9.0112878567119328E+00 a       415     0    21     1    15
  1.5632947799145834E+01 a       416     0    21     1    16
  1.3153929679946481E+01 a       417     0    21     1    17
  8.8842728117491916E+00 a       418     0    21     1    18
  7.6014235117916069E+00 a       419     0    21     1    19
  1.0145998958360376E+01 a       420     0    21     1    20
  1.1203864386669560E+00 a       421     0    22     1     1
 -7.4983041108745468E+01 a       422     0    22     1     2
  1.8990166359601709E+01 a       423     0    22     1     3
  9.4467385847621159E+00 a       424     0    22     1     4
  2.2120002321985865E+01 a       425     0    22     1     5
 -9.0955230528913606E+00 a       426     0    22     1     6
 -1.7692034901184169E+01 a       427     0    22     1     7
 -6.1745070923095433E+00 a       428     0    22     1     8
 -4.1910359312949508E+00 a       429     0    22     1     9
  3.2349867497961038E-01 a       430     0    22     1    10
  1.5235152224447432E+01 a       431     0    22     1    11
 -4.3024007769874029E+00 a       432     0    22     1    12
  3.1343752269114962E+00 a       433     0    22     1    13
  2.2219195657550248E+01 a       434     0    22     1    14
 -1.4010273844485962E+01 a       435     0    22     1    15
 -7.8471991271386239E+00 a       436     0    22     1    16
  2.3217053995649366E+01 a       437     0    22     1    17
 -1.5092462265894197E+01 a       438     0    22     1    18
 -2.9573447206168190E+01 a       439     0    22     1    19
  4.8827947289286637E+00 a       440     0    22     1    20
 -1.1386919874749751E+01 a       441     0    23     1     1
  1.3375399035010650E+01 a       442     0    23     1     2
  2.8060206604732851E+01 a       443     0    23     1     3
  1.7781309832828981E+01 a       444     0    23     1     4
  1.4005457390992094E+01 a       445     0    23     1     5
  7.2607117277201256E+00 a       446     0    23     1     6
 -7.3217761903888574E+00 a       447     0    23     1     7
  9.1553487668815781E-01 a       448     0    23     1     8
 -2.8101994056431657E+01 a       449     0    23     1     9
 -5.5617627748881828E+00 a       450     0    23     1    10
  6.3621306465379872E+00 a       451     0    23     1    11
 -3.7621750484281211E+00 a       452     0    23     1    12
 -1.8432245080427883E+01 a       453     0    23     1    13
 -1.4727309980338790E+00 a       454     0    23     1    14
 -1.4197514838644583E+01 a       455     0    23     1    15
  2.3709661745545773E+01 a       456     0    23     1    16
  1.4416449749288436E+01 a       457     0    23     1    17
 -9.3012781185272182E+00 a       458     0    23     1    18
 -6.8378974106155104E+00 a       459     0    23     1    19
 -8.1309741190535811E-01 a       460     0    23     1    20
 -9.1941108554269881E+00 a       461     0    24     1     1
 -9.4948048426798568E+00 a       462     0    24     1     2
 -1.7528631852132616E+01 a       463     0    24     1     3
  6.1441984457926380E-01 a       464     0    24     1     4
 -1.5006396476120559E+01 a       465     0    24     1     5
  9.5383848593225586E+00 a       466     0    24     1     6
  6.2359106829056055E+00 a       467     0    24     1     7
 -2.3159544941120584E+00 a       468     0    24     1     8
 -2.6982275449624431E+01 a       469     0    24     1     9
  2.0542933822792842E+00 a       470     0    24     1    10
  4.9761650674616709E+00 a       471     0    24     1    11
 -2.3374587139789704E+00 a       472     0    24     1    12
  3.2731284554012410E+00 a       473     0    24     1    13
  1.9991698830491501E+01 a       474     0    24     1    14
 -4.1667195640671455E+00 a       475     0    24     1    15
  1.2682995775377876E+01 a       476     0    24     1    16
 -1.7982204565192053E+01 a       477     0    24     1    17
 -1.7237806986453041E+01 a       478     0    24     1    18
 -5.4312260235947987E+00 a       479     0    24     1    19
  1.3995911840733532E+01 a       480     0    24     1    20
 -4.5484623112918081E+00 a       481     0    25     1     1
  6.7563916102703017E+00 a       482     0    25     1     2
  1.5879180501037038E-01 a       483     0    25     1     3
  1.4646207381443116E+01 a       484     0    25     1     4
  2.2196685381882574E+01 a       485     0    25     1     5
 -1.9367664847921390E+01 a       486     0    25     1     6
  1.7715368500215884E+01 a       487     0    25     1     7
 -1.0230785240225719E+00 a       488     0    25     1     8
 -1.6175444814656949E+01 a       489     0    25     1     9
  2.2979832236235365E+00 a       490     0    25     1    10
 -1.1608132221650576E+00 a       491     0    25     1    11
 -1.3762173111708726E+01 a       492     0    25     1    12
  2.2646537367734865E+01 a       493     0    25     1    13
 -5.8746754741621245E+00 a       494     0    25     1    14
  6.7884131842256901E+00 a       495     0    25     1    15
  9.5463263525205306E+00 a       496     0    25     1    16
 -1.3153606265470147E+01 a       497     0    25     1    17
  1.2187670053611310E+01 a       498     0    25     1    18
  6.6038257907555575E+00 a       499     0    25     1    19
  1.3243695620998004E+01 a       500     0    25     1    20
 -1.9349253032270518E+01 a       501     0    26     1     1
  5.5573678856040392E+00 a       502     0    26     1     2
  3.6914309161538630E+00 a       503     0    26     1     3
  1.9983485175451342E+01 a       504     0    26     1     4
  6.2599484183358571E+00 a       505     0    26     1     5
 -7.4165224674943824E+00 a       506     0    26     1     6
 -3.5973523813063615E+00 a       507     0    26     1     7
 -2.6329985668810991E+00 a       508     0    26     1     8
 -1.2069847346932323E+00 a       509     0    26     1     9
  5.7873369233245038E+00 a       510     0    26     1    10
 -2.3320326415363843E+00 a       511     0    26     1    11
  9.5256152686919560E-02 a       512     0    26     1    12
  2.5711163544417680E+01 a       513     0    26     1    13
  6.6576653962159504E+00 a       514     0    26     1    14
 -4.5343389931519731E+00 a       515     0    26     1    15
  2.1503414845239085E+01 a       516     0    26     1    16
  4.1199477500999198E+00 a       517     0    26     1    17
  8.1579332195951437E+00 a       518     0    26     1    18
 -4.5685512062674976E+00 a       519     0    26     1    19
 -5.2974497324097030E+00 a       520     0    26     1    20
 -2.6712296362693763E+01 a       521     0    27     1     1
  4.1928553578726140E+00 a       522     0    27     1     2
 -6.4196676666192731E+00 a       523     0    27     1     3
 -5.1000228182561811E+00 a       524     0    27     1     4
 -1.9798102284274538E+01 a       525     0    27     1     5
 -1.6594995581243033E+01 a       526     0    27     1     6
 -1.0709655925061494E+01 a       527     0    27     1     7
 -6.6517537031336937E+00 a       528     0    27     1     8
  1.2201842281815793E+01 a       529     0    27     1     9
  7.3156479742849312E-01 a       530     0    27     1    10
 -2.1019221106274728E+01 a       531     0    27     1    11
  7.6145833260989289E+00 a       532     0    27     1    12
 -2.5964540102506948E+01 a       533     0    27     1    13
  1.1497732297024438E+01 a       534     0    27     1    14
 -1.3922137970397056E+01 a       535     0    27     1    15
  2.0733708735973426E+00 a       536     0    27     1    16
 -8.3525444569373164E+00 a       537     0    27     1    17
 -1.6556465702754391E+01 a       538     0    27     1    18
  3.4299563483903583E-01 a       539     0    27     1    19
  1.7524258681809787E+01 a       540     0    27     1    20
  6.0962737664895101E+00 a       541     0    28     1     1
  2.9808184741323385E+00 a       542     0    28     1     2
  6.0807034782950875E-01 a       543     0    28     1     3
 -1.7341263151397886E+01 a       544     0    28     1     4
 -8.6076199184185731E-01 a       545     0    28     1     5
  2.9575703013925207E+01 a       546     0    28     1     6
  2.6760130674826783E+01 a       547     0    28     1     7
 -1.3530743681895776E+00 a       548     0    28     1     8
  3.5146011924063878E+01 a       549     0    28     1     9
  1.8861385332870169E+00 a       550     0    28     1    10
 -2.9225842274522140E+01 a       551     0    28     1    11
  3.0257216533717179E+00 a       552     0    28     1    12
 -4.8725286799737875E+00 a       553     0    28     1    13
 -3.2104800841295789E+00 a       554     0    28     1    14
 -1.8645107000151360E+00 a       555     0    28     1    15
 -1.4173964167351320E+01 a       556     0    28     1    16
  6.8296724721210893E+00 a       557     0    28     1    17
 -6.1440437063842870E+00 a       558     0    28     1    18
 -4.8542308841047772E+00 a       559     0    28     1    19
 -1.0462350084101141E+01 a       560     0    28     1    20
  1.2770204955809342E+01 a       561     0    29     1     1
  4.7894974054326440E+01 a       562     0    29     1     2
  9.7130718902746285E+00 a       563     0    29     1     3
  5.6065605959733649E+00 a       564     0    29     1     4
  4.1779971580029146E-01 a       565     0    29     1     5
 -1.2919051537350560E+01 a       566     0    29     1     6
  2.0367002739959638E+01 a       567     0    29     1     7
 -9.3470037469590650E-02 a       568     0    29     1     8
  3.5423651115017134E+00 a       569     0    29     1     9
 -2.4471642063035843E+00 a       570     0    29     1    10
 -1.0876107759862949E+01 a       571     0    29     1    11
 -1.1788136738141810E+00 a       572     0    29     1    12
 -1.9072978194457335E+01 a       573     0    29     1    13
 -1.1049516190779702E+01 a       574     0    29     1    14
 -3.2371863752387413E+00 a       575     0    29     1    15
 -9.6493974614215556E+00 a       576     0    29     1    16
  3.0348335508542612E-01 a       577     0    29     1    17
 -1.3277191836916119E+01 a       578     0    29     1    18
  5.4785160963469597E+00 a       579     0    29     1    19
  4.0477754277622232E+01 a       580     0    29     1    20
 -8.1025743559228189E+00 a       581     0    30     1     1
  7.7581397254974709E+00 a       582     0    30     1     2
  2.1354523744392784E-02 a       583     0    30     1     3
  1.3524909549962933E+01 a       584     0    30     1     4
 -9.8270991045210287E-01 a       585     0    30     1     5
 -2.6418033298298898E+01 a       586     0    30     1     6
  2.3486650137802872E+01 a       587     0    30     1     7
 -6.0802890267492971E-01 a       588     0    30     1     8
 -5.7498614388075930E+00 a       589     0    30     1     9
  2.4070399024893701E+00 a       590     0    30     1    10
 -2.9387316432245565E+00 a       591     0    30     1    11
 -1.7515926039490745E-01 a       592     0    30     1    12
 -2.2395202569201538E+00 a       593     0    30     1    13
  1.9199876758350840E+01 a       594     0    30     1    14
  1.4710078081152886E+00 a       595     0    30     1    15
  2.8500075345890473E+01 a       596     0    30     1    16
 -3.3215612916721451E+00 a       597     0    30     1    17
 -5.8785378376894855E+00 a       598     0    30     1    18
  4.8057693808897506E+00 a       599     0    30     1    19
 -1.0273792282921352E+01 a       600     0    30     1    20
  1.4192852523261734E+00 a       601     0    31     1     1
  3.6152982098363600E+00 a       602     0    31     1     2
  8.6329734167417023E+00 a       603     0    31     1     3
 -7.3290787400233937E+00 a       604     0    31     1     4
  1.3851851402542710E+01 a       605     0    31     1     5
  1.3134565572873690E+01 a       606     0    31     1     6
 -5.9504257743314328E+00 a       607     0    31     1     7
  9.0237298994407711E-01 a       608     0    31     1     8
 -2.0146098524197381E+01 a       609     0    31     1     9
 -1.3219440537265497E+00 a       610     0    31     1    10
 -7.6309152610114630E+00 a       611     0    31     1    11
 -2.9867483960900270E+00 a       612     0    31     1    12
  3.9967206600010719E+01 a       613     0    31     1    13
 -2.2357063256419977E+01 a       614     0    31     1    14
 -1.3843351907374604E-01 a       615     0    31     1    15
  9.3571641412353710E+00 a       616     0    31     1    16
 -5.0534522676251328E+00 a       617     0    31     1    17
  1.3357941956024895E+01 a       618     0    31     1    18
  1.5241305507329223E+01 a       619     0    31     1    19
  1.8980218538308570E+01 a       620     0    31     1    20
 -2.2094618917130190E-01 a       621     0    32     1     1
  8.9703603993640701E+00 a       622     0    32     1     2
  4.1524982742607444E+00 a       623     0    32     1     3
 -4.9542511957795501E+00 a       624     0    32     1     4
 -1.4374011278425980E-01 a       625     0    32     1     5
  1.8241986612885203E-02 a       626     0    32     1     6
  1.6412479122945467E+01 a       627     0    32     1     7
  5.8802414746379683E-01 a       628     0    32     1     8
  9.8185581239939150E+00 a       629     0    32     1     9
  3.7725799471172956E+00 a       630     0    32     1    10
 -8.1778390212604357E+00 a       631     0    32     1    11
  3.6689558022754343E-01 a       632     0    32     1    12
  4.3950249493473725E+00 a       633     0    32     1    13
  4.0098131056760273E+01 a       634     0    32     1    14
 -2.9809525064412932E+00 a       635     0    32     1    15
  3.3862819140522831E+01 a       636     0    32     1    16
 -8.0446610222368893E+00 a       637     0    32     1    17
 -4.4614471145890313E+00 a       638     0    32     1    18
  6.7261774107446000E+00 a       639     0    32     1    19
  3.7872731585664681E+01 a       640     0    32     1    20
  5.5374313845669985E+00 a       641     0    33     1     1
  3.4276795412252476E+01 a       642     0    33     1     2
 -1.5069394983821578E+01 a       643     0    33     1     3
 -1.0939275796248197E+01 a       644     0    33     1     4
 -7.0560662305063904E+00 a       645     0    33     1     5
 -2.2493408353937459E+00 a       646     0    33     1     6
 -1.5087528095579406E+01 a       647     0    33     1     7
 -2.3109398712547389E+00 a       648     0    33     1     8
 -3.3811960867795827E+00 a       649     0    33     1     9
  3.9250257481413753E+00 a       650     0    33     1    10
 -3.6742698347427144E+01 a       651     0    33     1    11
  3.3707971107250216E+00 a       652     0    33     1    12
 -3.3009385189103533E+00 a       653     0    33     1    13
  1.6237477174642037E+00 a       654     0    33     1    14
 -1.1510069804960197E+00 a       655     0    33     1    15
 -1.5042504269301597E+01 a       656     0    33     1    16
 -2.4996702108343886E+01 a       657     0    33     1    17
  3.5923666353493737E+00 a       658     0    33     1    18
  7.3074682198294063E+00 a       659     0    33     1    19
 -2.5266080105733032E+01 a       660     0    33     1    20
 -7.9770613636766630E+00 a       661     0    34     1     1
  3.0337837598691252E+01 a       662     0    34     1     2
 -1.1256315668423433E+01 a       663     0    34     1     3
  7.5355184041715644E+00 a       664     0    34     1     4
 -1.0515643500355994E+01 a       665     0    34     1     5
  1.9670950407409726E+00 a       666     0    34     1     6
  7.6075354439005052E+00 a       667     0    34     1     7
  3.8799337392815296E+00 a       668     0    34     1     8
  7.6216573353529489E+00 a       669     0    34     1     9
 -1.9260118722560597E+00 a       670     0    34     1    10
 -6.9246721480427196E+00 a       671     0    34     1    11
  8.6080610378090539E-01 a       672     0    34     1    12
 -1.4747607887210494E+01 a       673     0    34     1    13
  9.2180362434426821E-01 a       674     0    34     1    14
  6.0905032441747871E+00 a       675     0    34     1    15
 -2.4594062588191804E+01 a       676     0    34     1    16
 -1.5920318938111437E+01 a       677     0    34     1    17
  1.1207353870608332E+01 a       678     0    34     1    18
  1.8656870352316943E+01 a       679     0    34     1    19
  1.3334108991228788E+01 a       680     0    34     1    20
  5.7998098367494890E+00 a       681     0    35     1     1
 -4.6701266726568793E+00 a       682     0    35     1     2
 -1.2165088011588280E+01 a       683     0    35     1     3
 -5.0217664686723831E+00 a       684     0    35     1     4
 -1.7994031773211120E+01 a       685     0    35     1     5
 -9.6099934319291211E+00 a       686     0    35     1     6
  2.1498228136255038E+00 a       687     0    35     1     7
 -1.5054556049399173E-01 a       688     0    35     1     8
  3.1146611282139119E+01 a       689     0    35     1     9
  2.0178928379594301E+00 a       690     0    35     1    10
 -1.4649336210309878E+00 a       691     0    35     1    11
  2.6097436082509686E+00 a       692     0    35     1    12
  1.6489839450684659E+01 a       693     0    35     1    13
 -4.4031644217123844E+00 a       694     0    35     1    14
  7.2295489027243045E+00 a       695     0    35     1    15
 -1.5537902358116126E+01 a       696     0    35     1    16
 -8.0293690993704665E+00 a       697     0    35     1    17
 -1.9960801898062960E-01 a       698     0    35     1    18
  4.5732733155608667E+00 a       699     0    35     1    19
 -1.9903843810796420E+01 a       700     0    35     1    20
 -2.6239455972794479E-01 a       701     0    36     1     1
 -4.1861522298566312E-01 a       702     0    36     1     2
  8.7120998082534271E+00 a       703     0    36     1     3
  5.6602800493387360E+00 a       704     0    36     1     4
  1.2616589170565215E+01 a       705     0    36     1     5
  8.8326054132806009E-01 a       706     0    36     1     6
  2.6221589751299588E+00 a       707     0    36     1     7
  1.6468124344661563E+00 a       708     0    36     1     8
  2.9848072373395738E+01 a       709     0    36     1     9
 -1.5363931021003587E+00 a       710     0    36     1    10
  7.0750882429228064E+00 a       711     0    36     1    11
  1.1335691455602792E+00 a       712     0    36     1    12
 -8.8184649051423456E+00 a       713     0    36     1    13
  1.9365782195958925E+00 a       714     0    36     1    14
  1.0313419146470413E+00 a       715     0    36     1    15
  3.5031607350221847E+00 a       716     0    36     1    16
  1.5432797516520715E+01 a       717     0    36     1    17
  8.8610848724223334E+00 a       718     0    36     1    18
  4.2904065953211283E+00 a       719     0    36     1    19
 -8.0689654215611810E+00 a       720     0    36     1    20
  9.2762066420431193E+00 a       721     0    37     1     1
 -6.7673900319949718E+00 a       722     0    37     1     2
  2.8306836993131173E+00 a       723     0    37     1     3
 -2.3810121105222466E+00 a       724     0    37     1     4
 -1.3690579644635212E+01 a       725     0    37     1     5
  1.1343710292938670E+01 a       726     0    37     1     6
 -1.5769511732338273E+01 a       727     0    37     1     7
  9.1633442690540379E-01 a       728     0    37     1     8
 -4.5751160441150311E+00 a       729     0    37     1     9
 -9.1327417598312977E-01 a       730     0    37     1    10
 -1.1771704254897076E+01 a       731     0    37     1    11
  4.9251185604822707E+00 a       732     0    37     1    12
 -2.4571416311645278E-02 a       733     0    37     1    13
 -1.6809017685246765E+01 a       734     0    37     1    14
 -4.2812127856936364E+00 a       735     0    37     1    15
 -1.1829513829999170E+01 a       736     0    37     1    16
  5.0198658558458673E+00 a       737     0    37     1    17
 -1.1171020207322146E+01 a       738     0    37     1    18
 -2.7443082059534794E+00 a       739     0    37     1    19
  6.8473685189948101E+00 a       740     0    37     1    20
  1.4569704382097310E+01 a       741     0    38     1     1
 -5.6066786549503194E+00 a       742     0    38     1     2
  2.2300657493963798E+00 a       743     0    38     1     3
 -1.3712679810921758E+01 a       744     0    38     1     4
 -2.6441761211136230E+00 a       745     0    38     1     5
  1.0841159672993474E+01 a       746     0    38     1     6
  5.3206156351501139E+00 a       747     0    38     1     7
  1.9377857394091278E+00 a       748     0    38     1     8
  3.7434790959606281E+00 a       749     0    38     1     9
 -2.9148482120337760E+00 a       750     0    38     1    10
 -9.2885770939127410E-01 a       751     0    38     1    11
  1.5058380201299951E-01 a       752     0    38     1    12
 -1.4838689125531246E+01 a       753     0    38     1    13
 -5.9004366693387587E+00 a       754     0    38     1    14
  1.5568491925554158E+00 a       755     0    38     1    15
 -1.1125662339414983E+00 a       756     0    38     1    16
 -6.8486404664279670E+00 a       757     0    38     1    17
 -3.7095299129140007E+00 a       758     0    38     1    18
  1.7756665383421093E+00 a       759     0    38     1    19
  2.3878594644562665E+00 a       760     0    38     1    20
  1.1925418230366580E+01 a       761     0    39     1     1
  4.7798176629690685E+00 a       762     0    39     1     2
 -1.2011044144114873E+00 a       763     0    39     1     3
  1.0672863769440518E+01 a       764     0    39     1     4
  1.6672525369603463E+01 a       765     0    39     1     5
  1.1624790599919454E+01 a       766     0    39     1     6
 -2.2531194405485813E-01 a       767     0    39     1     7
  3.7124013235460702E+00 a       768     0    39     1     8
 -1.1112646163679099E+01 a       769     0    39     1     9
 -2.5387305876614009E-02 a       770     0    39     1    10
  1.4450689163443936E+01 a       771     0    39     1    11
 -1.7298484244959951E+00 a       772     0    39     1    12
  1.2811734128728862E+01 a       773     0    39     1    13
 -2.8228341194084190E+00 a       774     0    39     1    14
  5.4086276232562334E+00 a       775     0    39     1    15
  4.0059392207296751E+00 a       776     0    39     1    16
  2.6930483274486563E+00 a       777     0    39     1    17
  1.1494203420668416E+01 a       778     0    39     1    18
 -2.5375197343201092E+00 a       779     0    39     1    19
 -1.5447451791516635E+01 a       780     0    39     1    20
  8.5223762108079733E+00 a       781     0    40     1     1
  9.5713144176135359E+00 a       782     0    40     1     2
 -1.0908496553414331E+01 a       783     0    40     1     3
  1.5268250443359070E+01 a       784     0    40     1     4
  1.2276502519774246E+01 a       785     0    40     1     5
 -1.7458303226038343E+01 a       786     0    40     1     6
  8.3148962452339958E+00 a       787     0    40     1     7
 -3.9791654868879043E+00 a       788     0    40     1     8
 -1.2792243572714218E+01 a       789     0    40     1     9
  1.1919188891612154E+00 a       790     0    40     1    10
  5.7824196233008177E-02 a       791     0    40     1    11
 -5.5638469382175959E+00 a       792     0    40     1    12
 -5.2147829967940895E+00 a       793     0    40     1    13
 -7.0118073131633780E+00 a       794     0    40     1    14
 -5.5759309253717495E+00 a       795     0    40     1    15
  5.0448316497159365E+00 a       796     0    40     1    16
 -1.9024118586162096E+01 a       797     0    40     1    17
 -1.9741697014399634E+01 a       798     0    40     1    18
 -4.9994311799965713E-01 a       799     0    40     1    19
  1.4098274632918873E+01 a       800     0    40     1    20
  1.1139993932807064E+01 a       801     0    41     1     1
  1.4594409953452114E+01 a       802     0    41     1     2
  2.1602196726834883E+01 a       803     0    41     1     3
 -1.0210357714791224E+01 a       804     0    41     1     4
 -1.1794990738743502E+01 a       805     0    41     1     5
  1.5024103378595322E+01 a       806     0    41     1     6
  5.1016845405005518E-01 a       807     0    41     1     7
 -8.1115685254207526E-01 a       808     0    41     1     8
  2.2326958347988374E+01 a       809     0    41     1     9
 -3.8454083793916749E+00 a       810     0    41     1    10
 -4.0538890554429168E+00 a       811     0    41     1    11
 -3.5645359187337702E+00 a       812     0    41     1    12
  6.5037047850848850E+00 a       813     0    41     1    13
  1.3634135603096476E+01 a       814     0    41     1    14
 -1.5510441308344898E+01 a       815     0    41     1    15
 -1.8183441129070033E+01 a       816     0    41     1    16
  1.4251218646899817E+01 a       817     0    41     1    17
 -1.5500836175661227E+01 a       818     0    41     1    18
  1.2599405079275265E+00 a       819     0    41     1    19
 -2.2548012786372489E+01 a       820     0    41     1    20
 -1.8401008092855314E+01 a       821     0    42     1     1
 -2.8154779408347885E+01 a       822     0    42     1     2
 -1.4616284826070732E+01 a       823     0    42     1     3
 -1.5489644238541223E+00 a       824     0    42     1     4
  5.1923466519941623E+00 a       825     0    42     1     5
  3.0902360220936579E+01 a       826     0    42     1     6
  5.5482797303508180E+00 a       827     0    42     1     7
 -5.7318178518817042E+00 a       828     0    42     1     8
  7.1552375743505625E-01 a       829     0    42     1     9
  2.7820281888345306E+00 a       830     0    42     1    10
 -1.0920249826162379E+01 a       831     0    42     1    11
 -3.0601735305780049E+00 a       832     0    42     1    12
 -6.5743695936042608E+00 a       833     0    42     1    13
  2.4244534736853454E+00 a       834     0    42     1    14
 -7.9365282223054203E+00 a       835     0    42     1    15
 -1.6997000930022704E+01 a       836     0    42     1    16
  8.2544224296390798E+00 a       837     0    42     1    17
  4.6208478543834817E+00 a       838     0    42     1    18
  7.2494875112343742E+00 a       839     0    42     1    19
 -6.2312166501699391E+00 a       840     0    42     1    20
  1.1600325996397848E+01 a       841     0    43     1     1
 -1.0653412572527346E+01 a       842     0    43     1     2
  7.6985586948738032E+00 a       843     0    43     1     3
  3.0163554754048221E+01 a       844     0    43     1     4
 -1.9854384641051851E+01 a       845     0    43     1     5
  3.4204733511341942E+01 a       846     0    43     1     6
 -3.3493188780504881E+00 a       847     0    43     1     7
 -2.0109768964361732E+00 a       848     0    43     1     8
 -6.4952445448034926E+00 a       849     0    43     1     9
  2.5036014269703588E+00 a       850     0    43     1    10
  1.8984141006589792E+00 a       851     0    43     1    11
 -1.1776202309538846E+01 a       852     0    43     1    12
 -1.2792334209544560E+01 a       853     0    43     1    13
  5.2669609220975691E+00 a       854     0    43     1    14
  4.4269825023480047E+00 a       855     0    43     1    15
 -4.2621453552910658E+01 a       856     0    43     1    16
 -6.4604014735700126E+00 a       857     0    43     1    17
 -2.2002248243016883E+01 a       858     0    43     1    18
  7.7989534410137606E+00 a       859     0    43     1    19
 -5.7511942242378957E+00 a       860     0    43     1    20
  1.2032993153950645E+01 a       861     0    44     1     1
  7.1209829780633447E+00 a       862     0    44     1     2
  1.1000304140238371E+00 a       863     0    44     1     3
  4.4239981680069134E+00 a       864     0    44     1     4
 -4.4734885234496657E-01 a       865     0    44     1     5
  1.1740675410065489E+01 a       866     0    44     1     6
  1.0099367953819607E+01 a       867     0    44     1     7
 -5.3534658170527258E+00 a       868     0    44     1     8
 -2.7423084637581083E+00 a       869     0    44     1     9
  2.8836339778563178E+00 a       870     0    44     1    10
 -3.2448896433574141E+00 a       871     0    44     1    11
 -7.5200708876163991E-01 a       872     0    44     1    12
 -1.7850284266853409E+00 a       873     0    44     1    13
 -1.6220820000625572E+01 a       874     0    44     1    14
 -6.9199449597908540E+00 a       875     0    44     1    15
  5.9737657441854370E+00 a       876     0    44     1    16
 -1.1867331772609516E+01 a       877     0    44     1    17
  7.4410327755350174E+00 a       878     0    44     1    18
 -1.6649750208223082E-01 a       879     0    44     1    19
 -3.8329735663475231E+00 a       880     0    44     1    20
  5.5555012326692221E-01 a       881     0    45     1     1
  2.1968358641360595E+01 a       882     0    45     1     2
 -4.0922854238916804E+00 a       883     0    45     1     3
  2.2076781629333581E+01 a       884     0    45     1     4
  9.8517456349465817E+00 a       885     0    45     1     5
 -7.1877956027235372E+00 a       886     0    45     1     6
  3.0604717157621266E+00 a       887     0    45     1     7
 -1.0300144301050969E+01 a       888     0    45     1     8
  1.1765396426399196E+01 a       889     0    45     1     9
 -3.5744710488158260E-01 a       890     0    45     1    10
  6.6562630930749158E+00 a       891     0    45     1    11
  6.2228824092308725E+00 a       892     0    45     1    12
  1.8675025283429438E+00 a       893     0    45     1    13
 -1.8989793542945335E+00 a       894     0    45     1    14
 -2.0592558611512640E+01 a       895     0    45     1    15
 -1.4206665979225482E+01 a       896     0    45     1    16
  1.2450799137425966E+01 a       897     0    45     1    17
  3.8287784883031439E+00 a       898     0    45     1    18
  2.4280491126223849E+00 a       899     0    45     1    19
 -6.7399053837553815E+00 a       900     0    45     1    20
 -1.9471373478419149E+00 a       901     0    46     1     1
 -1.5638417597273685E+01 a       902     0    46     1     2
  1.3347119243581956E+01 a       903     0    46     1     3
 -1.5839710759802399E+01 a       904     0    46     1     4
 -1.8016355077301597E+01 a       905     0    46     1     5
  2.8043757361538724E+01 a       906     0    46     1     6
 -9.4404921578143099E+00 a       907     0    46     1     7
  6.9670593659476436E+00 a       908     0    46     1     8
  2.8319731669495805E+01 a       909     0    46     1     9
 -1.4005534943150491E+00 a       910     0    46     1    10
  1.0445996857240853E+01 a       911     0    46     1    11
  6.4810087608361426E+00 a       912     0    46     1    12
  2.4975979222392439E+01 a       913     0    46     1    13
  1.2502647662263248E+01 a       914     0    46     1    14
  9.4081830726835705E+00 a       915     0    46     1    15
  5.4087265246661698E+00 a       916     0    46     1    16
  1.5459357035154268E+01 a       917     0    46     1    17
  1.0897949672306213E+01 a       918     0    46     1    18
  6.2335651865776427E+00 a       919     0    46     1    19
 -2.0422813124071087E+01 a       920     0    46     1    20
 -1.5007697810846379E+00 a       921     0    47     1     1
 -1.9049876323177347E+01 a       922     0    47     1     2
 -2.6231359484451421E+01 a       923     0    47     1     3
  2.3036448566893423E+01 a       924     0    47     1     4
  4.1233031869644963E+00 a       925     0    47     1     5
 -3.6935008736662684E+00 a       926     0    47     1     6
 -6.0174333844073145E+00 a       927     0    47     1     7
  2.8982908537541823E+00 a       928     0    47     1     8
 -1.0644551585419794E+01 a       929     0    47     1     9
  7.3064420879348146E+00 a       930     0    47     1    10
  2.7637668170543401E+00 a       931     0    47     1    11
  6.8012707518973121E+00 a       932     0    47     1    12
  7.2768203404454423E+00 a       933     0    47     1    13
 -1.1613737399168794E+01 a       934     0    47     1    14
  2.6054611464407966E+01 a       935     0    47     1    15
  1.8819884811515259E+01 a       936     0    47     1    16
 -2.7505736314075953E+01 a       937     0    47     1    17
  1.9204482061212236E+01 a       938     0    47     1    18
 -3.4285140509140297E+00 a       939     0    47     1    19
  8.0203686504250591E+00 a       940     0    47     1    20
  6.9105676819334105E+00 a       941     0    48     1     1
  2.7017420882321719E+01 a       942     0    48     1     2
  1.6471066409973037E+01 a       943     0    48     1     3
  2.9241094887859845E+01 a       944     0    48     1     4
  4.5067826562040816E+00 a       945     0    48     1     5
 -3.1944573916222883E+01 a       946     0    48     1     6
 -3.0543799788912828E+01 a       947     0    48     1     7
  8.9785536230598879E+00 a       948     0    48     1     8
  4.9615134782729126E-01 a       949     0    48     1     9
 -2.0331886577856122E+00 a       950     0    48     1    10
 -2.4846072976909870E+00 a       951     0    48     1    11
  2.7261904642096071E+00 a       952     0    48     1    12
  1.2778094428780619E+01 a       953     0    48     1    13
  1.0801006578343211E+01 a       954     0    48     1    14
  1.3291964193011621E+01 a       955     0    48     1    15
  2.7593913775828717E+01 a       956     0    48     1    16
  9.8337455549473685E-01 a       957     0    48     1    17
 -6.9458756869927525E+00 a       958     0    48     1    18
 -5.5267743502660966E+00 a       959     0    48     1    19
 -7.8244709166357920E+00 a       960     0    48     1    20
  3.9511181578763246E+00 a       961     0    49     1     1
 -7.3759428224024051E+00 a       962     0    49     1     2
 -8.7543349083189952E+00 a       963     0    49     1     3
 -6.3095746682847293E+00 a       964     0    49     1     4
 -3.1319295016834228E+00 a       965     0    49     1     5
 -2.9876839922142890E+00 a       966     0    49     1     6
  1.2468118113107902E+01 a       967     0    49     1     7
  3.8270295118148723E+00 a       968     0    49     1     8
 -1.5386817390870890E+01 a       969     0    49     1     9
 -3.5238799427354248E+00 a       970     0    49     1    10
 -6.6079173272739249E+00 a       971     0    49     1    11
  1.2785421194940541E+01 a       972     0    49     1    12
  1.0503802235764224E+01 a       973     0    49     1    13
  5.9585178181304919E+00 a       974     0    49     1    14
 -4.3037393939382591E+00 a       975     0    49     1    15
  1.8586945502888781E+01 a       976     0    49     1    16
 -1.3014093908431423E+01 a       977     0    49     1    17
 -4.0240917894650314E+00 a       978     0    49     1    18
 -1.1820495013193177E+01 a       979     0    49     1    19
  7.9686210997771456E-01 a       980     0    49     1    20
 -1.6862206819518224E+01 a       981     0    50     1     1
  4.9439994700629466E+00 a       982     0    50     1     2
 -1.2213201858570653E+00 a       983     0    50     1     3
  7.8931867518107115E+00 a       984     0    50     1     4
  1.4607864728332101E+01 a       985     0    50     1     5
 -1.8369970364053795E+01 a       986     0    50     1     6
  7.1047193172908818E+00 a       987     0    50     1     7
  1.0088861434665105E+01 a       988     0    50     1     8
  1.6653271159212263E+01 a       989     0    50     1     9
 -3.8417921981420786E+00 a       990     0    50     1    10
  9.6951207711781096E-01 a       991     0    50     1    11
  1.1105527461869005E+00 a       992     0    50     1    12
 -9.0810950991384143E+00 a       993     0    50     1    13
  2.4194048638991777E+01 a       994     0    50     1    14
  8.3754821148736820E+00 a       995     0    50     1    15
  2.7775045603068836E+01 a       996     0    50     1    16
  7.0929047705399766E+00 a       997     0    50     1    17
 -6.0307022481803010E+00 a       998     0    50     1    18
  4.1051594423944602E+00 a       999     0    50     1    19
  1.2518429845526038E+01 a      1000     0    50     1    20
 -7.1724737943954908E+00 a      1001     0    51     1     1
 -1.2889458608694966E+01 a      1002     0    51     1     2
 -1.2506791410242480E+01 a      1003     0    51     1     3
  5.6942574483200810E+00 a      1004     0    51     1     4
 -3.2899346521410205E-01 a      1005     0    51     1     5
 -5.9588337560764435E+00 a      1006     0    51     1     6
 -2.9728305301230410E+01 a      1007     0    51     1     7
  1.6982482413755619E+01 a      1008     0    51     1     8
 -1.3273937275504874E+01 a      1009     0    51     1     9
  5.1719960503059266E+00 a      1010     0    51     1    10
  6.4195643226008539E+00 a      1011     0    51     1    11
 -5.9459286907653714E+00 a      1012     0    51     1    12
  1.3095248169483229E+01 a      1013     0    51     1    13
  6.6353355646059411E+00 a      1014     0    51     1    14
  3.6888420635109767E+01 a      1015     0    51     1    15
 -1.5967504855271963E+01 a      1016     0    51     1    16
 -3.7342601245982060E+01 a      1017     0    51     1    17
 -4.6000314257563248E+00 a      1018     0    51     1    18
 -4.2338719822643691E+00 a      1019     0    51     1    19
 -2.0551250000081858E+01 a      1020     0    51     1    20
 -2.7582284924903306E+01 a      1021     0    52     1     1
 -2.5413490630351451E+01 a      1022     0    52     1     2
  4.6374370940213980E+00 a      1023     0    52     1     3
  3.4124330196547263E+01 a      1024     0    52     1     4
 -3.2699726604301356E+00 a      1025     0    52     1     5
 -2.7230016841532578E+01 a      1026     0    52     1     6
 -5.0197984418081901E+01 a      1027     0    52     1     7
  1.8739954912948071E+00 a      1028     0    52     1     8
 -2.8433334698225234E+01 a      1029     0    52     1     9
 -4.1653748784106787E-01 a      1030     0    52     1    10
  4.6866028819544219E+01 a      1031     0    52     1    11
 -4.0238859204645268E+00 a      1032     0    52     1    12
 -3.0049942158463709E+00 a      1033     0    52     1    13
  4.0093316301777136E+01 a      1034     0    52     1    14
  3.2462330523571161E+00 a      1035     0    52     1    15
  1.0159247803637573E+01 a      1036     0    52     1    16
  3.7711087293090340E+00 a      1037     0    52     1    17
  1.3595016779799295E+01 a      1038     0    52     1    18
  9.7953786641683376E+00 a      1039     0    52     1    19
  1.6954197767664027E+01 a      1040     0    52     1    20
 -5.2787889841921327E+00 a      1041     0    53     1     1
 -4.9595603550699586E+01 a      1042     0    53     1     2
 -5.4102598786724618E+00 a      1043     0    53     1     3
  7.8982455192646694E-01 a      1044     0    53     1     4
  1.3183190258579019E+01 a      1045     0    53     1     5
  2.3740644926453655E+01 a      1046     0    53     1     6
 -9.9821881481790022E+00 a      1047     0    53     1     7
 -4.6940165855514505E-02 a      1048     0    53     1     8
 -1.1260534067340339E+01 a      1049     0    53     1     9
  5.3039378938237238E+00 a      1050     0    53     1    10
  5.9988588762750945E+00 a      1051     0    53     1    11
  7.1736503476064828E-01 a      1052     0    53     1    12
  2.0866908129115149E+00 a      1053     0    53     1    13
  9.6398831777638403E+00 a      1054     0    53     1    14
  5.5562123697705257E+00 a      1055     0    53     1    15
  1.1923237556755879E+01 a      1056     0    53     1    16
 -9.4388905678688388E+00 a      1057     0    53     1    17
  2.2259920426829762E+01 a      1058     0    53     1    18
 -2.4083398002814715E+00 a      1059     0    53     1    19
 -4.3925277284244615E+01 a      1060     0    53     1    20
  1.1693356684743383E+01 a      1061     0    54     1     1
  5.4519150291360710E+00 a      1062     0    54     1     2
  3.2642685335736155E+00 a      1063     0    54     1     3
 -2.1520319605243873E+01 a      1064     0    54     1     4
  8.7657175522209019E-01 a      1065     0    54     1     5
  2.2513934396872468E+01 a      1066     0    54     1     6
 -2.5557801151850764E+01 a      1067     0    54     1     7
  5.2956058629291380E-01 a      1068     0    54     1     8
  1.4886178533857523E+01 a      1069     0    54     1     9
  1.8864563988974803E-01 a      1070     0    54     1    10
  9.4489066001018998E+00 a      1071     0    54     1    11
 -4.7003450972007649E-01 a      1072     0    54     1    12
  6.1423830071891299E+00 a      1073     0    54     1    13
 -1.3906243858124402E+01 a      1074     0    54     1    14
 -8.0635779212294101E-01 a      1075     0    54     1    15
 -2.3672063831038415E+01 a      1076     0    54     1    16
  5.7883738116641696E+00 a      1077     0    54     1    17
  5.5317681820196563E-01 a      1078     0    54     1    18
 -3.2122203881714304E+00 a      1079     0    54     1    19
  9.4879363517248194E+00 a      1080     0    54     1    20
 -8.6919224532884254E+00 a      1081     0    55     1     1
  6.2070119468244176E+00 a      1082     0    55     1     2
 -8.9143853782036580E+00 a      1083     0    55     1     3
  7.9189691765125980E+00 a      1084     0    55     1     4
 -2.4709338868503458E+01 a      1085     0    55     1     5
 -4.5861492325630010E+01 a      1086     0    55     1     6
  1.0390078682394552E+01 a      1087     0    55     1     7
 -1.0964671987287484E+00 a      1088     0    55     1     8
  4.2150206736276964E+01 a      1089     0    55     1     9
  4.6134278201493100E+00 a      1090     0    55     1    10
 -6.8377148616255328E+00 a      1091     0    55     1    11
  5.6662373483481003E+00 a      1092     0    55     1    12
 -2.6660373040883453E+01 a      1093     0    55     1    13
  1.3583660533003114E+01 a      1094     0    55     1    14
  1.8965669253365505E-01 a      1095     0    55     1    15
  5.9980364481202786E+00 a      1096     0    55     1    16
  5.2190982295986563E+00 a      1097     0    55     1    17
 -2.7397676572843672E+01 a      1098     0    55     1    18
 -1.4691548756713045E+01 a      1099     0    55     1    19
 -1.1612911268379090E+01 a      1100     0    55     1    20
 -5.7893885802521732E+00 a      1101     0    56     1     1
 -8.2644692428324706E-01 a      1102     0    56     1     2
  5.3374057977377365E-01 a      1103     0    56     1     3
  9.1533591556503193E+00 a      1104     0    56     1     4
  7.3562794159046234E+00 a      1105     0    56     1     5
 -8.4486353399395320E+00 a      1106     0    56     1     6
 -3.0791062272470224E+01 a      1107     0    56     1     7
 -8.6565991449307289E-01 a      1108     0    56     1     8
 -6.5834165922104964E+00 a      1109     0    56     1     9
  1.0352800834370812E+00 a      1110     0    56     1    10
  1.0606582606720243E+01 a      1111     0    56     1    11
 -1.2753375231393673E+00 a      1112     0    56     1    12
  9.1409968610875350E+00 a      1113     0    56     1    13
 -5.3897399644285770E+01 a      1114     0    56     1    14
  6.0322840031323226E+00 a      1115     0    56     1    15
 -3.8398808204623663E+01 a      1116     0    56     1    16
  1.9886552896664895E+01 a      1117     0    56     1    17
  6.5072757225739446E+00 a      1118     0    56     1    18
 -4.3971862979118130E+00 a      1119     0    56     1    19
 -4.1427042573840147E+01 a      1120     0    56     1    20
 -1.7031990847360372E+01 a      1121     0    57     1     1
 -3.4572894030333501E+01 a      1122     0    57     1     2
  1.8279004571686730E+01 a      1123     0    57     1     3
  2.8527057709954913E+00 a      1124     0    57     1     4
 -4.0408613620650602E+00 a      1125     0    57     1     5
  1.9990685722048793E+00 a      1126     0    57     1     6
  1.5203952526004647E+01 a      1127     0    57     1     7
  2.6246696447313211E+00 a      1128     0    57     1     8
 -3.7379394003797315E+00 a      1129     0    57     1     9
  3.8745329902357932E+00 a      1130     0    57     1    10
  4.0804156524481471E+01 a      1131     0    57     1    11
 -6.7138873073608769E+00 a      1132     0    57     1    12
  1.0038737035514114E+01 a      1133     0    57     1    13
 -2.5285481278528072E+00 a      1134     0    57     1    14
  7.2923552953949331E+00 a      1135     0    57     1    15
  2.8905855018766150E+01 a      1136     0    57     1    16
  2.5636434504801194E+01 a      1137     0    57     1    17
 -1.3280221511236535E+01 a      1138     0    57     1    18
  2.8304745479708098E+00 a      1139     0    57     1    19
  1.5920510588886948E+01 a      1140     0    57     1    20
 -4.1048250348208688E+00 a      1141     0    58     1     1
  9.4173474079936046E+00 a      1142     0    58     1     2
 -5.7539793750434205E+00 a      1143     0    58     1     3
  5.9851547790142163E+00 a      1144     0    58     1     4
  7.7366931687652025E+00 a      1145     0    58     1     5
 -7.0254652442034944E+00 a      1146     0    58     1     6
  7.5133372564193177E+00 a      1147     0    58     1     7
 -3.6255294966398988E+00 a      1148     0    58     1     8
 -1.9598855620264871E+01 a      1149     0    58     1     9
  1.2993860622936280E+00 a      1150     0    58     1    10
 -1.0309724080057274E+01 a      1151     0    58     1    11
 -2.0885671612969312E+00 a      1152     0    58     1    12
 -7.7509486260403966E+00 a      1153     0    58     1    13
 -1.7501787955791123E+01 a      1154     0    58     1    14
 -3.7576593677213723E+00 a      1155     0    58     1    15
  2.9784690208994160E+00 a      1156     0    58     1    16
 -3.0906831956486260E+00 a      1157     0    58     1    17
 -4.7379314864370583E+00 a      1158     0    58     1    18
 -8.6407407258671647E+00 a      1159     0    58     1    19
  6.2109759680651937E+00 a      1160     0    58     1    20
  1.3655222728937382E+00 a      1161     0    59     1     1
  7.5219321854256718E+00 a      1162     0    59     1     2
  8.3705487318751111E+00 a      1163     0    59     1     3
 -1.4386586740432895E+01 a      1164     0    59     1     4
  1.3208051630247882E+01 a      1165     0    59     1     5
  3.4677320355425145E+00 a      1166     0    59     1     6
 -4.7388298132707374E-01 a      1167     0    59     1     7
 -4.0669368254996047E-01 a      1168     0    59     1     8
 -8.9138503158932458E+00 a      1169     0    59     1     9
 -3.4520662918270468E+00 a      1170     0    59     1    10
 -7.6005131736021374E+00 a      1171     0    59     1    11
 -3.1441423947014062E+00 a      1172     0    59     1    12
 -1.0130251918067263E+01 a      1173     0    59     1    13
  1.0429194100374067E+01 a      1174     0    59     1    14
 -1.0350529710036881E+01 a      1175     0    59     1    15
 -8.2328474145850645E+00 a      1176     0    59     1    16
  6.0503847589335864E+00 a      1177     0    59     1    17
  2.7436063742986485E-02 a      1178     0    59     1    18
  5.0961025597673015E-02 a      1179     0    59     1    19
  1.6841430923749101E+01 a      1180     0    59     1    20
  4.5420093438656722E-01 a      1181     0    60     1     1
 -5.8052988029246606E+00 a      1182     0    60     1     2
 -6.8918872017780615E+00 a      1183     0    60     1     3
 -2.0607908678869602E+01 a      1184     0    60     1     4
 -8.8504121486072975E+00 a      1185     0    60     1     5
  2.3515693526084345E+00 a      1186     0    60     1     6
  1.0066408730004589E+01 a      1187     0    60     1     7
 -3.8646240434810313E+00 a      1188     0    60     1     8
 -1.7455623258850011E+01 a      1189     0    60     1     9
  7.3613228517756002E-01 a      1190     0    60     1    10
  1.0164776145508858E-01 a      1191     0    60     1    11
 -5.3858248613321413E-01 a      1192     0    60     1    12
  2.8866948879474643E+00 a      1193     0    60     1    13
 -1.3464448336941752E+01 a      1194     0    60     1    14
 -4.2820388203585846E+00 a      1195     0    60     1    15
 -2.6090802191439021E+01 a      1196     0    60     1    16
 -9.5377593653465311E+00 a      1197     0    60     1    17
  4.9426305669713910E+00 a      1198     0    60     1    18
 -1.5441243775464646E+00 a      1199     0    60     1    19
  1.1262970260430889E+01 a      1200     0    60     1    20
 -1.2017260730625644E+01 a      1201     0    61     1     1
  8.2993740862872212E+00 a      1202     0    61     1     2
  2.0411229216813318E+00 a      1203     0    61     1     3
 -7.6625822642885071E+00 a      1204     0    61     1     4
  7.6910068485613401E+00 a      1205     0    61     1     5
 -7.4921569504039063E+00 a      1206     0    61     1     6
 -9.2891736765734283E+00 a      1207     0    61     1     7
 -1.1546031795073528E+00 a      1208     0    61     1     8
  1.9124192920187753E+01 a      1209     0    61     1     9
  6.3220336586780057E-01 a      1210     0    61     1    10
  7.5217208384061287E+00 a      1211     0    61     1    11
 -3.9137724368447819E+00 a      1212     0    61     1    12
 -1.3499033585880980E+01 a      1213     0    61     1    13
  1.2453940583035912E+01 a      1214     0    61     1    14
  3.3711471036200513E+00 a      1215     0    61     1    15
  3.1326704130272969E+00 a      1216     0    61     1    16
  6.2084430889779796E+00 a      1217     0    61     1    17
  7.2397709870165299E+00 a      1218     0    61     1    18
  6.2264848804137554E+00 a      1219     0    61     1    19
 -1.2982330381620836E+01 a      1220     0    61     1    20
 -3.0442780670222647E-01 a      1221     0    62     1     1
  9.5634272873001802E-01 a      1222     0    62     1     2
 -3.2288801646236087E+00 a      1223     0    62     1     3
 -1.3789505829998607E+00 a      1224     0    62     1     4
 -8.4921193872566541E+00 a      1225     0    62     1     5
 -8.2847946388729490E+00 a      1226     0    62     1     6
 -1.1328669295015469E+01 a      1227     0    62     1     7
 -4.6604126529466177E+00 a      1228     0    62     1     8
 -1.1106508057198486E+01 a      1229     0    62     1     9
  1.8544641111663931E+00 a      1230     0    62     1    10
  2.1292161317489815E+00 a      1231     0    62     1    11
  3.0237817715900492E-02 a      1232     0    62     1    12
  1.1639906864435849E+01 a      1233     0    62     1    13
 -4.9364208819304496E+00 a      1234     0    62     1    14
 -1.9993506280396900E+00 a      1235     0    62     1    15
 -2.2482128626220216E+01 a      1236     0    62     1    16
  1.4012766229871951E+00 a      1237     0    62     1    17
  3.2348719311691996E+00 a      1238     0    62     1    18
 -2.9807751195216370E+00 a      1239     0    62     1    19
 -1.4460441531409534E+00 a      1240     0    62     1    20
  8.7445869682998834E-01 a      1241     0    63     1     1
 -6.3658874957625313E+00 a      1242     0    63     1     2
  6.9783971778855980E+00 a      1243     0    63     1     3
 -1.3390356735838163E+01 a      1244     0    63     1     4
 -5.8945294055449100E+00 a      1245     0    63     1     5
 -1.2287487370030101E+00 a      1246     0    63     1     6
  1.4028025873869238E+01 a      1247     0    63     1     7
 -6.5499154723550168E+00 a      1248     0    63     1     8
  1.1327088038737244E+01 a      1249     0    63     1     9
 -3.0509385317978368E+00 a      1250     0    63     1    10
 -1.0289251826871538E+01 a      1251     0    63     1    11
  1.4109487577046935E+00 a      1252     0    63     1    12
 -5.7785598316380264E+00 a      1253     0    63     1    13
  2.1179315366985918E+00 a      1254     0    63     1    14
 -1.1939010201918610E+01 a      1255     0    63     1    15
  2.3102630527839634E+00 a      1256     0    63     1    16
  1.5612983162721974E+01 a      1257     0    63     1    17
  3.3619854674184169E-01 a      1258     0    63     1    18
  2.2120273271307824E+00 a      1259     0    63     1    19
  1.3240146615293170E+01 a      1260     0    63     1    20
 -1.1700859173074569E+01 a      1261     0    64     1     1
 -2.8719709374926364E+01 a      1262     0    64     1     2
  4.3072380439227240E+00 a      1263     0    64     1     3
 -1.7106892790669569E+01 a      1264     0    64     1     4
  1.5506904514750048E+00 a      1265     0    64     1     5
  3.4543937417475784E-01 a      1266     0    64     1     6
 -9.5860596047089661E+00 a      1267     0    64     1     7
  3.0634161939784046E+00 a      1268     0    64     1     8
 -9.6002596394109716E+00 a      1269     0    64     1     9
  7.3769213180274096E-01 a      1270     0    64     1    10
  9.1836435179460574E-01 a      1271     0    64     1    11
  4.8516759592087331E+00 a      1272     0    64     1    12
 -8.7784451698291974E+00 a      1273     0    64     1    13
  2.8803901623903476E+00 a      1274     0    64     1    14
  4.3252032911218725E+00 a      1275     0    64     1    15
 -2.0404236727466397E+01 a      1276     0    64     1    16
  2.1242426463427901E+01 a      1277     0    64     1    17
  1.9444156923498991E+01 a      1278     0    64     1    18
  1.5888568669356706E+00 a      1279     0    64     1    19
 -1.5769978120011032E+00 a      1280     0    64     1    20
 -6.1886207218286708E+00 a      1281     0    65     1     1
 -1.8125716143363263E+01 a      1282     0    65     1     2
 -1.9871344197892171E+01 a      1283     0    65     1     3
  1.2959336636899360E+01 a      1284     0    65     1     4
  1.7475951890875177E+01 a      1285     0    65     1     5
  1.4394947430544483E-01 a      1286     0    65     1     6
 -8.0620507997971487E+00 a      1287     0    65     1     7
  1.8200026807684200E+00 a      1288     0    65     1     8
 -1.2076893712891087E+01 a      1289     0    65     1     9
  3.4164990456605175E+00 a      1290     0    65     1    10
  1.7366855102767946E+01 a      1291     0    65     1    11
  4.3013557622648859E+00 a      1292     0    65     1    12
 -2.9135736201738005E+01 a      1293     0    65     1    13
  7.1050420641000329E+00 a      1294     0    65     1    14
  9.7350190298225865E+00 a      1295     0    65     1    15
  2.8379081498152572E+00 a      1296     0    65     1    16
 -9.3579256390008840E+00 a      1297     0    65     1    17
  1.2226379748442627E+01 a      1298     0    65     1    18
  5.3745140828124747E+00 a      1299     0    65     1    19
  1.6024074405084615E+01 a      1300     0    65     1    20
  9.3087177354042208E+00 a      1301     0    66     1     1
  1.2573906608854394E+01 a      1302     0    66     1     2
 -5.1315389959064228E-01 a      1303     0    66     1     3
  1.1942133620819281E+01 a      1304     0    66     1     4
 -9.7344442552481993E+00 a      1305     0    66     1     5
 -1.0693654539375661E+01 a      1306     0    66     1     6
 -1.5983017998385394E+01 a      1307     0    66     1     7
  5.2142629276567583E+00 a      1308     0    66     1     8
  2.0000378027074324E+00 a      1309     0    66     1     9
  1.1552405525497373E+00 a      1310     0    66     1    10
  1.0989642822062892E+01 a      1311     0    66     1    11
  2.8985563298447476E+00 a      1312     0    66     1    12
 -5.3297389057032944E+00 a      1313     0    66     1    13
  7.1033016657974146E+00 a      1314     0    66     1    14
  5.2928134827167161E+00 a      1315     0    66     1    15
  1.7175039284700944E+00 a      1316     0    66     1    16
 -1.5518365892872847E+01 a      1317     0    66     1    17
 -5.1027399792387556E+00 a      1318     0    66     1    18
  2.7969631085820952E+00 a      1319     0    66     1    19
  4.1211247744952759E+00 a      1320     0    66     1    20
 -1.2907495348624177E+01 a      1321     0    67     1     1
  1.5329632625777808E+01 a      1322     0    67     1     2
 -1.3101850463761794E+01 a      1323     0    67     1     3
 -2.0657830199339259E+01 a      1324     0    67     1     4
  2.6705421399677860E+01 a      1325     0    67     1     5
 -6.5635240885311719E+00 a      1326     0    67     1     6
 -2.8866104250632687E+00 a      1327     0    67     1     7
  3.0253966879376564E+00 a      1328     0    67     1     8
  2.4736588758952354E+00 a      1329     0    67     1     9
 -2.0350640026873792E-01 a      1330     0    67     1    10
 -6.2854323666287213E+00 a      1331     0    67     1    11
  8.0234057264866596E+00 a      1332     0    67     1    12
 -4.8771558742926171E+00 a      1333     0    67     1    13
 -6.8809875130753220E+00 a      1334     0    67     1    14
 -3.6600822771084567E+00 a      1335     0    67     1    15
  2.5344351103304512E+00 a      1336     0    67     1    16
 -1.4887180748487118E+01 a      1337     0    67     1    17
  2.2870168515550699E+01 a      1338     0    67     1    18
  5.5514019842287938E+00 a      1339     0    67     1    19
 -7.0662033309552168E+00 a      1340     0    67     1    20
 -2.3491740361664689E+01 a      1341     0    68     1     1
 -7.5165030256351431E+00 a      1342     0    68     1     2
 -6.7496681707760393E+00 a      1343     0    68     1     3
  8.7965336442241586E+00 a      1344     0    68     1     4
 -3.3365022417375165E+00 a      1345     0    68     1     5
 -5.0491343987912209E+00 a      1346     0    68     1     6
 -3.2345523175785482E+00 a      1347     0    68     1     7
  4.4175670742751203E+00 a      1348     0    68     1     8
  5.0607348291960381E+00 a      1349     0    68     1     9
  2.7077008073924054E+00 a      1350     0    68     1    10
  9.3818290454677804E+00 a      1351     0    68     1    11
  2.3407127151129181E+00 a      1352     0    68     1    12
  1.5362163566528719E+00 a      1353     0    68     1    13
  1.0915900464710587E+01 a      1354     0    68     1    14
  4.8441512515489471E+00 a      1355     0    68     1    15
 -5.4353659051425280E+00 a      1356     0    68     1    16
  3.4290093186035029E+00 a      1357     0    68     1    17
  6.6791368915666167E+00 a      1358     0    68     1    18
  8.5982246742203774E+00 a      1359     0    68     1    19
  2.9185661618321355E+00 a      1360     0    68     1    20
 -1.8362156522321200E+01 a      1361     0    69     1     1
 -2.8160645913612786E+01 a      1362     0    69     1     2
 -1.9884903398529545E+01 a      1363     0    69     1     3
 -2.9042396698911208E+00 a      1364     0    69     1     4
  2.5579748420787927E+00 a      1365     0    69     1     5
 -3.9302092338748946E+00 a      1366     0    69     1     6
 -1.7420081122740161E+01 a      1367     0    69     1     7
  5.9510400595853916E+00 a      1368     0    69     1     8
  1.1395048954800911E+01 a      1369     0    69     1     9
  7.2027673714345246E+00 a      1370     0    69     1    10
  1.4344723107847972E+01 a      1371     0    69     1    11
  2.0975404471941990E+00 a      1372     0    69     1    12
 -3.4376653067986652E+01 a      1373     0    69     1    13
 -8.6073417228622340E-01 a      1374     0    69     1    14
  1.4905361712487680E+01 a      1375     0    69     1    15
 -1.9112115282253817E+00 a      1376     0    69     1    16
 -2.3345134563527367E+01 a      1377     0    69     1    17
 -6.2070494584346214E+00 a      1378     0    69     1    18
  1.2828739813253176E+01 a      1379     0    69     1    19
 -1.3829846851869804E-02 a      1380     0    69     1    20
  1.3409549882783083E+00 a      1381     0    70     1     1
  4.2148391521146301E+01 a      1382     0    70     1     2
 -9.0139059312683294E+00 a      1383     0    70     1     3
  2.4679347095690016E+01 a      1384     0    70     1     4
 -3.0161513109873417E-01 a      1385     0    70     1     5
 -1.3091063316441740E+01 a      1386     0    70     1     6
 -3.3940016431650215E+00 a      1387     0    70     1     7
 -4.0872091725353128E+00 a      1388     0    70     1     8
  8.7081524162886286E+00 a      1389     0    70     1     9
 -7.1948581960425395E-01 a      1390     0    70     1    10
 -3.0823978612980731E+00 a      1391     0    70     1    11
 -4.5461466042931749E+00 a      1392     0    70     1    12
 -6.0271716962103188E+00 a      1393     0    70     1    13
  8.0151475448256293E-01 a      1394     0    70     1    14
 -5.1281717067705390E+00 a      1395     0    70     1    15
  1.1753921550548856E+01 a      1396     0    70     1    16
 -1.7735531060388336E+01 a      1397     0    70     1    17
 -1.8964299225377061E+01 a      1398     0    70     1    18
 -5.0996326305560151E+00 a      1399     0    70     1    19
  4.4525865532368671E+00 a      1400     0    70     1    20
  6.8495476193340143E-01 a      1401     0    71     1     1
  2.0975500869612524E+01 a      1402     0    71     1     2
  2.2925250810401664E+01 a      1403     0    71     1     3
 -1.4286573906523069E+01 a      1404     0    71     1     4
 -1.5903022440274420E+01 a      1405     0    71     1     5
 -2.8691589008783016E+01 a      1406     0    71     1     6
  1.1321973781774739E+00 a      1407     0    71     1     7
 -2.5247817871261025E+00 a      1408     0    71     1     8
  1.3709060751134139E+01 a      1409     0    71     1     9
 -5.7731342281477964E+00 a      1410     0    71     1    10
 -1.2164686338822900E+01 a      1411     0    71     1    11
 -5.9912495325450230E+00 a      1412     0    71     1    12
  2.1966252728185555E+01 a      1413     0    71     1    13
 -1.6423842287492675E+01 a      1414     0    71     1    14
 -1.3736871226504283E+01 a      1415     0    71     1    15
 -3.6905801999058563E-01 a      1416     0    71     1    16
  1.7762540381620926E+01 a      1417     0    71     1    17
 -8.0273117308530626E+00 a      1418     0    71     1    18
 -6.8946124897071712E+00 a      1419     0    71     1    19
 -1.3947761292039442E+00 a      1420     0    71     1    20
  1.0367843015900033E+00 a      1421     0    72     1     1
 -2.1017583346938128E+01 a      1422     0    72     1     2
 -2.0127495196830741E-02 a      1423     0    72     1     3
 -4.1166818153652692E+01 a      1424     0    72     1     4
  1.2363213635045991E+00 a      1425     0    72     1     5
  1.7559688836411669E+00 a      1426     0    72     1     6
  3.9369634257096330E+01 a      1427     0    72     1     7
 -7.4956154813434024E+00 a      1428     0    72     1     8
 -6.0792760502786747E+00 a      1429     0    72     1     9
 -2.4283518273489846E+00 a      1430     0    72     1    10
 -2.5150303588651237E+00 a      1431     0    72     1    11
 -6.1996719320200278E-01 a      1432     0    72     1    12
  3.5565405443382847E-01 a      1433     0    72     1    13
 -1.1664393471368879E+01 a      1434     0    72     1    14
 -7.6885310075159419E+00 a      1435     0    72     1    15
 -9.0544935201177823E-01 a      1436     0    72     1    16
  1.5765116213158032E+01 a      1437     0    72     1    17
  5.7190513012290491E+00 a      1438     0    72     1    18
 -6.3485442451553906E+00 a      1439     0    72     1    19
  1.6458237680345547E+01 a      1440     0    72     1    20
  6.4234325261162510E+00 a      1441     0    73     1     1
 -6.9094654996286859E+00 a      1442     0    73     1     2
  1.7669327914285024E+01 a      1443     0    73     1     3
 -3.8765290191992885E+00 a      1444     0    73     1     4
 -1.0278031225653615E+01 a      1445     0    73     1     5
 -3.9933161288638708E+01 a      1446     0    73     1     6
 -1.1654368618951626E+01 a      1447     0    73     1     7
 -4.0075994954258238E+00 a      1448     0    73     1     8
  1.7265485335415118E+01 a      1449     0    73     1     9
  1.0408079120546263E+00 a      1450     0    73     1    10
  1.6155375018325334E+01 a      1451     0    73     1    11
 -8.8320810357489190E+00 a      1452     0    73     1    12
  6.5591793884482117E+00 a      1453     0    73     1    13
 -3.0680720434337996E+00 a      1454     0    73     1    14
  4.7390448530745033E+00 a      1455     0    73     1    15
  1.5643907943742800E+01 a      1456     0    73     1    16
  3.8817453677834251E+01 a      1457     0    73     1    17
 -9.0292682712726577E+00 a      1458     0    73     1    18
 -2.2180612993827071E+00 a      1459     0    73     1    19
  1.6250014719613812E+01 a      1460     0    73     1    20
  4.0875410478470812E+01 a      1461     0    74     1     1
 -1.4151488306013379E+01 a      1462     0    74     1     2
  6.5007022921840649E+00 a      1463     0    74     1     3
 -2.1325312181972777E+01 a      1464     0    74     1     4
 -9.9122558853950675E+00 a      1465     0    74     1     5
  1.4343740362041707E+01 a      1466     0    74     1     6
 -1.9000064670626074E+01 a      1467     0    74     1     7
 -8.0847235677752760E+00 a      1468     0    74     1     8
 -2.2380282898720832E+01 a      1469     0    74     1     9
 -3.6531736226257485E+00 a      1470     0    74     1    10
 -1.3485009723617367E+01 a      1471     0    74     1    11
 -1.4546204965156522E+00 a      1472     0    74     1    12
  7.2045489490966181E+00 a      1473     0    74     1    13
 -1.7937073095425099E+01 a      1474     0    74     1    14
 -5.2914005719317112E+00 a      1475     0    74     1    15
 -3.2212987233282796E+01 a      1476     0    74     1    16
  8.5772300296684523E-01 a      1477     0    74     1    17
 -8.9959044290543861E+00 a      1478     0    74     1    18
 -1.5456485618797505E+01 a      1479     0    74     1    19
 -3.2442754227752224E+00 a      1480     0    74     1    20
  2.8293787464926730E+01 a      1481     0    75     1     1
  2.2078870775344473E+01 a      1482     0    75     1     2
  3.3311620138443892E+01 a      1483     0    75     1     3
 -1.0354405168541160E+01 a      1484     0    75     1     4
 -3.7607781624581688E-01 a      1485     0    75     1     5
  1.8162502697159805E+01 a      1486     0    75     1     6
  3.9762651542083461E+01 a      1487     0    75     1     7
 -8.1913738442748460E+00 a      1488     0    75     1     8
 -2.6268219644268747E+01 a      1489     0    75     1     9
 -1.2241384567471735E+01 a      1490     0    75     1    10
 -1.1258072289460934E+01 a      1491     0    75     1    11
 -8.5577594698226978E-01 a      1492     0    75     1    12
  4.1835289857375081E+01 a      1493     0    75     1    13
 -1.0343576788160014E+00 a      1494     0    75     1    14
 -2.2060759263698529E+01 a      1495     0    75     1    15
  2.4972624256731997E+01 a      1496     0    75     1    16
  4.2224844126615594E+01 a      1497     0    75     1    17
  9.7969807433148617E+00 a      1498     0    75     1    18
 -1.8755539309040248E+01 a      1499     0    75     1    19
  4.5076418668181102E+00 a      1500     0    75     1    20
  2.9243728580341411E+01 a      1501     0    76     1     1
  2.9436739981880883E+01 a      1502     0    76     1     2
 -3.1814325143931893E-01 a      1503     0    76     1     3
 -2.9474605743386636E+01 a      1504     0    76     1     4
  4.8411017967265915E+00 a      1505     0    76     1     5
  2.4100398496359468E+01 a      1506     0    76     1     6
  2.6356413325991156E+01 a      1507     0    76     1     7
 -1.3679117028761338E+00 a      1508     0    76     1     8
  1.2120672750188650E+01 a      1509     0    76     1     9
  4.1956553420156661E-01 a      1510     0    76     1    10
 -2.2798878618521378E+01 a      1511     0    76     1    11
  2.2190663655698524E+00 a      1512     0    76     1    12
  2.9604492573480035E+00 a      1513     0    76     1    13
 -1.9869358566352116E+01 a      1514     0    76     1    14
 -2.6875149614774569E+00 a      1515     0    76     1    15
  6.0979523593804617E+00 a      1516     0    76     1    16
 -1.1576369554380774E+01 a      1517     0    76     1    17
 -6.7196234045464625E+00 a      1518     0    76     1    18
 -4.4240203964282543E+00 a      1519     0    76     1    19
 -2.6646454152963677E+00 a      1520     0    76     1    20
 -2.6947313083103515E+00 a      1521     0    77     1     1
  3.9042939209294367E+01 a      1522     0    77     1     2
 -1.5882011309588018E+00 a      1523     0    77     1     3
 -5.8950652969130637E+00 a      1524     0    77     1     4
 -2.3282328783016702E+01 a      1525     0    77     1     5
 -2.1887767166235985E+01 a      1526     0    77     1     6
  1.3762237640109459E+01 a      1527     0    77     1     7
 -1.1531337832962236E+00 a      1528     0    77     1     8
  5.1266655516893711E-01 a      1529     0    77     1     9
 -3.0656117095167819E+00 a      1530     0    77     1    10
 -4.2322904417243095E+00 a      1531     0    77     1    11
 -1.7639782029062806E-01 a      1532     0    77     1    12
  1.1150149927318779E+01 a      1533     0    77     1    13
 -8.5777799390115348E+00 a      1534     0    77     1    14
 -3.9383632144686893E+00 a      1535     0    77     1    15
 -4.0304781107257970E+00 a      1536     0    77     1    16
  1.1365252598295905E+01 a      1537     0    77     1    17
 -2.3159339079805992E+01 a      1538     0    77     1    18
  1.6087988888906910E+00 a      1539     0    77     1    19
  2.2581864768026815E+01 a      1540     0    77     1    20
 -6.6566407751196719E+00 a      1541     0    78     1     1
 -5.6935869863171424E+00 a      1542     0    78     1     2
 -4.1968328870341436E+00 a      1543     0    78     1     3
  1.6253707588783506E+01 a      1544     0    78     1     4
  2.1882934364410174E+00 a      1545     0    78     1     5
 -1.8932545695904640E+01 a      1546     0    78     1     6
  1.9859697421398700E+01 a      1547     0    78     1     7
 -1.5638965030274696E+00 a      1548     0    78     1     8
 -1.5372012023012733E+01 a      1549     0    78     1     9
  1.1508976625922165E+00 a      1550     0    78     1    10
 -5.6483098627115425E+00 a      1551     0    78     1    11
  5.4601135696577130E-01 a      1552     0    78     1    12
 -3.4967953980312383E+00 a      1553     0    78     1    13
  8.0708971217079615E+00 a      1554     0    78     1    14
  7.1152390405172172E-01 a      1555     0    78     1    15
  6.5873123575267147E+00 a      1556     0    78     1    16
 -5.0380236706834420E+00 a      1557     0    78     1    17
 -8.9038346165900994E-01 a      1558     0    78     1    18
  4.8893769329766101E+00 a      1559     0    78     1    19
 -4.3931828633788488E+00 a      1560     0    78     1    20
  9.6880901853840786E+00 a      1561     0    79     1     1
 -1.0130675433638753E+01 a      1562     0    79     1     2
  6.6146528659091040E+00 a      1563     0    79     1     3
 -8.9939459286663226E+00 a      1564     0    79     1     4
  7.1518926008437713E+00 a      1565     0    79     1     5
  2.0833890085049486E+01 a      1566     0    79     1     6
 -1.5385888443835780E+01 a      1567     0    79     1     7
 -8.0982176267023587E-01 a      1568     0    79     1     8
 -4.0183911294356825E+01 a      1569     0    79     1     9
 -1.4243817171632385E+00 a      1570     0    79     1    10
  2.2374993000228475E+01 a      1571     0    79     1    11
 -4.1890614322445048E+00 a      1572     0    79     1    12
  1.0161931579360262E+00 a      1573     0    79     1    13
  1.4766401559978157E+00 a      1574     0    79     1    14
  4.8858829656981739E-01 a      1575     0    79     1    15
 -1.1796411190930206E+01 a      1576     0    79     1    16
  4.0327538384882378E-01 a      1577     0    79     1    17
  2.1681163196411209E+01 a      1578     0    79     1    18
  5.9269584879577577E+00 a      1579     0    79     1    19
  6.2898938436017504E-01 a      1580     0    79     1    20
  9.0533949624220789E+00 a      1581     0    80     1     1
 -2.6991148896770967E-01 a      1582     0    80     1     2
 -2.1028292931059256E+00 a      1583     0    80     1     3
 -9.5994773425662476E+00 a      1584     0    80     1     4
 -3.9338710479314636E+00 a      1585     0    80     1     5
  9.1366709500094707E+00 a      1586     0    80     1     6
  1.7959207997517467E+01 a      1587     0    80     1     7
 -8.4664396529816577E-01 a      1588     0    80     1     8
  2.9306141623149964E+00 a      1589     0    80     1     9
 -2.3964144110910721E-01 a      1590     0    80     1    10
 -5.3774485958335116E+00 a      1591     0    80     1    11
  5.0223260791747015E-01 a      1592     0    80     1    12
 -1.4539402390883083E+01 a      1593     0    80     1    13
  2.1161622703968142E+01 a      1594     0    80     1    14
 -3.8568552432355712E+00 a      1595     0    80     1    15
  1.3625142247753388E+01 a      1596     0    80     1    16
 -1.0668002117114565E+01 a      1597     0    80     1    17
 -9.9573826579470506E+00 a      1598     0    80     1    18
  4.6450717247934366E+00 a      1599     0    80     1    19
  1.4602739892351222E+01 a      1600     0    80     1    20
  1.7743532369276927E+01 a      1601     0    81     1     1
  2.5037257986531209E+01 a      1602     0    81     1     2
 -4.2069449720333010E+00 a      1603     0    81     1     3
 -2.5155786498724471E+00 a      1604     0    81     1     4
 -1.9158252848994695E+00 a      1605     0    81     1     5
  9.9866880235091084E+00 a      1606     0    81     1     6
 -8.2424851247239028E-01 a      1607     0    81     1     7
 -3.3396062428357212E+00 a      1608     0    81     1     8
 -4.2359325518346056E+00 a      1609     0    81     1     9
  3.8200690969688567E-01 a      1610     0    81     1    10
 -2.6487191709481007E+01 a      1611     0    81     1    11
  3.2621616694200832E+00 a      1612     0    81     1    12
  3.2479222599629258E+00 a      1613     0    81     1    13
  5.6634902018543531E+00 a      1614     0    81     1    14
 -4.8571286474696658E+00 a      1615     0    81     1    15
 -2.8685054326036177E+01 a      1616     0    81     1    16
 -7.0350954875924234E+00 a      1617     0    81     1    17
  7.5157366064140740E+00 a      1618     0    81     1    18
  1.0691282114820708E+00 a      1619     0    81     1    19
 -7.4906485872921751E+00 a      1620     0    81     1    20
  6.6875570642772626E+00 a      1621     0    82     1     1
 -2.2519158454488117E+01 a      1622     0    82     1     2
  6.1472868590772629E+00 a      1623     0    82     1     3
