################################################################################
# Neural network connection values (weights and biases).
################################################################################
# Col  Name       Description
################################################################################
# 1    connection Neural network connection value.
# 2    t          Connection type (a = weight, b = bias).
# 3    index      Index enumerating weights.
# 4    l_s        Starting point layer (end point layer for biases).
# 5    n_s        Starting point neuron in starting layer (end point neuron for biases).
# 6    l_e        End point layer.
# 7    n_e        End point neuron in end layer.
################################################################################
#                      1 2         3     4     5     6     7
#             connection t     index   l_s   n_s   l_e   n_e
############################################################
  1.1855092282618123E+00 a         1     0     1     1     1
  3.2445474396199909E+00 a         2     0     1     1     2
  1.5960081202030377E+01 a         3     0     1     1     3
  1.3179986108555275E+00 a         4     0     1     1     4
 -2.1552782594384961E+01 a         5     0     1     1     5
  1.5520237129650452E+01 a         6     0     1     1     6
 -4.6729558737802765E+00 a         7     0     1     1     7
 -1.3187733443605351E+01 a         8     0     1     1     8
  4.9903044801951877E+00 a         9     0     1     1     9
  3.6613404621740298E+00 a        10     0     1     1    10
 -1.7570678599525102E+00 a        11     0     1     1    11
 -6.7127633065232581E+00 a        12     0     1     1    12
 -5.7067246662979025E+00 a        13     0     1     1    13
 -5.9830630461751495E+00 a        14     0     1     1    14
  1.4881279663044792E+01 a        15     0     1     1    15
  1.7137651912542431E+01 a        16     0     1     1    16
  1.8235031177461138E+01 a        17     0     1     1    17
  4.9472301322629946E+00 a        18     0     1     1    18
 -1.4673768067689559E+00 a        19     0     1     1    19
 -1.5077635258566223E+01 a        20     0     1     1    20
 -7.1411181976596252E+00 a        21     0     2     1     1
  9.6619358666940851E+00 a        22     0     2     1     2
  7.6360678620456941E+00 a        23     0     2     1     3
  8.1580188957316155E-02 a        24     0     2     1     4
 -2.5623173338419893E+01 a        25     0     2     1     5
  1.1798636635287997E+01 a        26     0     2     1     6
 -6.2899460636991265E+00 a        27     0     2     1     7
 -6.3925202002459036E+00 a        28     0     2     1     8
 -7.4902542242788224E+00 a        29     0     2     1     9
  6.0692872804776430E+00 a        30     0     2     1    10
  5.6228749181160220E-01 a        31     0     2     1    11
 -8.0829113728684057E+00 a        32     0     2     1    12
  1.9088471705662311E+00 a        33     0     2     1    13
  6.9569124594859195E+00 a        34     0     2     1    14
  1.3842505879220454E+01 a        35     0     2     1    15
  5.0003323441289940E+00 a        36     0     2     1    16
  1.6426484476129318E+01 a        37     0     2     1    17
  9.4922225095937041E+00 a        38     0     2     1    18
 -1.4763991468101449E+00 a        39     0     2     1    19
 -1.3622350765911266E+01 a        40     0     2     1    20
 -7.9646948333946788E-01 a        41     0     3     1     1
  1.5071902891416940E+01 a        42     0     3     1     2
  5.6695508334050828E+00 a        43     0     3     1     3
  2.9860104654253576E+00 a        44     0     3     1     4
 -3.7651330125295903E+00 a        45     0     3     1     5
  9.9438435660746087E+00 a        46     0     3     1     6
 -9.6527199919453188E-01 a        47     0     3     1     7
 -1.7978906094193636E+00 a        48     0     3     1     8
 -4.0553847918992565E+00 a        49     0     3     1     9
 -6.9432761133441245E-01 a        50     0     3     1    10
  2.3845398830082924E+00 a        51     0     3     1    11
  1.9326200509614701E+01 a        52     0     3     1    12
 -5.2343022893409081E+00 a        53     0     3     1    13
  9.8973864067905826E+00 a        54     0     3     1    14
  1.7615629467560872E+01 a        55     0     3     1    15
  9.3082790424453723E+00 a        56     0     3     1    16
  1.4763968126827118E+00 a        57     0     3     1    17
  2.6209046071876840E+00 a        58     0     3     1    18
 -3.1008002664399939E+01 a        59     0     3     1    19
 -1.5846958434186902E+01 a        60     0     3     1    20
 -9.6420623494103594E+00 a        61     0     4     1     1
 -2.6564812283785230E+01 a        62     0     4     1     2
 -4.1643871959076556E+01 a        63     0     4     1     3
  3.3199756334255324E+00 a        64     0     4     1     4
  4.0028224991755842E+01 a        65     0     4     1     5
 -2.6289088095238441E+01 a        66     0     4     1     6
  2.3277410402961738E+01 a        67     0     4     1     7
  1.4006675673190649E+01 a        68     0     4     1     8
 -1.8602096774346602E+01 a        69     0     4     1     9
 -8.3676573691409217E+00 a        70     0     4     1    10
  2.4090107521496513E+00 a        71     0     4     1    11
  3.6882948061069416E+00 a        72     0     4     1    12
  1.8481205036410127E+00 a        73     0     4     1    13
  1.2049580411892336E+01 a        74     0     4     1    14
 -3.6484055277032525E+01 a        75     0     4     1    15
 -3.7292784884144368E+01 a        76     0     4     1    16
 -3.8332909694823961E+01 a        77     0     4     1    17
  2.1475278263225710E+00 a        78     0     4     1    18
 -8.5444009412081225E+00 a        79     0     4     1    19
  2.2596185641115142E+01 a        80     0     4     1    20
  9.0891393785924652E+00 a        81     0     5     1     1
 -3.7339704458542855E+01 a        82     0     5     1     2
 -2.2045790411183503E+01 a        83     0     5     1     3
  4.0435947545929993E+00 a        84     0     5     1     4
  5.2422954788383144E+01 a        85     0     5     1     5
 -2.0297613757573703E+01 a        86     0     5     1     6
  2.5071827884446282E+01 a        87     0     5     1     7
  1.1047737861934523E+01 a        88     0     5     1     8
  1.0969703190283253E+01 a        89     0     5     1     9
 -2.1417055252074539E+00 a        90     0     5     1    10
 -2.1330728764058122E+00 a        91     0     5     1    11
  1.1545375997096439E+01 a        92     0     5     1    12
 -1.0423183869091803E+01 a        93     0     5     1    13
 -2.3893185870971973E+01 a        94     0     5     1    14
 -3.2174747447304796E+01 a        95     0     5     1    15
 -7.3868336656300020E+00 a        96     0     5     1    16
 -3.6305855683064756E+01 a        97     0     5     1    17
 -1.2141472500710526E+01 a        98     0     5     1    18
 -1.2970234794036195E+01 a        99     0     5     1    19
  2.0352025047098572E+01 a       100     0     5     1    20
 -7.4779604044233432E+00 a       101     0     6     1     1
 -5.8813965942644195E+01 a       102     0     6     1     2
 -2.3055262155292670E+01 a       103     0     6     1     3
 -8.8284373280997386E+00 a       104     0     6     1     4
  1.8826606011682334E+00 a       105     0     6     1     5
 -2.7455340778283055E+01 a       106     0     6     1     6
  1.1379462928559320E+01 a       107     0     6     1     7
 -2.1701206621173470E+00 a       108     0     6     1     8
  5.5550942755621922E+00 a       109     0     6     1     9
  1.1473843094244103E+01 a       110     0     6     1    10
 -6.4548542034953682E+00 a       111     0     6     1    11
 -5.2817966428121061E+01 a       112     0     6     1    12
  1.7721295265603530E+01 a       113     0     6     1    13
 -3.8577235148268102E+01 a       114     0     6     1    14
 -4.5293416595343018E+01 a       115     0     6     1    15
 -2.0415177671938434E+01 a       116     0     6     1    16
 -7.4567711186419938E+00 a       117     0     6     1    17
  4.9542502168130893E+00 a       118     0     6     1    18
  4.0845562499193697E+01 a       119     0     6     1    19
  2.6427089481427810E+01 a       120     0     6     1    20
  1.0863014359019740E+01 a       121     0     7     1     1
  4.3426010850439667E+01 a       122     0     7     1     2
  6.3193387062330451E+01 a       123     0     7     1     3
 -2.0399896855901258E+00 a       124     0     7     1     4
 -4.1116514070240690E+01 a       125     0     7     1     5
  1.6061297449497683E+01 a       126     0     7     1     6
 -2.5250682171221538E+01 a       127     0     7     1     7
  6.2680711932741913E+00 a       128     0     7     1     8
  2.2524236845647135E+01 a       129     0     7     1     9
  1.7195523645712399E+01 a       130     0     7     1    10
 -1.2518363788538416E+00 a       131     0     7     1    11
 -2.2985822289519952E+01 a       132     0     7     1    12
  1.4208867544132733E+01 a       133     0     7     1    13
 -1.5730559339449771E+01 a       134     0     7     1    14
  3.6194085687004588E+01 a       135     0     7     1    15
  3.8032158155992931E+01 a       136     0     7     1    16
  2.8763998340748458E+01 a       137     0     7     1    17
  2.2031267594779798E+00 a       138     0     7     1    18
  5.1497047451568996E+00 a       139     0     7     1    19
 -1.8462080753714606E+01 a       140     0     7     1    20
 -1.1649035348324910E+01 a       141     0     8     1     1
  4.1857098745592658E+01 a       142     0     8     1     2
  3.4030794558273364E+01 a       143     0     8     1     3
 -1.8204203939253629E+00 a       144     0     8     1     4
 -4.2903914017910992E+01 a       145     0     8     1     5
  9.4293203955995359E+00 a       146     0     8     1     6
 -2.5202662701957262E+01 a       147     0     8     1     7
 -9.6026273306145207E+00 a       148     0     8     1     8
 -7.1965958407978432E+00 a       149     0     8     1     9
  5.8247457762610271E+00 a       150     0     8     1    10
  1.6221816374768436E+00 a       151     0     8     1    11
 -3.0400528802298975E+01 a       152     0     8     1    12
  2.8463570496030222E+01 a       153     0     8     1    13
  2.5243325101820233E+01 a       154     0     8     1    14
  2.7616684113496984E+01 a       155     0     8     1    15
  1.8569076320917353E+00 a       156     0     8     1    16
  3.8126736208751296E+01 a       157     0     8     1    17
  1.6309165968203047E+01 a       158     0     8     1    18
  1.2624207972887730E+01 a       159     0     8     1    19
 -1.5260765443307200E+01 a       160     0     8     1    20
  2.4431286506737679E+00 a       161     0     9     1     1
  7.2834040448014719E+01 a       162     0     9     1     2
  4.8232536503549319E+01 a       163     0     9     1     3
  1.1240779012952784E+01 a       164     0     9     1     4
 -1.1062382117075304E+00 a       165     0     9     1     5
  1.7125307017542379E+01 a       166     0     9     1     6
 -1.5063623564013961E+01 a       167     0     9     1     7
  6.3329117188697861E+00 a       168     0     9     1     8
 -3.7308083069008195E+00 a       169     0     9     1     9
 -2.0851414727604254E+01 a       170     0     9     1    10
  6.2799085579724121E+00 a       171     0     9     1    11
  3.1414907011795869E+01 a       172     0     9     1    12
 -1.9490045415820756E+01 a       173     0     9     1    13
  4.2642500656273278E+01 a       174     0     9     1    14
  5.1166781937547078E+01 a       175     0     9     1    15
  1.3389874331222957E+01 a       176     0     9     1    16
  1.8939809086551172E+01 a       177     0     9     1    17
  8.4896409090106921E+00 a       178     0     9     1    18
 -3.1041279904193463E+01 a       179     0     9     1    19
 -2.0568713244205565E+01 a       180     0     9     1    20
 -8.6597074182434373E+00 a       181     0    10     1     1
 -1.7109853352489406E+01 a       182     0    10     1     2
 -4.2095327492618239E+01 a       183     0    10     1     3
  6.9603681846921506E-01 a       184     0    10     1     4
  1.6478239948731385E+01 a       185     0    10     1     5
 -4.7805298527386757E+00 a       186     0    10     1     6
  1.0313674314940963E+01 a       187     0    10     1     7
 -1.2005481574394468E+01 a       188     0    10     1     8
 -1.4276832475124063E+01 a       189     0    10     1     9
 -1.0428267792335717E+01 a       190     0    10     1    10
  9.9382411452433328E-01 a       191     0    10     1    11
  8.9778037526586285E+00 a       192     0    10     1    12
 -1.3295112763640397E+01 a       193     0    10     1    13
  6.7172744245883305E+00 a       194     0    10     1    14
 -1.4781242282165156E+01 a       195     0    10     1    15
 -2.8071394709829782E+01 a       196     0    10     1    16
 -5.0431229705236902E+00 a       197     0    10     1    17
  3.6510459461165619E+00 a       198     0    10     1    18
 -2.1490663485463295E+00 a       199     0    10     1    19
  7.4311269492453640E+00 a       200     0    10     1    20
  7.0876963805157818E+00 a       201     0    11     1     1
 -2.1991463858644504E+01 a       202     0    11     1     2
 -2.4624989990684831E+01 a       203     0    11     1     3
 -9.0563135830342700E-01 a       204     0    11     1     4
  1.1478107649215925E+01 a       205     0    11     1     5
 -1.7005320707148830E+00 a       206     0    11     1     6
  9.6324732671552518E+00 a       207     0    11     1     7
  8.1465465891251441E+00 a       208     0    11     1     8
  1.7803325005883530E+00 a       209     0    11     1     9
  3.3388112117685571E+00 a       210     0    11     1    10
  1.9012030932806853E-01 a       211     0    11     1    11
  1.1265514310289968E+01 a       212     0    11     1    12
 -2.8025375627118006E+01 a       213     0    11     1    13
 -1.1758779165257902E+01 a       214     0    11     1    14
 -1.1079152423458240E+01 a       215     0    11     1    15
 -1.0859913506083947E+01 a       216     0    11     1    16
 -1.6653069922489607E+01 a       217     0    11     1    17
 -2.3012487486800635E+00 a       218     0    11     1    18
 -8.6600904592554500E+00 a       219     0    11     1    19
  5.8420708310521405E+00 a       220     0    11     1    20
 -4.2909041652451858E+00 a       221     0    12     1     1
 -3.9686456738534694E+01 a       222     0    12     1     2
 -3.7503011529655765E+01 a       223     0    12     1     3
 -7.1302956998144431E+00 a       224     0    12     1     4
 -1.2008402856776836E+01 a       225     0    12     1     5
 -4.7360552027136587E+00 a       226     0    12     1     6
  4.0015911626280092E+00 a       227     0    12     1     7
 -5.7925292313988024E+00 a       228     0    12     1     8
 -3.0976520204745950E+00 a       229     0    12     1     9
  1.5186030488530969E+01 a       230     0    12     1    10
 -7.8478316957622174E-01 a       231     0    12     1    11
 -3.2238673157386344E+01 a       232     0    12     1    12
  5.3501211424146966E+00 a       233     0    12     1    13
 -2.1668629447782074E+01 a       234     0    12     1    14
 -2.7031417828540359E+01 a       235     0    12     1    15
 -8.1350416127584069E+00 a       236     0    12     1    16
 -1.6076083054987187E+01 a       237     0    12     1    17
 -1.0908741677734437E+01 a       238     0    12     1    18
  1.1250156642509097E+01 a       239     0    12     1    19
  7.3941704280854319E+00 a       240     0    12     1    20
  4.9967231423431896E-01 a       241     0    13     1     1
  7.7389582401340400E+00 a       242     0    13     1     2
  2.1758117456363806E+01 a       243     0    13     1     3
 -8.7413032419505349E-02 a       244     0    13     1     4
 -2.6786381511841868E+00 a       245     0    13     1     5
 -4.1379472372894072E-01 a       246     0    13     1     6
 -1.4923644307870136E+00 a       247     0    13     1     7
  7.6184984927943233E+00 a       248     0    13     1     8
  4.8643123452157511E+00 a       249     0    13     1     9
  4.9308277264798139E+00 a       250     0    13     1    10
 -6.3945543337614008E-01 a       251     0    13     1    11
 -6.3690354082062344E+00 a       252     0    13     1    12
  2.7695364926264361E+00 a       253     0    13     1    13
 -9.8843752129547124E-01 a       254     0    13     1    14
  2.9199296812849891E+00 a       255     0    13     1    15
  1.8269238130859545E+01 a       256     0    13     1    16
  6.0785728511463324E+00 a       257     0    13     1    17
  1.1533535321339179E-01 a       258     0    13     1    18
  1.7147959607278840E+00 a       259     0    13     1    19
 -1.4928677123062186E+00 a       260     0    13     1    20
 -7.2289753941643395E+00 a       261     0    14     1     1
  4.9427460691951053E+00 a       262     0    14     1     2
  1.6844598705135475E+01 a       263     0    14     1     3
  7.7228693216684285E-01 a       264     0    14     1     4
 -1.4785293012986516E+00 a       265     0    14     1     5
 -9.9434667265420007E-01 a       266     0    14     1     6
 -1.1284027400292158E+00 a       267     0    14     1     7
  1.2625515255766224E+00 a       268     0    14     1     8
  4.1241782843908598E-01 a       269     0    14     1     9
 -2.0346002464723583E+00 a       270     0    14     1    10
 -6.9187671492774927E-01 a       271     0    14     1    11
 -2.6911519877746026E+00 a       272     0    14     1    12
  1.0660108005135660E+01 a       273     0    14     1    13
  5.0731582421360724E+00 a       274     0    14     1    14
  1.5775184432623404E+00 a       275     0    14     1    15
  1.6320426348063830E+01 a       276     0    14     1    16
  1.6130340255684796E+01 a       277     0    14     1    17
  2.4603627035792086E+00 a       278     0    14     1    18
  5.3760721256221302E+00 a       279     0    14     1    19
 -1.2027362955353547E+00 a       280     0    14     1    20
 -6.1642857585446431E-01 a       281     0    15     1     1
  1.0332419138831426E+01 a       282     0    15     1     2
  2.5857785268350078E+01 a       283     0    15     1     3
  2.9968657064708011E+00 a       284     0    15     1     4
 -1.2530374831274949E-01 a       285     0    15     1     5
 -5.0870640856269911E-01 a       286     0    15     1     6
  1.2318153093573001E+00 a       287     0    15     1     7
  8.1242661786506822E+00 a       288     0    15     1     8
  2.5162477871584668E+00 a       289     0    15     1     9
 -9.2281508008437676E+00 a       290     0    15     1    10
 -1.3234280866880777E+00 a       291     0    15     1    11
  9.3794523128224672E+00 a       292     0    15     1    12
 -2.0314597915569634E+00 a       293     0    15     1    13
  3.1462217197005491E+00 a       294     0    15     1    14
  8.3874617053350349E+00 a       295     0    15     1    15
  1.3990072072973806E+01 a       296     0    15     1    16
  1.6962835826482184E+01 a       297     0    15     1    17
  1.1715956021484322E+01 a       298     0    15     1    18
  4.8913740461875332E-01 a       299     0    15     1    19
 -1.0989479529311481E+00 a       300     0    15     1    20
 -7.2380678574555430E+00 a       301     0    16     1     1
  1.3233747720880324E+01 a       302     0    16     1     2
 -2.2697052106886169E+01 a       303     0    16     1     3
 -5.2339737756094058E+00 a       304     0    16     1     4
  2.0581605729131706E+01 a       305     0    16     1     5
  4.2404197289585728E+00 a       306     0    16     1     6
 -1.4704459353450956E+00 a       307     0    16     1     7
  7.5030061765232618E+00 a       308     0    16     1     8
 -1.7791437161353713E+01 a       309     0    16     1     9
  1.2055088090424981E+00 a       310     0    16     1    10
  4.4866904287669476E+00 a       311     0    16     1    11
  1.0050282634722352E+01 a       312     0    16     1    12
  5.1001345406134773E+00 a       313     0    16     1    13
  2.5968330738162475E+01 a       314     0    16     1    14
 -1.4492085056475757E+01 a       315     0    16     1    15
  2.0459749486911416E+01 a       316     0    16     1    16
 -6.7600966813893546E+00 a       317     0    16     1    17
 -3.7616245111510857E+01 a       318     0    16     1    18
 -3.1528104886044219E+00 a       319     0    16     1    19
 -1.7152674182867769E+00 a       320     0    16     1    20
  7.1293763377610349E+00 a       321     0    17     1     1
  5.1063806860818362E-01 a       322     0    17     1     2
  1.2651057628573241E+01 a       323     0    17     1     3
 -2.1217771685574656E+00 a       324     0    17     1     4
  1.2740717371301029E+01 a       325     0    17     1     5
  9.0156450446501912E-01 a       326     0    17     1     6
  1.9377025244021342E+00 a       327     0    17     1     7
 -7.3924625430199269E+00 a       328     0    17     1     8
 -6.1512850921049465E+00 a       329     0    17     1     9
  1.9989669400042843E+01 a       330     0    17     1    10
  4.9011880225826348E+00 a       331     0    17     1    11
 -2.6599098297165806E+00 a       332     0    17     1    12
  1.1275302401301193E+01 a       333     0    17     1    13
  1.3817418052388538E+01 a       334     0    17     1    14
 -8.4767422897875289E+00 a       335     0    17     1    15
 -3.3524248778863722E+01 a       336     0    17     1    16
  1.7021327991418544E+00 a       337     0    17     1    17
 -2.4468284238271607E+01 a       338     0    17     1    18
 -1.4025603920444349E+00 a       339     0    17     1    19
  8.7194368300768010E-01 a       340     0    17     1    20
 -3.5826622319381038E+00 a       341     0    18     1     1
 -5.3937902603796750E-01 a       342     0    18     1     2
 -2.2896819104904910E+01 a       343     0    18     1     3
  2.5794133837688995E+00 a       344     0    18     1     4
  3.8610968072154535E+01 a       345     0    18     1     5
  8.7536452229290174E-01 a       346     0    18     1     6
 -7.5680981744464881E-01 a       347     0    18     1     7
 -9.1364098497128432E-01 a       348     0    18     1     8
 -8.4743187494162733E+00 a       349     0    18     1     9
 -1.9873463924160692E+01 a       350     0    18     1    10
  5.6749258225811792E+00 a       351     0    18     1    11
  1.1369804433622754E+01 a       352     0    18     1    12
 -8.4663542777352951E+00 a       353     0    18     1    13
  2.4565328126642822E+01 a       354     0    18     1    14
 -1.2652688325555310E+01 a       355     0    18     1    15
 -2.1305041696661423E+01 a       356     0    18     1    16
 -9.7665249904943501E+00 a       357     0    18     1    17
 -7.4717036062997657E+00 a       358     0    18     1    18
  8.6378281219037873E+00 a       359     0    18     1    19
  2.7677744650478182E+00 a       360     0    18     1    20
 -1.7690206897231295E+01 a       361     0    19     1     1
  6.5946597219942236E+00 a       362     0    19     1     2
 -2.6497665669670035E+01 a       363     0    19     1     3
  9.1255325499859126E+00 a       364     0    19     1     4
 -2.1300988898780556E+01 a       365     0    19     1     5
 -4.5411724582952573E+00 a       366     0    19     1     6
  8.6012193812043769E+00 a       367     0    19     1     7
 -9.3909666026576613E+00 a       368     0    19     1     8
 -8.5667244729085059E+00 a       369     0    19     1     9
 -6.7900183880649276E+00 a       370     0    19     1    10
  2.9838688000670670E+00 a       371     0    19     1    11
  7.0871869440670543E-01 a       372     0    19     1    12
  1.9109997538064842E+00 a       373     0    19     1    13
  8.6727832270163336E+00 a       374     0    19     1    14
 -9.6750650961498308E-01 a       375     0    19     1    15
 -2.3101298040212566E+01 a       376     0    19     1    16
 -1.3607955476252802E+00 a       377     0    19     1    17
 -4.2831201584255822E+00 a       378     0    19     1    18
  1.5337639438249928E+01 a       379     0    19     1    19
 -2.1325874919891397E+00 a       380     0    19     1    20
  1.5063999973722062E+01 a       381     0    20     1     1
  1.6018182928912843E+00 a       382     0    20     1     2
 -1.7977898604000583E+01 a       383     0    20     1     3
 -3.2613524681859469E+00 a       384     0    20     1     4
  9.1832577243368227E+00 a       385     0    20     1     5
 -5.0648809227051430E+00 a       386     0    20     1     6
  4.7519629570033404E+00 a       387     0    20     1     7
 -2.8532507819701030E+00 a       388     0    20     1     8
 -1.1714224678524172E+01 a       389     0    20     1     9
 -5.5621146847748912E+00 a       390     0    20     1    10
  7.8321391461765790E+00 a       391     0    20     1    11
 -1.4598756551915749E+01 a       392     0    20     1    12
  2.7624604550322573E+01 a       393     0    20     1    13
 -1.7384233413331955E+00 a       394     0    20     1    14
  1.8307221339394633E+01 a       395     0    20     1    15
 -1.4915350578674040E+01 a       396     0    20     1    16
 -9.9263913536823978E+00 a       397     0    20     1    17
 -3.8771217560182940E+01 a       398     0    20     1    18
  7.5474906422918968E+00 a       399     0    20     1    19
 -3.3483177104686723E-01 a       400     0    20     1    20
 -1.0648395168354071E+01 a       401     0    21     1     1
  1.0111791928451623E+00 a       402     0    21     1     2
 -1.5615851047391674E+01 a       403     0    21     1     3
 -3.6810435950593132E+00 a       404     0    21     1     4
  6.0443270406571656E+00 a       405     0    21     1     5
  1.0914499221889828E+01 a       406     0    21     1     6
 -1.6204376078901475E+01 a       407     0    21     1     7
 -7.6703640019183839E+00 a       408     0    21     1     8
  1.2683967629493413E+01 a       409     0    21     1     9
 -2.7869347219067904E+00 a       410     0    21     1    10
  6.2084204485120722E+00 a       411     0    21     1    11
  2.1561823532928358E+01 a       412     0    21     1    12
  4.3046214640361175E-01 a       413     0    21     1    13
  1.3541358912445686E+01 a       414     0    21     1    14
 -2.0609339166187129E-01 a       415     0    21     1    15
  7.1046804853827072E-01 a       416     0    21     1    16
  1.8459871283450532E+01 a       417     0    21     1    17
 -1.9669964693222717E+01 a       418     0    21     1    18
  2.7573676923020642E+01 a       419     0    21     1    19
  3.1131177580215708E+00 a       420     0    21     1    20
  1.1762430088712106E+01 a       421     0    22     1     1
 -2.4080043862002810E+01 a       422     0    22     1     2
  2.5296079333691399E+01 a       423     0    22     1     3
  7.6144788462005888E+00 a       424     0    22     1     4
 -1.6524787347258538E+01 a       425     0    22     1     5
 -4.7410984664286913E+00 a       426     0    22     1     6
  4.4970188505058966E+00 a       427     0    22     1     7
 -1.3133922259765805E+00 a       428     0    22     1     8
  3.1689022038791578E+01 a       429     0    22     1     9
 -2.1188346236767024E+00 a       430     0    22     1    10
 -7.6684051075202326E+00 a       431     0    22     1    11
 -1.3569801749522856E+01 a       432     0    22     1    12
  5.7547433834675255E-01 a       433     0    22     1    13
 -3.7681990469982516E+01 a       434     0    22     1    14
  2.4270142520921976E+01 a       435     0    22     1    15
 -1.3551810495501128E+01 a       436     0    22     1    16
  1.0258770790242762E+01 a       437     0    22     1    17
  4.3026292603727931E+01 a       438     0    22     1    18
  4.3396905741907474E+00 a       439     0    22     1    19
  3.8590756481861592E+00 a       440     0    22     1    20
 -2.2802016194411641E+00 a       441     0    23     1     1
  2.4158639144593037E+00 a       442     0    23     1     2
 -2.3349497151885970E+01 a       443     0    23     1     3
  2.0210560858868831E+00 a       444     0    23     1     4
 -2.7923548615160936E+01 a       445     0    23     1     5
 -3.3482173969941695E+00 a       446     0    23     1     6
 -3.0211650851663556E+00 a       447     0    23     1     7
 -5.8641394484706988E-01 a       448     0    23     1     8
  2.0164331318748474E+01 a       449     0    23     1     9
 -2.8132581719273116E+01 a       450     0    23     1    10
 -1.1400706810942234E+01 a       451     0    23     1    11
 -1.3831992813264082E-01 a       452     0    23     1    12
 -3.1378939540003015E+00 a       453     0    23     1    13
 -3.3028078564892425E+01 a       454     0    23     1    14
  1.3436558380459447E+01 a       455     0    23     1    15
  2.3795330012210787E+01 a       456     0    23     1    16
 -1.2438458204227027E+01 a       457     0    23     1    17
  2.7183964966467034E+01 a       458     0    23     1    18
 -1.8197115962918105E+00 a       459     0    23     1    19
  1.9491745481494729E-01 a       460     0    23     1    20
  1.9544881186651576E+01 a       461     0    24     1     1
  4.1329206369806030E+01 a       462     0    24     1     2
  2.3161270265612728E+01 a       463     0    24     1     3
 -4.9123365236362346E+00 a       464     0    24     1     4
 -1.8391953452071046E+01 a       465     0    24     1     5
 -3.4856066618022763E+00 a       466     0    24     1     6
 -2.3025278467999453E+00 a       467     0    24     1     7
  1.7011054203563202E+01 a       468     0    24     1     8
  2.5003758190814416E+01 a       469     0    24     1     9
  2.7500095442795466E+01 a       470     0    24     1    10
 -1.3727500743979679E+01 a       471     0    24     1    11
 -6.6808084346192054E+00 a       472     0    24     1    12
  1.0555099295808931E+01 a       473     0    24     1    13
 -4.3576403696956753E+01 a       474     0    24     1    14
  2.3402138109756233E+01 a       475     0    24     1    15
  2.4062520481685883E+01 a       476     0    24     1    16
  2.2864149024037639E+00 a       477     0    24     1    17
  1.1529679188934674E+01 a       478     0    24     1    18
 -1.0616165514578006E+01 a       479     0    24     1    19
 -1.2135159736419769E+00 a       480     0    24     1    20
  2.0317671875664786E+01 a       481     0    25     1     1
 -2.6749307500604328E+01 a       482     0    25     1     2
  2.4447904275867462E+01 a       483     0    25     1     3
 -1.3843895043807857E+01 a       484     0    25     1     4
  4.0698083429877336E+01 a       485     0    25     1     5
  4.3236434946026039E+00 a       486     0    25     1     6
 -1.3976523871447833E+01 a       487     0    25     1     7
  1.2553929875512004E+01 a       488     0    25     1     8
  1.3162564965172871E+01 a       489     0    25     1     9
  1.5309146276285260E+01 a       490     0    25     1    10
 -7.9401562667511572E+00 a       491     0    25     1    11
  1.7638169854177178E+01 a       492     0    25     1    12
 -3.1415500558375335E+01 a       493     0    25     1    13
 -2.2539700023437874E+01 a       494     0    25     1    14
  3.8184987358851661E+00 a       495     0    25     1    15
  9.2937597016628910E+00 a       496     0    25     1    16
  8.2407270465301857E-02 a       497     0    25     1    17
  9.4005634951945627E+00 a       498     0    25     1    18
 -2.1111845824865089E+01 a       499     0    25     1    19
  4.8031215620652405E+00 a       500     0    25     1    20
 -1.1678947506474188E+01 a       501     0    26     1     1
  1.1870931145556558E+01 a       502     0    26     1     2
  1.4534638632765086E+01 a       503     0    26     1     3
  4.9861896356282820E+00 a       504     0    26     1     4
 -1.8575155678682034E+01 a       505     0    26     1     5
  6.0933157822192392E+00 a       506     0    26     1     6
 -6.7136838919217245E+00 a       507     0    26     1     7
  9.1167514696702767E-01 a       508     0    26     1     8
  5.3757919698511198E+00 a       509     0    26     1     9
  1.6145056839292181E+01 a       510     0    26     1    10
 -1.3828124861013043E+01 a       511     0    26     1    11
  3.7841020566917882E-01 a       512     0    26     1    12
 -6.3659079084389498E+00 a       513     0    26     1    13
  5.4804269694875130E+00 a       514     0    26     1    14
 -2.3040469195021238E+01 a       515     0    26     1    15
  1.8035741283565969E+01 a       516     0    26     1    16
 -1.0694501945020754E+01 a       517     0    26     1    17
  4.9506294266466924E+01 a       518     0    26     1    18
 -2.1520525744676586E+01 a       519     0    26     1    19
  2.8417360341498616E+00 a       520     0    26     1    20
  2.0063497849377846E+01 a       521     0    27     1     1
 -9.5137280728244491E+00 a       522     0    27     1     2
  1.5731861067163580E+01 a       523     0    27     1     3
  5.0760017196297813E+00 a       524     0    27     1     4
 -4.9494199671493195E+00 a       525     0    27     1     5
 -1.3517415001447787E+01 a       526     0    27     1     6
  2.2821470582086466E+01 a       527     0    27     1     7
  1.7855405069329965E+01 a       528     0    27     1     8
 -1.8022314693087097E+01 a       529     0    27     1     9
  4.6509013896863580E+00 a       530     0    27     1    10
 -1.1545018515333627E+01 a       531     0    27     1    11
 -1.5056500181604246E+01 a       532     0    27     1    12
 -2.1468268216554307E+00 a       533     0    27     1    13
 -1.3061246836228786E+01 a       534     0    27     1    14
 -4.7661713644919281E+00 a       535     0    27     1    15
 -1.6876501946088236E+01 a       536     0    27     1    16
 -2.8872954335089442E+01 a       537     0    27     1    17
  8.7410910444035910E+00 a       538     0    27     1    18
 -3.7172409863316027E+01 a       539     0    27     1    19
 -3.1151234680442688E+00 a       540     0    27     1    20
 -4.3948875997445498E+00 a       541     0    28     1     1
  1.5177962574111095E+00 a       542     0    28     1     2
  2.5484102778256656E+00 a       543     0    28     1     3
 -8.1492664311896479E-01 a       544     0    28     1     4
  1.3157179133932507E+01 a       545     0    28     1     5
 -1.0465941431350365E-03 a       546     0    28     1     6
 -1.5748574090860739E+00 a       547     0    28     1     7
  4.3223426178355262E-01 a       548     0    28     1     8
  8.6356132161795305E+00 a       549     0    28     1     9
 -1.4054227542589994E+00 a       550     0    28     1    10
 -5.2768632605889110E+00 a       551     0    28     1    11
  5.3264741248689784E+00 a       552     0    28     1    12
  1.2960231843532572E+01 a       553     0    28     1    13
 -8.7120816006112296E+00 a       554     0    28     1    14
  1.8854130673578402E+00 a       555     0    28     1    15
 -5.8773771725512898E+00 a       556     0    28     1    16
  1.1067486960640657E+01 a       557     0    28     1    17
  8.6533060082271227E+00 a       558     0    28     1    18
 -9.5697797245513500E-02 a       559     0    28     1    19
  6.2113511378616459E-01 a       560     0    28     1    20
 -5.4165092871424561E+00 a       561     0    29     1     1
  6.0066851600375530E+00 a       562     0    29     1     2
 -5.4378648205142444E+00 a       563     0    29     1     3
  2.9293569498092729E+00 a       564     0    29     1     4
 -6.0036130370881349E+00 a       565     0    29     1     5
  1.4419906859015993E-02 a       566     0    29     1     6
 -7.4288949099500723E-01 a       567     0    29     1     7
 -7.6881946692489542E+00 a       568     0    29     1     8
  7.8255241047063011E+00 a       569     0    29     1     9
 -1.5500941567544434E+01 a       570     0    29     1    10
 -8.3275015099686733E+00 a       571     0    29     1    11
  6.8921549658003665E+00 a       572     0    29     1    12
 -1.7474881087626891E+01 a       573     0    29     1    13
 -5.0828431359228121E+00 a       574     0    29     1    14
  7.5824030980177657E+00 a       575     0    29     1    15
  9.3109329623232888E+00 a       576     0    29     1    16
  1.7292195635534679E+01 a       577     0    29     1    17
  2.0951807914450026E+01 a       578     0    29     1    18
  2.0652063159765968E+00 a       579     0    29     1    19
  8.4510673374709411E-01 a       580     0    29     1    20
  5.7032403228586137E+00 a       581     0    30     1     1
 -8.4525459319080216E+00 a       582     0    30     1     2
  1.4168215032546927E+01 a       583     0    30     1     3
  3.9888666209934214E+00 a       584     0    30     1     4
 -2.7800688778225176E+01 a       585     0    30     1     5
  1.8867894679856960E+00 a       586     0    30     1     6
 -5.2209340228435153E-01 a       587     0    30     1     7
 -4.8200972346014161E+00 a       588     0    30     1     8
  7.7240107049162825E+00 a       589     0    30     1     9
  1.0250561365840056E+01 a       590     0    30     1    10
 -6.1051750369157931E+00 a       591     0    30     1    11
 -1.9874163649808523E+01 a       592     0    30     1    12
  1.0327317458080190E+01 a       593     0    30     1    13
 -1.4870010844881694E+01 a       594     0    30     1    14
  4.2451557433323925E+00 a       595     0    30     1    15
  7.4989615728001491E+00 a       596     0    30     1    16
  2.4382999880154980E+01 a       597     0    30     1    17
 -1.3793573554716221E+00 a       598     0    30     1    18
 -4.8185096210254086E+00 a       599     0    30     1    19
  9.8185436237275103E-01 a       600     0    30     1    20
  8.6988860989729755E+00 a       601     0    31     1     1
 -4.2678529957993199E+00 a       602     0    31     1     2
  1.2798032227618400E+01 a       603     0    31     1     3
 -4.8320766397709995E+00 a       604     0    31     1     4
 -5.2799546647682449E+00 a       605     0    31     1     5
  9.5554964087416909E+00 a       606     0    31     1     6
 -6.8321650793026167E+00 a       607     0    31     1     7
 -3.4958165776765433E+01 a       608     0    31     1     8
  2.5000179117345333E+01 a       609     0    31     1     9
 -1.9730090580713397E+00 a       610     0    31     1    10
 -1.4333308518745646E+01 a       611     0    31     1    11
  2.4229686437910423E+00 a       612     0    31     1    12
 -9.8083391002189710E+00 a       613     0    31     1    13
 -7.1741650434831064E+00 a       614     0    31     1    14
  1.8116846708888893E+01 a       615     0    31     1    15
  1.8089019232127981E+01 a       616     0    31     1    16
  6.2354902608593967E+00 a       617     0    31     1    17
 -4.0016723213811500E-01 a       618     0    31     1    18
 -2.2801435965319236E+01 a       619     0    31     1    19
  2.2703486143586300E+00 a       620     0    31     1    20
 -1.0769129893815175E+00 a       621     0    32     1     1
 -1.4774219254141900E+00 a       622     0    32     1     2
  4.8843053253654780E+00 a       623     0    32     1     3
  2.1131307914431221E+00 a       624     0    32     1     4
  4.1446506724174430E+00 a       625     0    32     1     5
  2.4985159935189443E+00 a       626     0    32     1     6
 -2.3884403875303160E+00 a       627     0    32     1     7
 -9.3256491895368061E+00 a       628     0    32     1     8
  1.7618815598958932E+01 a       629     0    32     1     9
 -4.6640909215496222E+00 a       630     0    32     1    10
 -8.3837980119827051E+00 a       631     0    32     1    11
 -8.9028676884044184E+00 a       632     0    32     1    12
 -4.6873912663697990E+00 a       633     0    32     1    13
 -2.1120503391194512E-01 a       634     0    32     1    14
 -1.2436107242784423E+01 a       635     0    32     1    15
 -4.0218417337378760E+01 a       636     0    32     1    16
  9.2716671233657202E+00 a       637     0    32     1    17
  1.4205383561889340E+01 a       638     0    32     1    18
  6.3746635928985762E-01 a       639     0    32     1    19
  1.5573326495825894E+00 a       640     0    32     1    20
 -2.5236891328382911E+00 a       641     0    33     1     1
  1.5710753672391085E+01 a       642     0    33     1     2
  1.5974902912745016E+01 a       643     0    33     1     3
  4.1699381888556246E+00 a       644     0    33     1     4
 -6.7324131574820960E+00 a       645     0    33     1     5
 -4.2167396276781615E+00 a       646     0    33     1     6
  7.3959475994213819E-01 a       647     0    33     1     7
 -2.2882828000562576E+01 a       648     0    33     1     8
  1.8656556282046743E+00 a       649     0    33     1     9
 -5.4724514128440145E+00 a       650     0    33     1    10
 -4.2649138999232878E+00 a       651     0    33     1    11
 -1.4149809036968504E+01 a       652     0    33     1    12
  7.9184274741923577E+00 a       653     0    33     1    13
 -5.7315586555938296E+00 a       654     0    33     1    14
  1.3054876997702425E-01 a       655     0    33     1    15
 -3.7815268954640885E+01 a       656     0    33     1    16
 -6.7817494665648868E+00 a       657     0    33     1    17
  9.2542343308580435E+00 a       658     0    33     1    18
 -1.6349590477464176E+01 a       659     0    33     1    19
  8.2887633912692216E-02 a       660     0    33     1    20
 -5.1365678590622448E+00 a       661     0    34     1     1
  2.7733302392050103E+01 a       662     0    34     1     2
 -2.1878000477367216E+01 a       663     0    34     1     3
 -5.1200296073974787E+00 a       664     0    34     1     4
  2.5358593230725264E+00 a       665     0    34     1     5
  3.1344982361963591E+00 a       666     0    34     1     6
 -4.0974732446090885E+00 a       667     0    34     1     7
 -1.6560294414248178E+00 a       668     0    34     1     8
 -2.7160555903269678E+01 a       669     0    34     1     9
 -4.6997561152774390E+00 a       670     0    34     1    10
  5.1485614390527878E+00 a       671     0    34     1    11
  1.5786740600314154E+01 a       672     0    34     1    12
  2.7287121251408917E+00 a       673     0    34     1    13
  3.1385844039835675E+01 a       674     0    34     1    14
 -1.5930584724493706E+01 a       675     0    34     1    15
 -1.2750428491120047E+01 a       676     0    34     1    16
 -9.6496357276320648E+00 a       677     0    34     1    17
 -2.3044488897467932E+01 a       678     0    34     1    18
 -1.2915245936922002E+00 a       679     0    34     1    19
 -2.8735574016569743E+00 a       680     0    34     1    20
 -1.2006870219831645E+00 a       681     0    35     1     1
  1.0639339623978213E+01 a       682     0    35     1     2
  1.2811511985402401E+01 a       683     0    35     1     3
  4.0249577590636931E-01 a       684     0    35     1     4
  1.1748395590588427E+01 a       685     0    35     1     5
  1.7973042337310075E+00 a       686     0    35     1     6
  1.5296134557099033E+00 a       687     0    35     1     7
  2.5838852732333737E+00 a       688     0    35     1     8
 -1.3808178473023673E+01 a       689     0    35     1     9
  9.0539412850086123E+00 a       690     0    35     1    10
  6.0477344515998661E+00 a       691     0    35     1    11
  1.3441231771817035E+00 a       692     0    35     1    12
 -9.0354340522100696E+00 a       693     0    35     1    13
  2.2305113193677148E+01 a       694     0    35     1    14
 -5.9245801826232123E+00 a       695     0    35     1    15
 -1.0556695138756393E+00 a       696     0    35     1    16
  3.2905901049438095E+00 a       697     0    35     1    17
 -1.0424920186091997E+01 a       698     0    35     1    18
  4.0559822370934775E+00 a       699     0    35     1    19
 -4.5058519199204922E-01 a       700     0    35     1    20
 -1.2455534663200080E+01 a       701     0    36     1     1
 -1.0240363241661369E+01 a       702     0    36     1     2
 -3.8952871358670960E+00 a       703     0    36     1     3
  2.5162818113580490E+00 a       704     0    36     1     4
 -1.1917351480444340E+01 a       705     0    36     1     5
  2.6489777561448484E+00 a       706     0    36     1     6
  1.1777612156348376E+00 a       707     0    36     1     7
 -1.2766359440815982E+01 a       708     0    36     1     8
 -1.6115538582382587E+01 a       709     0    36     1     9
 -9.0946184047555327E+00 a       710     0    36     1    10
  6.7487698346411689E+00 a       711     0    36     1    11
 -1.6136301209753010E+00 a       712     0    36     1    12
 -1.4754069977596169E+00 a       713     0    36     1    13
  2.2227593399673022E+01 a       714     0    36     1    14
 -1.4677146700249169E+01 a       715     0    36     1    15
 -6.8052095254237006E+00 a       716     0    36     1    16
  9.7822815210811775E+00 a       717     0    36     1    17
 -7.2083180126058393E+00 a       718     0    36     1    18
  7.4511356166837608E+00 a       719     0    36     1    19
 -3.3552861387270294E-01 a       720     0    36     1    20
 -6.3356334083770234E+00 a       721     0    37     1     1
  1.6162885267300691E+01 a       722     0    37     1     2
 -8.4118491842550664E+00 a       723     0    37     1     3
  6.6957766681544122E+00 a       724     0    37     1     4
 -2.4622267596121624E+01 a       725     0    37     1     5
 -1.0047538035912347E+00 a       726     0    37     1     6
  7.5512265794737958E+00 a       727     0    37     1     7
 -8.8947625897003775E+00 a       728     0    37     1     8
 -5.8728518164842018E+00 a       729     0    37     1     9
 -1.4741928107920653E+01 a       730     0    37     1    10
  5.2545991605875146E+00 a       731     0    37     1    11
 -2.2655429214226409E+01 a       732     0    37     1    12
  2.0452442595441070E+01 a       733     0    37     1    13
  2.8296775797374160E+01 a       734     0    37     1    14
  4.1422476315305823E-01 a       735     0    37     1    15
  1.0660771634890756E+01 a       736     0    37     1    16
  1.4696005618604151E+00 a       737     0    37     1    17
 -1.1259666977271383E+01 a       738     0    37     1    18
  9.2052660148611345E+00 a       739     0    37     1    19
 -3.3393483945563887E+00 a       740     0    37     1    20
  4.8821744418507969E+00 a       741     0    38     1     1
  8.6191645098127356E-01 a       742     0    38     1     2
 -2.4387814102431684E+00 a       743     0    38     1     3
 -3.2224487117067819E+00 a       744     0    38     1     4
  8.4139409838983994E+00 a       745     0    38     1     5
 -9.3263900258323507E-01 a       746     0    38     1     6
  3.8057959064453700E-01 a       747     0    38     1     7
 -9.2982821309167178E+00 a       748     0    38     1     8
 -7.0597607396604269E+00 a       749     0    38     1     9
 -9.3635879290798982E+00 a       750     0    38     1    10
  6.6356040026250582E+00 a       751     0    38     1    11
  2.2399180558339640E+00 a       752     0    38     1    12
 -1.5783298121955095E+01 a       753     0    38     1    13
  2.3439775216666852E+00 a       754     0    38     1    14
  8.0733698145968589E+00 a       755     0    38     1    15
  3.0362569984795962E-01 a       756     0    38     1    16
  2.4773284391877517E+01 a       757     0    38     1    17
 -2.1028322660091188E+01 a       758     0    38     1    18
  1.8080100252730471E+01 a       759     0    38     1    19
 -2.1309420479751569E+00 a       760     0    38     1    20
 -1.0569658085568697E+01 a       761     0    39     1     1
  1.6577121131242986E+01 a       762     0    39     1     2
 -1.4770646900129705E+00 a       763     0    39     1     3
 -1.8913677386449328E+00 a       764     0    39     1     4
 -4.3347132540550994E+00 a       765     0    39     1     5
  6.5071456703706687E+00 a       766     0    39     1     6
 -1.0021174205635029E+01 a       767     0    39     1     7
 -1.0296991087754270E+01 a       768     0    39     1     8
  9.8462665713192603E+00 a       769     0    39     1     9
 -1.4401210694989273E+00 a       770     0    39     1    10
  6.0363549220440404E+00 a       771     0    39     1    11
  2.0115714212911286E+00 a       772     0    39     1    12
 -1.7550123758597522E+01 a       773     0    39     1    13
  1.5919959654227830E+01 a       774     0    39     1    14
  6.6718775334216947E+00 a       775     0    39     1    15
  2.4255573913901745E+01 a       776     0    39     1    16
  1.5612400672129960E+01 a       777     0    39     1    17
  4.2167914834274924E+00 a       778     0    39     1    18
  2.0817711555533602E+01 a       779     0    39     1    19
  7.7671763136704530E-01 a       780     0    39     1    20
  2.1118796396270184E+01 a       781     0    40     1     1
  1.4218976271709316E+01 a       782     0    40     1     2
  2.3933821739022257E+01 a       783     0    40     1     3
  1.0247752216843843E+01 a       784     0    40     1     4
 -4.6156434286309604E+00 a       785     0    40     1     5
 -5.2508444039854254E+00 a       786     0    40     1     6
 -3.1743849736327321E+00 a       787     0    40     1     7
 -3.7398644833292644E-01 a       788     0    40     1     8
  5.1585400282630793E+00 a       789     0    40     1     9
 -1.9267208649974382E+01 a       790     0    40     1    10
 -8.6219621206754518E+00 a       791     0    40     1    11
  3.7258103728861478E+00 a       792     0    40     1    12
 -1.3988577996312257E+01 a       793     0    40     1    13
 -2.5832724012235705E+01 a       794     0    40     1    14
  5.4269383956235054E-02 a       795     0    40     1    15
 -9.5594653649596975E+00 a       796     0    40     1    16
 -5.0373470811444658E+00 a       797     0    40     1    17
  7.1546474880901965E+00 a       798     0    40     1    18
  8.9186432884543621E+00 a       799     0    40     1    19
  6.6379649745972014E+00 a       800     0    40     1    20
 -4.3847776794430029E+00 a       801     0    41     1     1
  1.9107759650019254E+01 a       802     0    41     1     2
 -2.5268563920799316E+00 a       803     0    41     1     3
  7.3552826537717442E+00 a       804     0    41     1     4
  4.5129662275609954E+00 a       805     0    41     1     5
 -5.2691723002899300E+00 a       806     0    41     1     6
 -6.2304628091994410E+00 a       807     0    41     1     7
  1.4814596937225010E+01 a       808     0    41     1     8
 -1.8824183562907419E+00 a       809     0    41     1     9
 -1.5249146019084174E+01 a       810     0    41     1    10
 -2.0468213751417106E+00 a       811     0    41     1    11
  3.6949461801429823E-01 a       812     0    41     1    12
  1.6913316645371672E+00 a       813     0    41     1    13
 -1.8393493416929140E+01 a       814     0    41     1    14
 -6.4901763317905523E+00 a       815     0    41     1    15
  2.6428170798757456E+01 a       816     0    41     1    16
 -6.0906359518035371E+00 a       817     0    41     1    17
 -1.5752704040874837E+01 a       818     0    41     1    18
  7.7755158180014590E+00 a       819     0    41     1    19
  1.9725659000678455E+00 a       820     0    41     1    20
 -2.5315349341591364E+00 a       821     0    42     1     1
 -9.3928653366171861E+00 a       822     0    42     1     2
  2.2401045204986964E+01 a       823     0    42     1     3
  5.0029493464764241E-01 a       824     0    42     1     4
 -2.2111600569974215E+01 a       825     0    42     1     5
 -5.4218090244198986E+00 a       826     0    42     1     6
 -9.4799261305125295E+00 a       827     0    42     1     7
  7.7731533534829058E+00 a       828     0    42     1     8
  2.6475564642739839E+00 a       829     0    42     1     9
  6.7178074161012340E+00 a       830     0    42     1    10
 -4.8614484483683640E+00 a       831     0    42     1    11
 -6.9761904888416346E+00 a       832     0    42     1    12
 -8.9620698729599813E+00 a       833     0    42     1    13
 -1.5507057519528217E+01 a       834     0    42     1    14
  1.3231965049842302E+00 a       835     0    42     1    15
  2.4900514464389495E+01 a       836     0    42     1    16
 -6.2101562757046969E+00 a       837     0    42     1    17
 -1.2998177801517784E+01 a       838     0    42     1    18
  1.3662684792360489E+00 a       839     0    42     1    19
 -1.0985854870365650E+00 a       840     0    42     1    20
  2.9320757278206155E+00 a       841     0    43     1     1
  2.4677673300205488E+01 a       842     0    43     1     2
  2.0244757671727541E+01 a       843     0    43     1     3
 -1.2647421084293907E+01 a       844     0    43     1     4
  1.2219306117923482E+01 a       845     0    43     1     5
 -5.0964057274981025E+00 a       846     0    43     1     6
 -1.1151029549919338E+01 a       847     0    43     1     7
  7.6924568529571564E+00 a       848     0    43     1     8
 -2.4157828364449145E+01 a       849     0    43     1     9
  9.6247347635048737E+00 a       850     0    43     1    10
  1.8882922890587166E+00 a       851     0    43     1    11
 -1.9602047833874284E+01 a       852     0    43     1    12
  3.0990284639280130E+01 a       853     0    43     1    13
 -1.9277139429770070E+01 a       854     0    43     1    14
 -1.8175745609607461E+01 a       855     0    43     1    15
  1.3244838250482511E+01 a       856     0    43     1    16
  2.2450889880654232E+00 a       857     0    43     1    17
 -1.1164720780131647E+01 a       858     0    43     1    18
  4.0313618613591756E-01 a       859     0    43     1    19
  6.3680821241681675E+00 a       860     0    43     1    20
 -1.1823029270977182E+01 a       861     0    44     1     1
  8.9128596444112045E+00 a       862     0    44     1     2
  1.4879317795807641E+01 a       863     0    44     1     3
  5.0246110388377856E+00 a       864     0    44     1     4
  1.1259900441486737E+01 a       865     0    44     1     5
  4.6450261427689149E-01 a       866     0    44     1     6
 -3.4817720795436391E+00 a       867     0    44     1     7
 -4.2321239306244021E+00 a       868     0    44     1     8
 -4.8567456301115417E+00 a       869     0    44     1     9
  8.0259503786121940E+00 a       870     0    44     1    10
 -7.0639245151565867E-03 a       871     0    44     1    11
  6.5752425357892248E+00 a       872     0    44     1    12
 -1.6311167985557880E+01 a       873     0    44     1    13
  1.5699530961360145E+01 a       874     0    44     1    14
  2.9928503279076977E+00 a       875     0    44     1    15
  1.6187395429742370E+01 a       876     0    44     1    16
  1.3970011094218064E+01 a       877     0    44     1    17
 -5.5349147017483320E+00 a       878     0    44     1    18
  6.4986249271865333E+00 a       879     0    44     1    19
 -4.1861128398608854E-01 a       880     0    44     1    20
  7.5408776278830194E+00 a       881     0    45     1     1
 -2.9316035081187040E+00 a       882     0    45     1     2
  2.8534068837541430E+01 a       883     0    45     1     3
 -1.3947496173204312E+01 a       884     0    45     1     4
 -5.7118569128413528E+00 a       885     0    45     1     5
 -1.7966419843371767E+01 a       886     0    45     1     6
  2.9259598308059182E+01 a       887     0    45     1     7
 -8.7733196155678730E+00 a       888     0    45     1     8
 -3.2358216507771374E+01 a       889     0    45     1     9
 -2.0648704677378409E+00 a       890     0    45     1    10
 -1.2429833373907972E+01 a       891     0    45     1    11
 -6.1760300322147881E+00 a       892     0    45     1    12
  7.4299600887620831E-01 a       893     0    45     1    13
 -9.6337613778141495E+00 a       894     0    45     1    14
 -1.8715886825639753E+01 a       895     0    45     1    15
  2.4340705648892406E+01 a       896     0    45     1    16
  1.9022718862893735E+00 a       897     0    45     1    17
  1.3522261006171277E+01 a       898     0    45     1    18
  1.9304141916861386E+01 a       899     0    45     1    19
 -6.4575023526218365E+00 a       900     0    45     1    20
 -2.9017171729274679E+01 a       901     0    46     1     1
  1.8632834957306916E+00 a       902     0    46     1     2
 -3.0855017198473870E+01 a       903     0    46     1     3
 -1.7063559115921326E+01 a       904     0    46     1     4
 -1.0671379090536806E+01 a       905     0    46     1     5
  5.8624810375573597E+00 a       906     0    46     1     6
 -4.0605351926430551E+00 a       907     0    46     1     7
  4.3752568416250137E-01 a       908     0    46     1     8
 -2.0021380569707418E+01 a       909     0    46     1     9
  2.9277680157729318E+01 a       910     0    46     1    10
  1.2343679335814135E+01 a       911     0    46     1    11
 -7.1165358445084337E+00 a       912     0    46     1    12
  3.9581416818238351E+00 a       913     0    46     1    13
  3.4668960082960488E+01 a       914     0    46     1    14
 -1.8218364822979439E+01 a       915     0    46     1    15
  7.5082987029195731E+00 a       916     0    46     1    16
  3.3207525941174563E+00 a       917     0    46     1    17
 -1.7240949243123673E+01 a       918     0    46     1    18
 -1.0538031294792965E+01 a       919     0    46     1    19
 -1.0703790318782692E+01 a       920     0    46     1    20
  1.5578945213202422E+00 a       921     0    47     1     1
 -1.7646381862596591E+01 a       922     0    47     1     2
  1.5072129816727507E+01 a       923     0    47     1     3
 -1.0690679194199902E+01 a       924     0    47     1     4
 -4.9466090987727620E+00 a       925     0    47     1     5
  8.4424374474274479E+00 a       926     0    47     1     6
  6.7382991452496084E+00 a       927     0    47     1     7
  3.7016798903008690E+00 a       928     0    47     1     8
 -8.0539199562014563E+00 a       929     0    47     1     9
  1.6563778920109606E+01 a       930     0    47     1    10
  4.7302846972632464E+00 a       931     0    47     1    11
  2.7803782798845269E+00 a       932     0    47     1    12
 -1.1188774921668271E+01 a       933     0    47     1    13
  3.9319703434023879E+01 a       934     0    47     1    14
  9.9940818166669718E+00 a       935     0    47     1    15
 -3.0425964717217071E+00 a       936     0    47     1    16
  3.2714965625713199E-01 a       937     0    47     1    17
  4.1650006941232071E+01 a       938     0    47     1    18
 -2.9470573413308414E+00 a       939     0    47     1    19
 -3.8798390942347569E+00 a       940     0    47     1    20
 -1.0546714658399580E+01 a       941     0    48     1     1
 -1.4515525201481335E+01 a       942     0    48     1     2
 -1.8181827249488258E+01 a       943     0    48     1     3
 -6.1317245343637292E-02 a       944     0    48     1     4
 -1.0470358430904977E+01 a       945     0    48     1     5
  7.0559280582755459E+00 a       946     0    48     1     6
  1.6936055910764136E+01 a       947     0    48     1     7
 -2.0274804468178992E+01 a       948     0    48     1     8
 -1.5043085571769289E+01 a       949     0    48     1     9
 -7.7321163467539291E+00 a       950     0    48     1    10
  1.0638568157112124E+01 a       951     0    48     1    11
  4.0225625766697144E+00 a       952     0    48     1    12
  7.8330527246930277E+00 a       953     0    48     1    13
  2.7300746313808332E+01 a       954     0    48     1    14
  3.9660126530303299E+00 a       955     0    48     1    15
 -1.6396745709805959E+01 a       956     0    48     1    16
  1.2796073358268991E+01 a       957     0    48     1    17
  1.9698239273298359E+01 a       958     0    48     1    18
  1.6387690288777566E+00 a       959     0    48     1    19
 -1.4136935935920700E+00 a       960     0    48     1    20
  1.5113661556091174E+01 a       961     0    49     1     1
 -2.3512791582660938E+01 a       962     0    49     1     2
 -3.1732433644372526E+00 a       963     0    49     1     3
  1.6525813703759589E+01 a       964     0    49     1     4
 -1.8639362500122836E+01 a       965     0    49     1     5
  9.1551518767522833E+00 a       966     0    49     1     6
  1.2724693168512148E+01 a       967     0    49     1     7
 -8.4535211697728876E+00 a       968     0    49     1     8
  3.1071371337327353E+01 a       969     0    49     1     9
 -7.5586639117479280E+00 a       970     0    49     1    10
 -2.5182151469527392E-01 a       971     0    49     1    11
  2.9625016413832994E+00 a       972     0    49     1    12
 -7.5759649854380200E+00 a       973     0    49     1    13
  3.7288811739082583E+01 a       974     0    49     1    14
  1.8029546663692443E+01 a       975     0    49     1    15
  1.0318643328146251E+01 a       976     0    49     1    16
 -9.5126816158006129E+00 a       977     0    49     1    17
  1.0552441581305535E+01 a       978     0    49     1    18
 -2.1770924565412253E+00 a       979     0    49     1    19
 -1.0868401990570488E+01 a       980     0    49     1    20
  1.0046112362473796E+01 a       981     0    50     1     1
 -2.3552566947387037E+00 a       982     0    50     1     2
 -9.2808845994328752E+00 a       983     0    50     1     3
 -8.9659932050351685E+00 a       984     0    50     1     4
 -7.9640128082971033E+00 a       985     0    50     1     5
 -1.8183942309675178E+00 a       986     0    50     1     6
  2.8833679783934114E+00 a       987     0    50     1     7
  1.5258414153555590E+01 a       988     0    50     1     8
  8.0479301201331221E+00 a       989     0    50     1     9
 -1.9078811319382400E+01 a       990     0    50     1    10
  1.6099121520208077E+00 a       991     0    50     1    11
  1.2414148118931662E+01 a       992     0    50     1    12
  8.9929428298827352E-01 a       993     0    50     1    13
 -1.9474808608524459E+01 a       994     0    50     1    14
 -3.3133320099180188E+00 a       995     0    50     1    15
 -3.0684967850582915E+01 a       996     0    50     1    16
 -3.3160606560191268E+00 a       997     0    50     1    17
  1.6463480246279289E+01 a       998     0    50     1    18
  1.1856701404821814E+00 a       999     0    50     1    19
 -1.1651316808751386E+00 a      1000     0    50     1    20
 -1.4716213298472915E+01 a      1001     0    51     1     1
  1.4419012766924741E+01 a      1002     0    51     1     2
 -2.3809916670408214E+01 a      1003     0    51     1     3
  1.1832999569107320E+01 a      1004     0    51     1     4
 -5.3789665838335454E-01 a      1005     0    51     1     5
  2.1122025324299983E+01 a      1006     0    51     1     6
 -3.4117113308143850E+01 a      1007     0    51     1     7
  1.8644615546967668E+01 a      1008     0    51     1     8
  3.1982441543291369E+01 a      1009     0    51     1     9
  1.2230253782592897E+00 a      1010     0    51     1    10
  1.9243159182161691E+01 a      1011     0    51     1    11
 -1.5206688559452646E+01 a      1012     0    51     1    12
  1.4296190681817441E+01 a      1013     0    51     1    13
  1.8478058685416734E+01 a      1014     0    51     1    14
  2.9966724178028699E+01 a      1015     0    51     1    15
 -1.2913272850355373E+01 a      1016     0    51     1    16
  3.6853813106338542E+00 a      1017     0    51     1    17
  1.7390676109920268E+01 a      1018     0    51     1    18
 -1.7669390761286870E+01 a      1019     0    51     1    19
  6.9630591931114045E+00 a      1020     0    51     1    20
  3.4419365121124614E+00 a      1021     0    52     1     1
 -9.9599682828571829E+00 a      1022     0    52     1     2
 -1.5647659814694142E+01 a      1023     0    52     1     3
  1.0059762871110149E+00 a      1024     0    52     1     4
 -3.1520902542688678E+01 a      1025     0    52     1     5
 -1.8033179793841025E+00 a      1026     0    52     1     6
  3.1118178008732880E+00 a      1027     0    52     1     7
 -4.1529869559578492E+00 a      1028     0    52     1     8
 -9.9435540054267513E+00 a      1029     0    52     1     9
  1.0836566044866965E+01 a      1030     0    52     1    10
  6.3187362424633919E+00 a      1031     0    52     1    11
 -7.7920170437172587E+00 a      1032     0    52     1    12
 -1.3230793065999574E+01 a      1033     0    52     1    13
  1.7804027702794169E+01 a      1034     0    52     1    14
  3.6652753944915966E+00 a      1035     0    52     1    15
  4.0275206699265338E+00 a      1036     0    52     1    16
 -1.9152509662082100E+01 a      1037     0    52     1    17
 -3.1668870219880527E+00 a      1038     0    52     1    18
  3.2763882069907013E-01 a      1039     0    52     1    19
 -6.5518828442448496E-01 a      1040     0    52     1    20
  6.6652314941709383E+00 a      1041     0    53     1     1
 -1.1232276503790489E+01 a      1042     0    53     1     2
 -2.7000694724139771E-02 a      1043     0    53     1     3
 -4.8825366654260609E+00 a      1044     0    53     1     4
  7.8272384065020084E+00 a      1045     0    53     1     5
 -7.2723671988341942E-01 a      1046     0    53     1     6
  4.9885132702847146E-01 a      1047     0    53     1     7
 -1.4072110013578554E-02 a      1048     0    53     1     8
 -3.5541820016103940E+00 a      1049     0    53     1     9
  2.1618188445595699E+01 a      1050     0    53     1    10
  3.9569746217498736E+00 a      1051     0    53     1    11
 -7.1850830356626911E+00 a      1052     0    53     1    12
  1.5810489887565824E+01 a      1053     0    53     1    13
  6.4472140383173819E+00 a      1054     0    53     1    14
 -7.4212044820569538E+00 a      1055     0    53     1    15
 -1.4633413891352429E+01 a      1056     0    53     1    16
 -1.6465875356166698E+01 a      1057     0    53     1    17
 -2.1815547613992308E+01 a      1058     0    53     1    18
 -2.7861620440667401E+00 a      1059     0    53     1    19
 -7.2947665584970522E-01 a      1060     0    53     1    20
 -2.6413168444024082E-02 a      1061     0    54     1     1
  1.2152800670422863E+01 a      1062     0    54     1     2
 -2.2764839824136516E+01 a      1063     0    54     1     3
 -4.9885372322161210E+00 a      1064     0    54     1     4
  3.3136838530760365E+01 a      1065     0    54     1     5
 -1.1809575974765174E+00 a      1066     0    54     1     6
  4.7894812560349376E-01 a      1067     0    54     1     7
  2.1225005111831301E+00 a      1068     0    54     1     8
 -3.4481663341288424E+00 a      1069     0    54     1     9
 -4.1478673823227084E+00 a      1070     0    54     1    10
  1.2832466794793933E+00 a      1071     0    54     1    11
  1.9694170964591684E+01 a      1072     0    54     1    12
 -9.1008071457855415E+00 a      1073     0    54     1    13
  1.7572047382693079E+01 a      1074     0    54     1    14
  1.7886501241954814E-01 a      1075     0    54     1    15
 -1.5147832540363815E+01 a      1076     0    54     1    16
 -2.5495266491629856E+01 a      1077     0    54     1    17
  9.4753672649129292E+00 a      1078     0    54     1    18
  5.7759220005575340E+00 a      1079     0    54     1    19
 -2.9045391756061661E-01 a      1080     0    54     1    20
 -5.7504650873956260E+00 a      1081     0    55     1     1
  4.3000014213811326E+00 a      1082     0    55     1     2
 -1.7282709599114423E+01 a      1083     0    55     1     3
  9.9366917436091171E+00 a      1084     0    55     1     4
  2.4728810555606309E+01 a      1085     0    55     1     5
 -1.4542609704809623E+01 a      1086     0    55     1     6
  1.1918312310699140E+01 a      1087     0    55     1     7
  4.7274374724573946E+01 a      1088     0    55     1     8
 -1.4663594228280493E+01 a      1089     0    55     1     9
 -1.0048291414638243E+01 a      1090     0    55     1    10
  9.8019938486825406E+00 a      1091     0    55     1    11
 -9.9946220079914649E+00 a      1092     0    55     1    12
 -1.6294630384241708E+00 a      1093     0    55     1    13
  1.4837426027781708E+01 a      1094     0    55     1    14
 -3.6691470391914396E+00 a      1095     0    55     1    15
 -2.2400308528083510E+01 a      1096     0    55     1    16
  6.8040381993735988E+00 a      1097     0    55     1    17
  3.4865561335752786E+00 a      1098     0    55     1    18
  2.9207212929357201E+01 a      1099     0    55     1    19
 -3.5706198776971312E+00 a      1100     0    55     1    20
  4.0642321657340972E+00 a      1101     0    56     1     1
 -9.1713976887535313E+00 a      1102     0    56     1     2
 -1.2298441630680726E+01 a      1103     0    56     1     3
 -2.8454654290804093E+00 a      1104     0    56     1     4
 -1.3023276298031577E+01 a      1105     0    56     1     5
 -3.9183208264886678E+00 a      1106     0    56     1     6
  1.9831068806377778E+00 a      1107     0    56     1     7
  1.5306882913387014E+01 a      1108     0    56     1     8
 -1.8881585388938728E+01 a      1109     0    56     1     9
  8.0196375694972524E+00 a      1110     0    56     1    10
  5.1385476818039688E+00 a      1111     0    56     1    11
  7.7700160893689221E+00 a      1112     0    56     1    12
  1.3757705090757938E+01 a      1113     0    56     1    13
 -5.1822192101040185E+00 a      1114     0    56     1    14
  1.7817999328555953E+01 a      1115     0    56     1    15
  4.1328929446236295E+01 a      1116     0    56     1    16
 -7.9435512122412932E+00 a      1117     0    56     1    17
 -1.3834296837515550E+01 a      1118     0    56     1    18
 -1.0196801276466101E+00 a      1119     0    56     1    19
 -1.7873860128874246E+00 a      1120     0    56     1    20
  8.8874862924573357E+00 a      1121     0    57     1     1
  5.9818766927602895E-01 a      1122     0    57     1     2
 -3.1984569665153991E+01 a      1123     0    57     1     3
 -5.7468969801646697E-01 a      1124     0    57     1     4
  1.4095905663991228E+01 a      1125     0    57     1     5
  6.3844054795379774E+00 a      1126     0    57     1     6
 -4.2059865290194267E+00 a      1127     0    57     1     7
  2.8968449384054647E+01 a      1128     0    57     1     8
  3.7098097760610318E+00 a      1129     0    57     1     9
  1.5207730061154200E+01 a      1130     0    57     1    10
  4.4115537183859264E+00 a      1131     0    57     1    11
 -3.3968317753755075E+00 a      1132     0    57     1    12
 -1.0885962438111150E+01 a      1133     0    57     1    13
  3.2907794902280281E+00 a      1134     0    57     1    14
  6.8970019519770016E+00 a      1135     0    57     1    15
  2.8799059981034596E+01 a      1136     0    57     1    16
  2.9723623393037015E+00 a      1137     0    57     1    17
 -1.6457629264701350E+01 a      1138     0    57     1    18
  4.7164493440390682E+00 a      1139     0    57     1    19
  5.0995009605394681E-01 a      1140     0    57     1    20
  6.7224568822134838E+00 a      1141     0    58     1     1
 -1.1728555530333956E+01 a      1142     0    58     1     2
  2.2915069660360945E+01 a      1143     0    58     1     3
  7.7247853557105985E+00 a      1144     0    58     1     4
  1.2878175889319948E+01 a      1145     0    58     1     5
 -1.9484757610660202E+00 a      1146     0    58     1     6
  4.1099827594578011E+00 a      1147     0    58     1     7
  1.6694862315960242E+00 a      1148     0    58     1     8
  1.3276386279021160E+01 a      1149     0    58     1     9
 -8.2920493721364430E+00 a      1150     0    58     1    10
 -4.8413363456578020E+00 a      1151     0    58     1    11
 -3.2847226078970642E+00 a      1152     0    58     1    12
  1.7123825830262842E+00 a      1153     0    58     1    13
 -1.8139020316292196E+01 a      1154     0    58     1    14
  9.7441714783542714E+00 a      1155     0    58     1    15
  8.3753310876000739E+00 a      1156     0    58     1    16
  6.8413398782121755E+00 a      1157     0    58     1    17
  1.9474447871681597E+00 a      1158     0    58     1    18
  3.0226536454108901E+00 a      1159     0    58     1    19
  4.6975844792514234E+00 a      1160     0    58     1    20
 -1.6036258490078953E-01 a      1161     0    59     1     1
 -4.2731833421092169E+00 a      1162     0    59     1     2
 -1.0403703296360598E+01 a      1163     0    59     1     3
  3.8358157770161889E+00 a      1164     0    59     1     4
  1.2965052179503809E+01 a      1165     0    59     1     5
 -3.3061856786548196E+00 a      1166     0    59     1     6
 -2.7962923891121063E+00 a      1167     0    59     1     7
 -7.0015674731397786E+00 a      1168     0    59     1     8
  6.7471601951238958E+00 a      1169     0    59     1     9
 -3.0353335593349628E+00 a      1170     0    59     1    10
 -2.0758056380194132E+00 a      1171     0    59     1    11
 -4.0994983476472386E+00 a      1172     0    59     1    12
  1.7939571009498568E+01 a      1173     0    59     1    13
 -2.4162501772330703E+01 a      1174     0    59     1    14
 -5.0564610815047262E+00 a      1175     0    59     1    15
 -1.0772211282765074E+01 a      1176     0    59     1    16
  6.2154896528419279E+00 a      1177     0    59     1    17
 -2.5158026184834672E+01 a      1178     0    59     1    18
 -2.2259433367260133E+00 a      1179     0    59     1    19
  1.5478989900670213E+00 a      1180     0    59     1    20
  8.1464808122795400E+00 a      1181     0    60     1     1
  5.8618267554793260E+00 a      1182     0    60     1     2
  1.9284392717866048E+00 a      1183     0    60     1     3
 -9.1337487725187266E-02 a      1184     0    60     1     4
  3.1347187912768817E+01 a      1185     0    60     1     5
 -3.6317240272777265E+00 a      1186     0    60     1     6
 -7.1425253539352012E+00 a      1187     0    60     1     7
  1.7873019823337447E+01 a      1188     0    60     1     8
  1.1863948385945063E+01 a      1189     0    60     1     9
 -8.0173205635635758E-01 a      1190     0    60     1    10
 -4.9115238141859701E+00 a      1191     0    60     1    11
  1.9351172867523423E+00 a      1192     0    60     1    12
 -3.1550089966198622E+00 a      1193     0    60     1    13
 -1.2311796931481437E+01 a      1194     0    60     1    14
  1.1885353175907563E+00 a      1195     0    60     1    15
  1.7308656149912593E+00 a      1196     0    60     1    16
 -1.5371754233366111E+01 a      1197     0    60     1    17
 -8.0201416884352010E+00 a      1198     0    60     1    18
 -4.9614307831144133E+00 a      1199     0    60     1    19
  1.2436510019020406E+00 a      1200     0    60     1    20
 -1.5063761577258257E+01 a      1201     0    61     1     1
  1.1985766927590371E+01 a      1202     0    61     1     2
 -2.9573625565051609E+00 a      1203     0    61     1     3
 -7.3519036166937939E+00 a      1204     0    61     1     4
  1.0595680732086700E+01 a      1205     0    61     1     5
 -3.7640039145019979E+00 a      1206     0    61     1     6
 -5.5686830509297884E+00 a      1207     0    61     1     7
  8.6748192047064805E+00 a      1208     0    61     1     8
 -1.4116428207103711E+01 a      1209     0    61     1     9
  6.3501735443863536E+00 a      1210     0    61     1    10
 -6.8426181575189382E-01 a      1211     0    61     1    11
  1.4151562317830587E+01 a      1212     0    61     1    12
 -1.7165491900398153E+00 a      1213     0    61     1    13
 -2.7578263743481568E+01 a      1214     0    61     1    14
 -8.8219761952117111E+00 a      1215     0    61     1    15
 -2.0678345145552864E+01 a      1216     0    61     1    16
  1.3476573551725851E+01 a      1217     0    61     1    17
  4.2713053711638729E+00 a      1218     0    61     1    18
  3.2181973837079196E+00 a      1219     0    61     1    19
  4.8907319926908901E+00 a      1220     0    61     1    20
 -4.6557610808986931E+00 a      1221     0    62     1     1
 -5.0958632919756948E+00 a      1222     0    62     1     2
  1.5872967986720514E+00 a      1223     0    62     1     3
  4.5179600127991764E+00 a      1224     0    62     1     4
  3.4122216731295851E+00 a      1225     0    62     1     5
  6.7241232244957427E-01 a      1226     0    62     1     6
  1.4958700966182508E+00 a      1227     0    62     1     7
 -2.2556756726018516E+00 a      1228     0    62     1     8
  7.3852036197665227E-02 a      1229     0    62     1     9
  1.0804172780989145E+01 a      1230     0    62     1    10
 -5.8105586730201764E-01 a      1231     0    62     1    11
 -6.8632632793937756E+00 a      1232     0    62     1    12
  1.3191178784726953E+01 a      1233     0    62     1    13
  5.6034142913253309E+00 a      1234     0    62     1    14
  1.0462850036943439E+00 a      1235     0    62     1    15
  1.3936266803382379E+01 a      1236     0    62     1    16
 -1.5377810750262411E+01 a      1237     0    62     1    17
 -9.1948916193648973E+00 a      1238     0    62     1    18
 -5.5547204115605524E+00 a      1239     0    62     1    19
  7.5846505333588898E-01 a      1240     0    62     1    20
  7.2920813298303191E+00 a      1241     0    63     1     1
 -1.8860587025249419E+01 a      1242     0    63     1     2
  5.0801891275672713E+00 a      1243     0    63     1     3
 -5.4854196424269173E+00 a      1244     0    63     1     4
  8.2540581750311066E+00 a      1245     0    63     1     5
 -8.6491708374980085E+00 a      1246     0    63     1     6
  1.3548900672346774E+01 a      1247     0    63     1     7
 -7.5468621526901964E+00 a      1248     0    63     1     8
 -1.2580632244184603E+01 a      1249     0    63     1     9
 -8.4883459084998947E-01 a      1250     0    63     1    10
 -8.7676648669589206E+00 a      1251     0    63     1    11
  1.8593883395318500E+01 a      1252     0    63     1    12
  4.4401722490435285E+00 a      1253     0    63     1    13
 -1.8528166684214092E+01 a      1254     0    63     1    14
 -2.0475604458690672E+01 a      1255     0    63     1    15
 -7.0858360023849389E+00 a      1256     0    63     1    16
 -7.1470233678314390E+00 a      1257     0    63     1    17
 -2.0134232752120312E+01 a      1258     0    63     1    18
  3.5098004321175615E+00 a      1259     0    63     1    19
 -2.8323337821036989E+00 a      1260     0    63     1    20
 -5.7394671487254572E+00 a      1261     0    64     1     1
 -8.3152541097367259E+00 a      1262     0    64     1     2
 -1.8225838174759915E+01 a      1263     0    64     1     3
 -6.4123848949545215E+00 a      1264     0    64     1     4
 -6.6821450901027699E+00 a      1265     0    64     1     5
  8.4863995848532969E-01 a      1266     0    64     1     6
 -1.7567131396687721E+00 a      1267     0    64     1     7
  1.9405795591482897E+00 a      1268     0    64     1     8
 -7.5434273494646416E+00 a      1269     0    64     1     9
 -5.1626569269119138E-01 a      1270     0    64     1    10
  2.0305246095691523E+00 a      1271     0    64     1    11
  4.3863691406544136E+00 a      1272     0    64     1    12
  8.5202282662072424E+00 a      1273     0    64     1    13
  1.3665718593700666E+01 a      1274     0    64     1    14
  7.5366075190781618E+00 a      1275     0    64     1    15
  9.7589718101545504E+00 a      1276     0    64     1    16
  1.9336236885542178E+01 a      1277     0    64     1    17
 -1.5477029271476058E+01 a      1278     0    64     1    18
 -1.0000197741480317E+01 a      1279     0    64     1    19
 -4.9864566533060373E+00 a      1280     0    64     1    20
  8.0924581327443779E+00 a      1281     0    65     1     1
 -1.7147462032828847E-01 a      1282     0    65     1     2
 -3.6279883367999757E+00 a      1283     0    65     1     3
 -4.8377792654590204E+00 a      1284     0    65     1     4
 -2.0497015134486137E+01 a      1285     0    65     1     5
  2.3595395361782314E+00 a      1286     0    65     1     6
  1.9812155185117394E-01 a      1287     0    65     1     7
 -8.3158133099580791E+00 a      1288     0    65     1     8
 -3.8535341213289813E+00 a      1289     0    65     1     9
  6.4621014001869188E+00 a      1290     0    65     1    10
 -3.6078341632625488E+00 a      1291     0    65     1    11
  7.4703105985910900E+00 a      1292     0    65     1    12
 -9.2610508380204082E-01 a      1293     0    65     1    13
  8.7064072998474042E+00 a      1294     0    65     1    14
  1.2584719911564623E+01 a      1295     0    65     1    15
 -1.4685473051754217E+01 a      1296     0    65     1    16
  1.1110861034797274E+01 a      1297     0    65     1    17
  1.6604018551862744E+01 a      1298     0    65     1    18
 -5.3231652977898074E+00 a      1299     0    65     1    19
 -1.7085012560890218E+00 a      1300     0    65     1    20
  1.0683995891636576E+01 a      1301     0    66     1     1
  2.6359302050996906E+01 a      1302     0    66     1     2
  2.2209388682488918E-01 a      1303     0    66     1     3
 -2.2609161329547183E+00 a      1304     0    66     1     4
 -2.9225986034419305E-01 a      1305     0    66     1     5
  8.1609231247530878E-01 a      1306     0    66     1     6
  1.0313961088318866E+01 a      1307     0    66     1     7
  6.4249918560963231E+00 a      1308     0    66     1     8
  4.0340798217192111E+00 a      1309     0    66     1     9
  6.2971934266546121E+00 a      1310     0    66     1    10
 -1.3445795310897105E-01 a      1311     0    66     1    11
  1.2500250074340286E+01 a      1312     0    66     1    12
 -4.6977297087740739E+00 a      1313     0    66     1    13
  8.5483180038840345E+00 a      1314     0    66     1    14
  1.1143897320101248E+01 a      1315     0    66     1    15
 -5.6784655505002464E+00 a      1316     0    66     1    16
  1.0589731959296593E+01 a      1317     0    66     1    17
  4.9823798040686818E+00 a      1318     0    66     1    18
 -5.0361128075925041E+00 a      1319     0    66     1    19
 -7.0537265584054665E-01 a      1320     0    66     1    20
  1.9631505924399740E+01 a      1321     0    67     1     1
 -3.8495787443955161E+00 a      1322     0    67     1     2
 -7.3066582940738933E-01 a      1323     0    67     1     3
  7.7589262058709592E+00 a      1324     0    67     1     4
 -8.5728347116701862E+00 a      1325     0    67     1     5
  3.9846164041553376E+00 a      1326     0    67     1     6
 -1.8732974581209844E-02 a      1327     0    67     1     7
 -4.9222024614246056E+00 a      1328     0    67     1     8
  1.3089781976634219E+01 a      1329     0    67     1     9
 -4.7337741965051121E+00 a      1330     0    67     1    10
 -7.1546129676183012E+00 a      1331     0    67     1    11
  3.1702419568726818E+01 a      1332     0    67     1    12
 -2.8170203705340018E+01 a      1333     0    67     1    13
  1.3653706075297363E+01 a      1334     0    67     1    14
  2.7893112015097838E+01 a      1335     0    67     1    15
 -8.0777742685355420E+00 a      1336     0    67     1    16
  4.3666622691347454E+00 a      1337     0    67     1    17
  2.3409333482589261E+01 a      1338     0    67     1    18
  1.6314723856853814E+00 a      1339     0    67     1    19
 -4.7501429332521923E+00 a      1340     0    67     1    20
  1.1401013741065661E+01 a      1341     0    68     1     1
  2.1625283456018098E+00 a      1342     0    68     1     2
 -3.2008162331623105E+00 a      1343     0    68     1     3
 -7.3158941400561108E+00 a      1344     0    68     1     4
 -2.0713846765818797E+01 a      1345     0    68     1     5
 -2.0225950182210419E+00 a      1346     0    68     1     6
  5.0533492444302093E+00 a      1347     0    68     1     7
  1.2874351103307612E+01 a      1348     0    68     1     8
  5.2779539797825485E+00 a      1349     0    68     1     9
  3.3499171439926219E+00 a      1350     0    68     1    10
 -1.2182158024524461E+00 a      1351     0    68     1    11
  5.5035447207067305E+00 a      1352     0    68     1    12
  1.0728248974825162E+01 a      1353     0    68     1    13
 -8.5625970160721163E+00 a      1354     0    68     1    14
 -5.3725537470164095E+00 a      1355     0    68     1    15
  1.0919407105128530E+01 a      1356     0    68     1    16
 -6.6508639736594501E+00 a      1357     0    68     1    17
  5.8676382443602328E+00 a      1358     0    68     1    18
 -5.8077784532100836E+00 a      1359     0    68     1    19
 -6.0133760141618819E-01 a      1360     0    68     1    20
  1.5741519091168673E+01 a      1361     0    69     1     1
  4.2482639542314971E+00 a      1362     0    69     1     2
 -2.6985728951839212E+00 a      1363     0    69     1     3
  5.2965654638125006E+00 a      1364     0    69     1     4
 -9.5873231656479359E+00 a      1365     0    69     1     5
  1.4250583424572572E+01 a      1366     0    69     1     6
 -6.7178098710409255E+00 a      1367     0    69     1     7
  8.3798289168481404E+00 a      1368     0    69     1     8
  2.2773936193646829E+01 a      1369     0    69     1     9
  2.3180554376597581E+01 a      1370     0    69     1    10
  9.1205403051419207E+00 a      1371     0    69     1    11
 -2.4508290437378285E+01 a      1372     0    69     1    12
 -1.1982206040141200E+01 a      1373     0    69     1    13
  1.0195028940889925E+01 a      1374     0    69     1    14
 -2.3657631165930995E+00 a      1375     0    69     1    15
 -1.4683584989601869E+01 a      1376     0    69     1    16
 -2.4844672064944628E+01 a      1377     0    69     1    17
 -8.1525500310170216E+00 a      1378     0    69     1    18
 -1.9607685007992217E+01 a      1379     0    69     1    19
  4.0481903919290412E+00 a      1380     0    69     1    20
  4.2494666768507079E+00 a      1381     0    70     1     1
 -1.0105725358415818E+01 a      1382     0    70     1     2
  2.3745079174691476E+01 a      1383     0    70     1     3
  9.7035607261742669E+00 a      1384     0    70     1     4
  1.9015374165639223E+01 a      1385     0    70     1     5
 -6.6205612444240725E-01 a      1386     0    70     1     6
  9.6174031688041861E+00 a      1387     0    70     1     7
 -8.7813367802198865E+00 a      1388     0    70     1     8
  1.6372915746681439E+01 a      1389     0    70     1     9
 -8.9120233151514350E-02 a      1390     0    70     1    10
 -3.9953762798658303E+00 a      1391     0    70     1    11
 -1.3653167230696610E+00 a      1392     0    70     1    12
  6.3759693136266211E+00 a      1393     0    70     1    13
 -1.1913532872432807E+01 a      1394     0    70     1    14
  5.1595987592289827E+00 a      1395     0    70     1    15
 -1.4400586847533903E+01 a      1396     0    70     1    16
 -2.8055413150504393E+01 a      1397     0    70     1    17
  2.8839886664035248E+01 a      1398     0    70     1    18
  1.5144347808388170E+01 a      1399     0    70     1    19
  7.3771957458430455E+00 a      1400     0    70     1    20
 -1.1094228856049256E+01 a      1401     0    71     1     1
 -1.2596484411472231E+01 a      1402     0    71     1     2
 -5.9904983883725533E+00 a      1403     0    71     1     3
  5.6494059644696355E+00 a      1404     0    71     1     4
  3.0787234644403050E+01 a      1405     0    71     1     5
 -3.7446594502917923E+00 a      1406     0    71     1     6
  5.6570671474237022E-01 a      1407     0    71     1     7
 -1.0942555915150454E+01 a      1408     0    71     1     8
  7.6431395687489534E+00 a      1409     0    71     1     9
 -7.8052922764157735E+00 a      1410     0    71     1    10
  4.6197796667701567E+00 a      1411     0    71     1    11
 -7.7748468126552277E+00 a      1412     0    71     1    12
 -1.2303973465616933E+00 a      1413     0    71     1    13
 -2.2056352567434612E+01 a      1414     0    71     1    14
 -2.1024034538249321E+01 a      1415     0    71     1    15
 -3.8293612934494288E+00 a      1416     0    71     1    16
 -9.8980374889173088E+00 a      1417     0    71     1    17
 -3.9850316886271337E+01 a      1418     0    71     1    18
  3.7856334185981488E+00 a      1419     0    71     1    19
  2.6313609183594733E+00 a      1420     0    71     1    20
 -1.0196709978501090E+01 a      1421     0    72     1     1
 -1.4695414266903516E+01 a      1422     0    72     1     2
 -1.9026070539942406E+01 a      1423     0    72     1     3
  2.0639518794100873E+00 a      1424     0    72     1     4
  3.7274676727120934E+01 a      1425     0    72     1     5
  1.1736110349140718E+00 a      1426     0    72     1     6
 -1.8426701500950223E+01 a      1427     0    72     1     7
 -6.1486214142820863E+00 a      1428     0    72     1     8
 -2.4975824977598458E+00 a      1429     0    72     1     9
 -8.1117785290288982E+00 a      1430     0    72     1    10
 -7.7473277814114627E-01 a      1431     0    72     1    11
 -7.1786755813308218E+00 a      1432     0    72     1    12
  9.3083252338355482E+00 a      1433     0    72     1    13
 -1.4131042329911971E+01 a      1434     0    72     1    14
 -3.2464430323981844E+01 a      1435     0    72     1    15
 -9.0470977806503594E+00 a      1436     0    72     1    16
 -1.4699581601960920E+01 a      1437     0    72     1    17
 -1.1389730389575615E+01 a      1438     0    72     1    18
  6.2346387792454987E+00 a      1439     0    72     1    19
  2.3260204602404997E+00 a      1440     0    72     1    20
 -4.8420073773637299E+01 a      1441     0    73     1     1
  1.0549282114761205E+01 a      1442     0    73     1     2
 -2.1138862586286329E+01 a      1443     0    73     1     3
 -1.1650226141911322E+01 a      1444     0    73     1     4
  7.7853072126341614E+00 a      1445     0    73     1     5
 -6.7932907721241582E+00 a      1446     0    73     1     6
  3.1286049980529134E+00 a      1447     0    73     1     7
  1.1796356114765459E+01 a      1448     0    73     1     8
 -1.7136259179834813E+01 a      1449     0    73     1     9
 -1.3930207263960853E+01 a      1450     0    73     1    10
  8.6106613349358643E+00 a      1451     0    73     1    11
 -2.4530071392548393E+01 a      1452     0    73     1    12
  1.4064563251534148E+00 a      1453     0    73     1    13
 -2.4943848258568647E+01 a      1454     0    73     1    14
 -3.2234771728403729E+01 a      1455     0    73     1    15
 -6.6033519269969121E+00 a      1456     0    73     1    16
 -3.4761764772378649E+00 a      1457     0    73     1    17
 -3.1587025492110882E+01 a      1458     0    73     1    18
  7.8468629121969391E-04 a      1459     0    73     1    19
  7.9938708500102544E+00 a      1460     0    73     1    20
 -8.6756924137489957E+00 a      1461     0    74     1     1
 -8.6059527200813317E+00 a      1462     0    74     1     2
 -7.3765761803029184E+00 a      1463     0    74     1     3
  1.0706656723030671E+01 a      1464     0    74     1     4
  2.5330722347949251E+01 a      1465     0    74     1     5
  5.0289290186916880E+00 a      1466     0    74     1     6
 -6.1787473827376393E+00 a      1467     0    74     1     7
 -3.1952752398948171E+01 a      1468     0    74     1     8
 -8.0829389801763050E+00 a      1469     0    74     1     9
 -6.9815057038960120E+00 a      1470     0    74     1    10
  1.9904528756253870E+00 a      1471     0    74     1    11
 -1.9475445297898155E+01 a      1472     0    74     1    12
 -1.4846425707942355E+01 a      1473     0    74     1    13
  1.3934209294502853E+01 a      1474     0    74     1    14
 -3.0172503163381097E+00 a      1475     0    74     1    15
 -1.3221195185480083E+01 a      1476     0    74     1    16
 -1.1006571801152912E+01 a      1477     0    74     1    17
 -1.6751726300739307E+01 a      1478     0    74     1    18
  2.7445107921081218E+00 a      1479     0    74     1    19
  1.5404118752880047E+00 a      1480     0    74     1    20
 -1.8013814062348146E+01 a      1481     0    75     1     1
 -8.1597913745350272E+00 a      1482     0    75     1     2
 -8.9578840999033655E+00 a      1483     0    75     1     3
 -6.2786849847266302E+00 a      1484     0    75     1     4
  3.1641692321017345E+01 a      1485     0    75     1     5
 -1.9824132767485025E+01 a      1486     0    75     1     6
  9.4606247121640727E+00 a      1487     0    75     1     7
 -2.5515794298465110E+01 a      1488     0    75     1     8
 -2.5829781550803691E+01 a      1489     0    75     1     9
 -2.0078524181363331E+01 a      1490     0    75     1    10
 -1.4591607060737836E+01 a      1491     0    75     1    11
  6.4997759329192021E+01 a      1492     0    75     1    12
  9.5726007455823243E+00 a      1493     0    75     1    13
 -1.7619978242969314E+01 a      1494     0    75     1    14
 -8.2384207119510826E+00 a      1495     0    75     1    15
  1.2037262745093544E+01 a      1496     0    75     1    16
  3.8436604765233326E+01 a      1497     0    75     1    17
 -2.0174934540847801E+01 a      1498     0    75     1    18
  2.4344760025994738E+01 a      1499     0    75     1    19
 -6.5556693499470740E+00 a      1500     0    75     1    20
 -1.4067240898891256E+00 a      1501     0    76     1     1
  8.5180021152709227E+00 a      1502     0    76     1     2
  1.5955000493866670E+01 a      1503     0    76     1     3
 -2.5025108294271747E-01 a      1504     0    76     1     4
  3.3227325335216307E+01 a      1505     0    76     1     5
  1.9541106992865318E+00 a      1506     0    76     1     6
 -4.4211691062747915E+00 a      1507     0    76     1     7
  1.5597791084272815E+01 a      1508     0    76     1     8
  7.4724842585102689E+00 a      1509     0    76     1     9
 -9.4266626195177210E+00 a      1510     0    76     1    10
 -5.3961062172390051E+00 a      1511     0    76     1    11
  6.9582809652691733E+00 a      1512     0    76     1    12
  2.8290756638675263E+00 a      1513     0    76     1    13
 -1.6652247858938598E+01 a      1514     0    76     1    14
 -7.0892725080277650E+00 a      1515     0    76     1    15
 -4.3416718879225673E+00 a      1516     0    76     1    16
  4.3715988511968220E+00 a      1517     0    76     1    17
 -6.5888320745557429E+00 a      1518     0    76     1    18
  2.5364303473360690E+00 a      1519     0    76     1    19
  1.3176052054804657E+00 a      1520     0    76     1    20
 -4.6531833134619900E+00 a      1521     0    77     1     1
  6.8550717450596430E+00 a      1522     0    77     1     2
  2.2359111537431984E+00 a      1523     0    77     1     3
  3.5253266286873384E+00 a      1524     0    77     1     4
 -3.6798595823210314E+00 a      1525     0    77     1     5
  3.2487224709350881E-01 a      1526     0    77     1     6
 -1.2778304206148694E+00 a      1527     0    77     1     7
  7.6202405042782129E+00 a      1528     0    77     1     8
  1.0801641259538797E+00 a      1529     0    77     1     9
 -1.8300123220146400E+01 a      1530     0    77     1    10
 -2.4749389891646243E+00 a      1531     0    77     1    11
  4.8003145602296682E+00 a      1532     0    77     1    12
 -9.1638191576312842E+00 a      1533     0    77     1    13
 -5.9158392583791883E+00 a      1534     0    77     1    14
  3.8295781537607398E+00 a      1535     0    77     1    15
  1.1143783107489449E+01 a      1536     0    77     1    16
  1.0042466936532934E+01 a      1537     0    77     1    17
  1.1124933194694313E+01 a      1538     0    77     1    18
  4.4838928311773865E+00 a      1539     0    77     1    19
  1.1255802544219282E+00 a      1540     0    77     1    20
 -3.1724864825411472E+00 a      1541     0    78     1     1
 -1.1778728604931006E+01 a      1542     0    78     1     2
  1.5637189941382331E+01 a      1543     0    78     1     3
  4.1461390822340052E+00 a      1544     0    78     1     4
 -1.6357857099507338E+01 a      1545     0    78     1     5
  1.5727969122534699E-01 a      1546     0    78     1     6
 -1.9916048241407431E+00 a      1547     0    78     1     7
 -9.0819257785615615E-02 a      1548     0    78     1     8
 -1.1201204116874575E+00 a      1549     0    78     1     9
 -5.6553314659850029E+00 a      1550     0    78     1    10
 -9.1428181757710880E-01 a      1551     0    78     1    11
 -9.3656366131702171E+00 a      1552     0    78     1    12
  9.0737169877600046E+00 a      1553     0    78     1    13
 -1.1655821168445691E+01 a      1554     0    78     1    14
 -2.5247647543080114E+00 a      1555     0    78     1    15
  6.9518501675775211E+00 a      1556     0    78     1    16
  1.3243405449615985E+01 a      1557     0    78     1    17
 -1.3350930910456849E+01 a      1558     0    78     1    18
  5.6812553193182358E-01 a      1559     0    78     1    19
  3.1644656000459370E-01 a      1560     0    78     1    20
 -7.0621815146586486E-01 a      1561     0    79     1     1
 -1.4317201587771381E+01 a      1562     0    79     1     2
  7.4622021891683818E+00 a      1563     0    79     1     3
 -6.9457368126005194E+00 a      1564     0    79     1     4
 -2.2519447721834549E+01 a      1565     0    79     1     5
  7.8052455189421668E+00 a      1566     0    79     1     6
 -8.7245052188075114E+00 a      1567     0    79     1     7
 -2.3805453411322230E+01 a      1568     0    79     1     8
 -2.7414295632944197E+00 a      1569     0    79     1     9
  1.2045312038194542E+01 a      1570     0    79     1    10
 -4.4839491143045800E+00 a      1571     0    79     1    11
  2.5040595923128732E+00 a      1572     0    79     1    12
  1.1958936328423146E+01 a      1573     0    79     1    13
 -1.1850720775268300E+01 a      1574     0    79     1    14
 -1.2275267160228353E+01 a      1575     0    79     1    15
  1.1061684288675826E+01 a      1576     0    79     1    16
 -2.2829374585921705E+01 a      1577     0    79     1    17
 -1.2797144831411705E+01 a      1578     0    79     1    18
 -1.3282485487236158E+01 a      1579     0    79     1    19
  2.8416401411618093E+00 a      1580     0    79     1    20
 -2.4038374655434187E+00 a      1581     0    80     1     1
  1.4056589103227532E+01 a      1582     0    80     1     2
  1.0308516613610017E+01 a      1583     0    80     1     3
  3.1170404632194106E+00 a      1584     0    80     1     4
  1.4204982893251461E+01 a      1585     0    80     1     5
  3.0638624191256310E+00 a      1586     0    80     1     6
 -1.3134162108706615E+00 a      1587     0    80     1     7
 -1.4243793906038006E+01 a      1588     0    80     1     8
  5.4484038370789731E+00 a      1589     0    80     1     9
 -1.0198763470506492E+01 a      1590     0    80     1    10
 -3.6533175784819378E+00 a      1591     0    80     1    11
 -5.1098709945850018E+00 a      1592     0    80     1    12
 -1.4302465086950075E+01 a      1593     0    80     1    13
  4.6052491703738037E+00 a      1594     0    80     1    14
 -8.2480494414528263E+00 a      1595     0    80     1    15
 -3.1227099836132606E+01 a      1596     0    80     1    16
  1.6804954607805854E+01 a      1597     0    80     1    17
  4.7850882491958577E+00 a      1598     0    80     1    18
  4.1413624742609203E+00 a      1599     0    80     1    19
  1.5802083342514879E+00 a      1600     0    80     1    20
 -1.2270126304951228E+01 a      1601     0    81     1     1
  2.7729643283324763E+00 a      1602     0    81     1     2
  2.9128611816574466E+01 a      1603     0    81     1     3
 -1.4784579979823980E+00 a      1604     0    81     1     4
 -1.5202087181483764E+01 a      1605     0    81     1     5
 -4.6087722806245255E+00 a      1606     0    81     1     6
  3.4303482496160211E+00 a      1607     0    81     1     7
 -1.3771698127615075E+01 a      1608     0    81     1     8
 -8.8246305196727661E+00 a      1609     0    81     1     9
 -2.6266872348478923E+01 a      1610     0    81     1    10
 -5.8053931065256794E+00 a      1611     0    81     1    11
  3.2911028704701536E+01 a      1612     0    81     1    12
  1.7698822786696706E+00 a      1613     0    81     1    13
 -1.8535552587410988E+00 a      1614     0    81     1    14
 -3.5946863353588969E+00 a      1615     0    81     1    15
 -1.0711607862030950E+01 a      1616     0    81     1    16
  8.2847635908986916E+00 a      1617     0    81     1    17
  1.5817725338527573E+01 a      1618     0    81     1    18
  9.1050221424761162E+00 a      1619     0    81     1    19
 -5.8335904546205142E-01 a      1620     0    81     1    20
  5.4969425911636547E+00 a      1621     0    82     1     1
  9.7634917113773412E+00 a      1622     0    82     1     2
 -2.1057873975624311E+01 a      1623     0    82     1     3
