################################################################################
# Neural network connection values (weights and biases).
################################################################################
# Col  Name       Description
################################################################################
# 1    connection Neural network connection value.
# 2    t          Connection type (a = weight, b = bias).
# 3    index      Index enumerating weights.
# 4    l_s        Starting point layer (end point layer for biases).
# 5    n_s        Starting point neuron in starting layer (end point neuron for biases).
# 6    l_e        End point layer.
# 7    n_e        End point neuron in end layer.
################################################################################
#                      1 2         3     4     5     6     7
#             connection t     index   l_s   n_s   l_e   n_e
############################################################
 -1.4776318950263130E+01 a         1     0     1     1     1
 -1.0736780582967825E+01 a         2     0     1     1     2
  3.6032129373857899E+01 a         3     0     1     1     3
 -1.2606557861018958E+01 a         4     0     1     1     4
  3.9810800258965322E+01 a         5     0     1     1     5
 -9.3316020701165892E-01 a         6     0     1     1     6
 -4.5840074716138401E+00 a         7     0     1     1     7
 -1.1632958018670971E+01 a         8     0     1     1     8
 -2.4029874026323490E+01 a         9     0     1     1     9
  1.7017360289979699E+01 a        10     0     1     1    10
  1.0650602677246237E+01 a        11     0     1     1    11
 -1.3684255798953444E+01 a        12     0     1     1    12
  8.8492151185151027E+00 a        13     0     1     1    13
 -3.9419212052884642E+00 a        14     0     1     1    14
 -1.0839734785964104E+01 a        15     0     1     1    15
  9.2559834866132107E+00 a        16     0     1     1    16
  2.5225282936493926E+01 a        17     0     1     1    17
 -1.0298894648282403E+01 a        18     0     1     1    18
  1.0090101481622375E+01 a        19     0     1     1    19
  1.8247378346812821E+00 a        20     0     1     1    20
 -2.7373697309551659E+01 a        21     0     2     1     1
 -7.4221474303438386E+00 a        22     0     2     1     2
  2.0056896906457261E+01 a        23     0     2     1     3
 -1.5960951134466418E+01 a        24     0     2     1     4
  4.9420916211662252E+01 a        25     0     2     1     5
 -1.7731510735502807E+00 a        26     0     2     1     6
 -3.8043043458671209E+00 a        27     0     2     1     7
 -1.3769528328619517E+01 a        28     0     2     1     8
 -1.0235626265935416E+01 a        29     0     2     1     9
  4.6899078893999828E+00 a        30     0     2     1    10
  1.4629126217769594E+01 a        31     0     2     1    11
 -1.3465596984774377E+01 a        32     0     2     1    12
  8.5999096510129505E+00 a        33     0     2     1    13
  3.5070518174182969E-02 a        34     0     2     1    14
 -5.4308984247205956E+00 a        35     0     2     1    15
  1.1416760738362630E+01 a        36     0     2     1    16
  1.9331935280408402E+01 a        37     0     2     1    17
  1.1708343331243578E+01 a        38     0     2     1    18
  5.6400382549591948E+00 a        39     0     2     1    19
  7.7601762032350923E+00 a        40     0     2     1    20
 -6.9716086932272843E+00 a        41     0     3     1     1
  1.8723017286763013E+00 a        42     0     3     1     2
  1.7805466975577268E+01 a        43     0     3     1     3
 -8.3938916990732899E+00 a        44     0     3     1     4
  3.0339473850556484E+01 a        45     0     3     1     5
  7.4634518747022147E+00 a        46     0     3     1     6
 -7.4735687983313852E+00 a        47     0     3     1     7
 -1.2060719489471266E+01 a        48     0     3     1     8
 -1.3277572665684799E+01 a        49     0     3     1     9
  1.3967007119793555E+01 a        50     0     3     1    10
  1.3354821789527884E+01 a        51     0     3     1    11
 -1.3026609020356338E+01 a        52     0     3     1    12
  9.0500280742267947E+00 a        53     0     3     1    13
  6.6731928507842744E+00 a        54     0     3     1    14
 -1.8691915927422915E+01 a        55     0     3     1    15
 -8.0980758937471842E-01 a        56     0     3     1    16
  2.0115463356534917E+01 a        57     0     3     1    17
 -8.7587880108023750E+00 a        58     0     3     1    18
  2.1062818502784609E+01 a        59     0     3     1    19
  5.9231513763707397E+00 a        60     0     3     1    20
  2.4627322587523938E+01 a        61     0     4     1     1
  1.7094854673645820E+01 a        62     0     4     1     2
 -8.8404623932790827E+01 a        63     0     4     1     3
  2.3249729167296060E+01 a        64     0     4     1     4
 -7.8517045850415371E+01 a        65     0     4     1     5
 -8.3845323721291436E+00 a        66     0     4     1     6
  1.1871875751276022E+01 a        67     0     4     1     7
  1.2147191529970538E+01 a        68     0     4     1     8
  3.6706072782772779E+01 a        69     0     4     1     9
 -2.0683654755743401E+01 a        70     0     4     1    10
 -2.1719528749372259E+01 a        71     0     4     1    11
  1.4839859138833452E+01 a        72     0     4     1    12
 -3.0345928949906263E+01 a        73     0     4     1    13
 -1.2078103464648709E+01 a        74     0     4     1    14
  1.5643560747458551E+01 a        75     0     4     1    15
 -1.4506291314686887E+01 a        76     0     4     1    16
 -5.9773142041958820E+01 a        77     0     4     1    17
  9.7564504913313819E+00 a        78     0     4     1    18
 -2.0734700192588711E+01 a        79     0     4     1    19
  5.9422594631493961E+00 a        80     0     4     1    20
  3.2378454918414967E+01 a        81     0     5     1     1
 -4.1280755998634282E+00 a        82     0     5     1     2
 -5.7632826703330828E+01 a        83     0     5     1     3
  1.5108426025329294E+01 a        84     0     5     1     4
 -9.1609264915877787E+01 a        85     0     5     1     5
 -7.8726525520016448E+00 a        86     0     5     1     6
  9.1591802270888927E+00 a        87     0     5     1     7
  1.4092377764627871E+01 a        88     0     5     1     8
 -7.4725179911821540E+00 a        89     0     5     1     9
  1.0119639185304329E+01 a        90     0     5     1    10
 -1.5653457765776368E+01 a        91     0     5     1    11
  1.3823357439043310E+01 a        92     0     5     1    12
 -2.6779357771452403E+01 a        93     0     5     1    13
 -1.0105466247405790E+01 a        94     0     5     1    14
  5.9463423384512177E+00 a        95     0     5     1    15
 -1.3604712896804891E+01 a        96     0     5     1    16
 -3.6902383832696934E+01 a        97     0     5     1    17
 -2.5951180161989143E+01 a        98     0     5     1    18
 -1.0847742110673201E+01 a        99     0     5     1    19
 -3.7205290262451371E+00 a       100     0     5     1    20
  1.0463735647074873E+01 a       101     0     6     1     1
  1.8349743417440878E-01 a       102     0     6     1     2
 -5.5785503871371681E+01 a       103     0     6     1     3
  8.0731601422159542E+00 a       104     0     6     1     4
 -5.9894012557956124E+01 a       105     0     6     1     5
 -1.5828539405129401E+01 a       106     0     6     1     6
  1.8339366696124287E+01 a       107     0     6     1     7
  1.0992080657490838E+01 a       108     0     6     1     8
  6.1128945192230981E+00 a       109     0     6     1     9
 -2.7078278689891437E+01 a       110     0     6     1    10
 -2.7376252930413273E+01 a       111     0     6     1    11
  7.3486001768724787E+00 a       112     0     6     1    12
 -3.1681936750762471E+01 a       113     0     6     1    13
 -3.5174848831904427E+01 a       114     0     6     1    14
  3.4786851667038000E+01 a       115     0     6     1    15
  2.0682283982440019E+01 a       116     0     6     1    16
 -4.1333429670295224E+01 a       117     0     6     1    17
  2.4318479454719473E+01 a       118     0     6     1    18
 -5.8828999814377688E+01 a       119     0     6     1    19
  2.8079941643891129E+00 a       120     0     6     1    20
 -1.8363202265085622E+01 a       121     0     7     1     1
 -1.4740051759312904E+00 a       122     0     7     1     2
  8.4771134655484772E+01 a       123     0     7     1     3
 -4.8027584767342297E+01 a       124     0     7     1     4
  6.6129717454091448E+01 a       125     0     7     1     5
  2.7830538655940334E+01 a       126     0     7     1     6
 -1.2880351074296307E+01 a       127     0     7     1     7
 -5.7130703885594150E+00 a       128     0     7     1     8
 -1.4934959960988817E+01 a       129     0     7     1     9
 -9.1576328102757056E+00 a       130     0     7     1    10
  9.4028499776147321E+00 a       131     0     7     1    11
 -7.1838366994939289E+00 a       132     0     7     1    12
  3.1602794375306392E+01 a       133     0     7     1    13
  1.2345811675652996E+01 a       134     0     7     1    14
  4.1436987438166790E+00 a       135     0     7     1    15
  1.1428150957309684E+01 a       136     0     7     1    16
  3.9174806693360544E+01 a       137     0     7     1    17
  1.3362179804648625E-01 a       138     0     7     1    18
 -2.8602686330836626E+01 a       139     0     7     1    19
 -7.0471936997219631E+00 a       140     0     7     1    20
 -2.7877952855424379E+01 a       141     0     8     1     1
  2.9969304583448256E+01 a       142     0     8     1     2
  5.5215174256763426E+01 a       143     0     8     1     3
 -2.7060809374975484E+01 a       144     0     8     1     4
  7.3959785875040851E+01 a       145     0     8     1     5
  2.5010880914856539E+01 a       146     0     8     1     6
 -1.0450247664260626E+01 a       147     0     8     1     7
 -6.7835127084021138E+00 a       148     0     8     1     8
  6.9779788000880993E-01 a       149     0     8     1     9
 -3.9768545258685735E+00 a       150     0     8     1    10
  1.1278777175649792E+00 a       151     0     8     1    11
 -8.0414137160549970E+00 a       152     0     8     1    12
  2.7142693615563534E+01 a       153     0     8     1    13
  9.5421191671305099E+00 a       154     0     8     1    14
  5.9312224617342970E+00 a       155     0     8     1    15
  1.3957566011435349E+01 a       156     0     8     1    16
 -7.0798808974380982E+00 a       157     0     8     1    17
  3.2481585721079185E+01 a       158     0     8     1    18
 -9.1655342635686079E+00 a       159     0     8     1    19
 -3.3465145234150127E+00 a       160     0     8     1    20
  4.7295036283958491E-01 a       161     0     9     1     1
  1.1981669678518609E+01 a       162     0     9     1     2
  6.3143632248048270E+01 a       163     0     9     1     3
 -3.6212375369763066E+01 a       164     0     9     1     4
  3.7384864270283586E+01 a       165     0     9     1     5
  3.9907060577031483E+00 a       166     0     9     1     6
 -1.9477594724179120E+01 a       167     0     9     1     7
 -2.0354569679599424E+00 a       168     0     9     1     8
 -6.4301643640254245E+00 a       169     0     9     1     9
  1.4637963667585865E+01 a       170     0     9     1    10
  1.1299022064838198E+01 a       171     0     9     1    11
  1.8552105006834780E+00 a       172     0     9     1    12
  3.1032422450596687E+01 a       173     0     9     1    13
  3.5404379061395709E+01 a       174     0     9     1    14
 -2.0075195829729747E+01 a       175     0     9     1    15
 -1.9002826743881851E+01 a       176     0     9     1    16
  2.6682677418447707E+00 a       177     0     9     1    17
 -2.9188454951695370E+01 a       178     0     9     1    18
  1.8685840576769767E+01 a       179     0     9     1    19
 -2.0282143803071079E+01 a       180     0     9     1    20
  5.1945905559867693E+00 a       181     0    10     1     1
  7.3312176865854788E+00 a       182     0    10     1     2
 -3.5542235500791719E+01 a       183     0    10     1     3
  2.5569788492608247E+01 a       184     0    10     1     4
 -3.0811247775630260E+01 a       185     0    10     1     5
 -2.5404831253406613E+01 a       186     0    10     1     6
  5.5749268231508431E+00 a       187     0    10     1     7
  1.4937800626323261E+00 a       188     0    10     1     8
 -3.6135811535583312E-01 a       189     0    10     1     9
  2.0691861241851605E+01 a       190     0    10     1    10
 -4.3480777348413531E+00 a       191     0    10     1    11
  1.0133925258388152E+00 a       192     0    10     1    12
 -1.3342222947081884E+01 a       193     0    10     1    13
 -1.3888852459007254E+01 a       194     0    10     1    14
 -6.1409421224187106E+00 a       195     0    10     1    15
  2.9521515175956481E-01 a       196     0    10     1    16
 -1.3425711314630423E+01 a       197     0    10     1    17
  5.3298357447679230E+00 a       198     0    10     1    18
  1.8813548379435431E+01 a       199     0    10     1    19
  6.5233083742730527E+00 a       200     0    10     1    20
  1.6508898095036017E+01 a       201     0    11     1     1
 -7.7837492121698180E+00 a       202     0    11     1     2
 -2.7561041340142250E+01 a       203     0    11     1     3
  1.1307871296953328E+01 a       204     0    11     1     4
 -3.4672511899285666E+01 a       205     0    11     1     5
 -1.7224733899268990E+01 a       206     0    11     1     6
  5.0205313861991367E+00 a       207     0    11     1     7
  1.3483110846139157E+00 a       208     0    11     1     8
  9.5858577859123262E+00 a       209     0    11     1     9
  1.4837716254504332E+00 a       210     0    11     1    10
  2.4105829049843275E-01 a       211     0    11     1    11
  3.1792928606899560E+00 a       212     0    11     1    12
 -1.1567430448727407E+01 a       213     0    11     1    13
 -8.6300614385788581E+00 a       214     0    11     1    14
 -1.5947429798944457E+00 a       215     0    11     1    15
  4.6345034479622449E-01 a       216     0    11     1    16
  2.2536376694051732E+01 a       217     0    11     1    17
 -2.3069008941753374E+01 a       218     0    11     1    18
 -6.6834711032161103E+00 a       219     0    11     1    19
  4.1117229950722702E+00 a       220     0    11     1    20
 -9.8317982027289812E+00 a       221     0    12     1     1
  1.1172489954307736E+01 a       222     0    12     1     2
 -3.6849938686926045E+01 a       223     0    12     1     3
  1.2870337865498495E+01 a       224     0    12     1     4
 -1.6611174403920113E+01 a       225     0    12     1     5
  1.1491313092249030E+01 a       226     0    12     1     6
  9.7590992244885406E+00 a       227     0    12     1     7
 -6.6304103056758545E-01 a       228     0    12     1     8
  2.0814562286809060E+00 a       229     0    12     1     9
  1.2148964659030366E+01 a       230     0    12     1    10
 -6.6653181334589826E+00 a       231     0    12     1    11
 -2.9355885697004589E+00 a       232     0    12     1    12
 -1.3102442803899962E+01 a       233     0    12     1    13
 -1.8899855097966050E+01 a       234     0    12     1    14
  1.2389910727856069E+01 a       235     0    12     1    15
  1.7169000682818574E+01 a       236     0    12     1    16
  9.0477210744354171E+00 a       237     0    12     1    17
  1.0348952970195034E+01 a       238     0    12     1    18
 -1.7768846922066583E+01 a       239     0    12     1    19
  1.7240426180214865E+01 a       240     0    12     1    20
  9.4662140892843349E-01 a       241     0    13     1     1
 -9.9009826535766248E+00 a       242     0    13     1     2
  8.8037470511930351E+00 a       243     0    13     1     3
 -1.0734064458369499E+01 a       244     0    13     1     4
  5.1821184521600179E+00 a       245     0    13     1     5
  7.3568240188637564E+00 a       246     0    13     1     6
 -1.7961471094800365E+00 a       247     0    13     1     7
 -2.4869154771885305E-01 a       248     0    13     1     8
  6.5271594413218619E+00 a       249     0    13     1     9
 -9.9481283069984432E+00 a       250     0    13     1    10
  1.8794928106752415E+00 a       251     0    13     1    11
  1.0452691836350461E+00 a       252     0    13     1    12
  3.3869548692283877E+00 a       253     0    13     1    13
  2.5661998999167017E+00 a       254     0    13     1    14
  1.9909415148061216E+00 a       255     0    13     1    15
 -2.1901602732946861E+00 a       256     0    13     1    16
  5.9308800004231044E+00 a       257     0    13     1    17
  2.1586710751914437E+00 a       258     0    13     1    18
 -1.6665068927877801E+01 a       259     0    13     1    19
 -3.9280706039078841E+00 a       260     0    13     1    20
 -1.1189868440080835E+01 a       261     0    14     1     1
 -9.3531305856969815E-01 a       262     0    14     1     2
  8.8270546416133175E+00 a       263     0    14     1     3
 -2.1486563878963136E+00 a       264     0    14     1     4
  5.1217052462487240E+00 a       265     0    14     1     5
  3.7748620941452957E+00 a       266     0    14     1     6
 -1.5034798650012917E+00 a       267     0    14     1     7
 -2.2032257976637312E-01 a       268     0    14     1     8
 -3.9660754804616700E+00 a       269     0    14     1     9
 -2.1417190749673529E+00 a       270     0    14     1    10
  1.4140884290488803E-01 a       271     0    14     1    11
 -1.4235500927193595E-01 a       272     0    14     1    12
  2.9314448302002551E+00 a       273     0    14     1    13
  3.2425696152662703E-01 a       274     0    14     1    14
 -1.3713117630390068E+00 a       275     0    14     1    15
 -1.4772949313843382E+00 a       276     0    14     1    16
 -1.1738701631606913E+01 a       277     0    14     1    17
  8.3869743436188813E+00 a       278     0    14     1    18
 -1.1733980254081336E+01 a       279     0    14     1    19
 -3.3631661296938735E+00 a       280     0    14     1    20
  1.4927808134230430E+01 a       281     0    15     1     1
 -1.3541763244553314E+01 a       282     0    15     1     2
  1.0166195154350183E+01 a       283     0    15     1     3
 -7.9665833703882107E+00 a       284     0    15     1     4
 -4.8897659960626316E-01 a       285     0    15     1     5
 -2.6943293597650708E+00 a       286     0    15     1     6
 -3.0214028747903261E+00 a       287     0    15     1     7
  3.4168486968999340E-01 a       288     0    15     1     8
  2.8233896384382615E+00 a       289     0    15     1     9
 -4.9140470442536621E+00 a       290     0    15     1    10
  2.2320252043872948E-01 a       291     0    15     1    11
  2.1945240596592117E+00 a       292     0    15     1    12
  3.0945777792872082E+00 a       293     0    15     1    13
  4.4809899118266223E+00 a       294     0    15     1    14
 -6.7105727539262068E+00 a       295     0    15     1    15
 -5.8845118734123858E+00 a       296     0    15     1    16
 -4.0726207982490674E+00 a       297     0    15     1    17
 -4.1434442480592946E+00 a       298     0    15     1    18
 -1.7792147206236127E+01 a       299     0    15     1    19
 -7.4027112490828282E+00 a       300     0    15     1    20
 -8.3590388715576711E-02 a       301     0    16     1     1
 -9.2791570989125933E+00 a       302     0    16     1     2
 -1.0181570086021082E+01 a       303     0    16     1     3
  7.4179685829250817E+00 a       304     0    16     1     4
  1.3241105283774756E+01 a       305     0    16     1     5
  8.3499925738386516E+00 a       306     0    16     1     6
 -4.5325305628106671E-01 a       307     0    16     1     7
  4.8952004475138988E+00 a       308     0    16     1     8
  2.0453648614414625E+01 a       309     0    16     1     9
 -1.0074081852497987E+00 a       310     0    16     1    10
 -6.4787215274374894E+00 a       311     0    16     1    11
  2.4546611915015677E+00 a       312     0    16     1    12
  9.2133622494426461E+00 a       313     0    16     1    13
  9.4006124848489598E+00 a       314     0    16     1    14
 -7.7780959030209318E-01 a       315     0    16     1    15
 -6.1276594113680520E+00 a       316     0    16     1    16
  8.3666760886312481E+00 a       317     0    16     1    17
  2.9688225994311566E+00 a       318     0    16     1    18
 -1.6265724990815460E+01 a       319     0    16     1    19
 -1.4325865348461598E+01 a       320     0    16     1    20
 -1.6861875276775827E+01 a       321     0    17     1     1
 -1.8699939835689527E+01 a       322     0    17     1     2
  1.8178522337242820E+00 a       323     0    17     1     3
 -2.4714513157351092E+00 a       324     0    17     1     4
 -2.8122202352933531E+01 a       325     0    17     1     5
  6.1318072926572471E+00 a       326     0    17     1     6
  4.5585920258921213E+00 a       327     0    17     1     7
 -1.2408369566883143E-01 a       328     0    17     1     8
  1.1870268198193566E+01 a       329     0    17     1     9
  4.0005935366799621E+00 a       330     0    17     1    10
 -4.6325349037722203E+00 a       331     0    17     1    11
  1.1127199196719537E+00 a       332     0    17     1    12
 -2.0421527489528741E+00 a       333     0    17     1    13
  1.4767509374715512E+01 a       334     0    17     1    14
  2.0368373713973334E+01 a       335     0    17     1    15
  1.5299947905360035E+01 a       336     0    17     1    16
 -1.1032982949785428E+01 a       337     0    17     1    17
 -7.7494504817736876E-01 a       338     0    17     1    18
  5.8727296717380657E+00 a       339     0    17     1    19
  1.2029869384462092E+01 a       340     0    17     1    20
 -6.3445709265827546E+00 a       341     0    18     1     1
  1.1013478638091678E+01 a       342     0    18     1     2
 -1.0369208817776581E+01 a       343     0    18     1     3
  3.9749288185413739E+01 a       344     0    18     1     4
 -1.2094699860823879E+00 a       345     0    18     1     5
  7.6995545121695415E+00 a       346     0    18     1     6
 -8.9322716502212540E-01 a       347     0    18     1     7
 -1.5510021246146064E+00 a       348     0    18     1     8
  4.3536140488399875E+00 a       349     0    18     1     9
  7.3537987432703193E+00 a       350     0    18     1    10
  1.1323535091358327E+01 a       351     0    18     1    11
  5.1681993047927879E+00 a       352     0    18     1    12
 -7.3089399986435419E-02 a       353     0    18     1    13
 -7.4968678962971103E-02 a       354     0    18     1    14
  2.2787179913090991E+01 a       355     0    18     1    15
  1.5467463413271243E+01 a       356     0    18     1    16
 -9.9554623330447800E+00 a       357     0    18     1    17
  3.4885289844552387E+00 a       358     0    18     1    18
  1.2282117789331634E+01 a       359     0    18     1    19
  1.3171688298140877E+01 a       360     0    18     1    20
  1.8533094363605425E+01 a       361     0    19     1     1
 -9.7653785839156733E+00 a       362     0    19     1     2
  2.4023690502755017E+00 a       363     0    19     1     3
  2.8780262820306914E+00 a       364     0    19     1     4
 -3.4510953438920630E+01 a       365     0    19     1     5
 -8.9847971384225165E+00 a       366     0    19     1     6
  5.7616559451820371E-02 a       367     0    19     1     7
 -2.8364605640933669E+00 a       368     0    19     1     8
 -7.0237752552289301E+00 a       369     0    19     1     9
  6.2566587651701884E+00 a       370     0    19     1    10
  2.1628142668579020E+01 a       371     0    19     1    11
  1.0179023485768425E+01 a       372     0    19     1    12
  5.3428812647469415E-01 a       373     0    19     1    13
  1.8770164072692079E+01 a       374     0    19     1    14
  6.6860080389572731E+00 a       375     0    19     1    15
  2.1961542202913870E-01 a       376     0    19     1    16
 -1.7296866737076261E+01 a       377     0    19     1    17
  8.2969460240801940E+00 a       378     0    19     1    18
  1.6475379848368767E+01 a       379     0    19     1    19
  1.1408421011916630E+01 a       380     0    19     1    20
 -1.0700184737908168E+01 a       381     0    20     1     1
 -2.1363327811449175E+00 a       382     0    20     1     2
  1.0136335233343943E+00 a       383     0    20     1     3
  2.8459654603552561E+01 a       384     0    20     1     4
 -1.1680382263071582E+01 a       385     0    20     1     5
  2.6846030322960077E+00 a       386     0    20     1     6
  3.4410416682173328E+00 a       387     0    20     1     7
  6.3402024568340849E+00 a       388     0    20     1     8
 -2.7043458264517013E+00 a       389     0    20     1     9
  7.4181695533670036E+00 a       390     0    20     1    10
  2.9506929068108176E+00 a       391     0    20     1    11
 -4.1102523078678619E+00 a       392     0    20     1    12
  2.0790690136018797E+00 a       393     0    20     1    13
 -1.0361839030771401E+01 a       394     0    20     1    14
  2.4669309738958018E+00 a       395     0    20     1    15
  9.2193178777617142E+00 a       396     0    20     1    16
 -8.3479945562043838E+00 a       397     0    20     1    17
  1.8418965496366091E+01 a       398     0    20     1    18
  5.1201338452401257E-01 a       399     0    20     1    19
  5.8876250809767261E-01 a       400     0    20     1    20
  6.9951197705599766E+00 a       401     0    21     1     1
  1.3815664210633532E+01 a       402     0    21     1     2
 -1.7517000608769351E+01 a       403     0    21     1     3
  7.7582961140104487E+00 a       404     0    21     1     4
 -1.1372353681684588E+01 a       405     0    21     1     5
 -1.4928330193085825E+01 a       406     0    21     1     6
  4.3776960694564266E+00 a       407     0    21     1     7
  2.5330851431137051E+00 a       408     0    21     1     8
 -6.4322801069474318E+00 a       409     0    21     1     9
 -9.0037792244998283E+00 a       410     0    21     1    10
 -1.0548882778417186E+01 a       411     0    21     1    11
 -7.1509832735720114E-01 a       412     0    21     1    12
  1.9531780488693022E+00 a       413     0    21     1    13
 -2.4031970762230429E+01 a       414     0    21     1    14
  1.1645466564834848E+01 a       415     0    21     1    15
  7.3055070426977062E+00 a       416     0    21     1    16
 -3.9965992452075300E-02 a       417     0    21     1    17
 -3.4845802810880873E+00 a       418     0    21     1    18
  9.6698611203488767E+00 a       419     0    21     1    19
  1.5544543597037027E+01 a       420     0    21     1    20
  1.2320671866333473E+01 a       421     0    22     1     1
 -5.8602657859918441E+00 a       422     0    22     1     2
  1.7823257604564169E+00 a       423     0    22     1     3
  4.5848073744352167E+00 a       424     0    22     1     4
 -3.6011311834043205E+01 a       425     0    22     1     5
 -2.0092563296269986E+01 a       426     0    22     1     6
  6.5429760417231719E-01 a       427     0    22     1     7
 -7.4011471057452782E+00 a       428     0    22     1     8
  5.5008607666919254E+00 a       429     0    22     1     9
 -3.2917394288692400E+01 a       430     0    22     1    10
  8.4321282351045816E+00 a       431     0    22     1    11
 -3.1710702753354183E+00 a       432     0    22     1    12
 -1.8427176870324203E+01 a       433     0    22     1    13
 -1.9262513464573733E+01 a       434     0    22     1    14
  4.7837697638342584E+00 a       435     0    22     1    15
  2.4290251416584709E+01 a       436     0    22     1    16
 -2.9238756039286411E+00 a       437     0    22     1    17
 -6.1002439114452658E+00 a       438     0    22     1    18
  4.7128406629411348E+00 a       439     0    22     1    19
  2.0734115676714680E+01 a       440     0    22     1    20
  6.7738887799627063E+00 a       441     0    23     1     1
  8.7457431070030243E+00 a       442     0    23     1     2
 -1.1662168454705924E+01 a       443     0    23     1     3
  7.6907855538588930E+00 a       444     0    23     1     4
  3.6909948966623261E+01 a       445     0    23     1     5
 -1.1140516213398707E+01 a       446     0    23     1     6
 -9.4270816400284989E+00 a       447     0    23     1     7
  4.5364229056349298E-01 a       448     0    23     1     8
  1.7533134218892545E+01 a       449     0    23     1     9
 -6.7303631585384442E+00 a       450     0    23     1    10
  1.7409323547732949E+01 a       451     0    23     1    11
 -5.1541925265641564E-01 a       452     0    23     1    12
  1.8743823708942362E+00 a       453     0    23     1    13
 -2.5490301133011499E+01 a       454     0    23     1    14
 -2.0572233663324809E+01 a       455     0    23     1    15
 -2.1339326071257791E+01 a       456     0    23     1    16
  1.6332074690286458E+00 a       457     0    23     1    17
 -7.5845752333124778E+00 a       458     0    23     1    18
 -1.7250608806756457E+01 a       459     0    23     1    19
 -1.9754711600320348E+01 a       460     0    23     1    20
  6.7097066486182841E+00 a       461     0    24     1     1
 -2.2637004211466369E+01 a       462     0    24     1     2
  1.0543221422860301E+01 a       463     0    24     1     3
 -5.9010615692520183E+01 a       464     0    24     1     4
 -8.2035878021493982E+00 a       465     0    24     1     5
 -7.6558517502180328E+00 a       466     0    24     1     6
 -9.3564589802313347E-01 a       467     0    24     1     7
  4.0461149803009064E+00 a       468     0    24     1     8
  6.9022481511561629E-01 a       469     0    24     1     9
 -2.4283709260383670E+00 a       470     0    24     1    10
 -2.6250526587948201E+01 a       471     0    24     1    11
 -4.7004640831626219E+00 a       472     0    24     1    12
  6.8880936590895447E-02 a       473     0    24     1    13
  2.7705238528610039E+00 a       474     0    24     1    14
 -3.0876354997716849E+01 a       475     0    24     1    15
 -4.8584963022818952E+00 a       476     0    24     1    16
  1.3639867611182620E+01 a       477     0    24     1    17
  6.0708692675046683E+00 a       478     0    24     1    18
 -2.2265708848725328E+01 a       479     0    24     1    19
 -1.8863154716263647E+01 a       480     0    24     1    20
  1.1345767031429959E+01 a       481     0    25     1     1
 -3.5312731308917282E+00 a       482     0    25     1     2
  4.5929372549068379E+00 a       483     0    25     1     3
 -4.5369078093511055E+00 a       484     0    25     1     4
  3.3515293877913045E+01 a       485     0    25     1     5
 -1.9075252957052225E+01 a       486     0    25     1     6
 -2.7303071518619650E+00 a       487     0    25     1     7
  8.4366649539635450E+00 a       488     0    25     1     8
  3.0045161873897857E+00 a       489     0    25     1     9
 -1.8383268475741044E+01 a       490     0    25     1    10
 -2.0192838004980480E+01 a       491     0    25     1    11
 -1.3940345629801330E+01 a       492     0    25     1    12
 -6.8817411399547901E-01 a       493     0    25     1    13
 -2.1198828877608950E+01 a       494     0    25     1    14
 -1.5466608479785547E+01 a       495     0    25     1    15
  6.9843740737942097E+00 a       496     0    25     1    16
  6.4449394881739686E+00 a       497     0    25     1    17
 -1.0595310876311036E+01 a       498     0    25     1    18
 -3.5997468806137611E+01 a       499     0    25     1    19
 -7.6909419805688319E+00 a       500     0    25     1    20
  3.0276245077886754E+00 a       501     0    26     1     1
  6.4941503085626140E+00 a       502     0    26     1     2
  5.2831257053961940E+00 a       503     0    26     1     3
 -3.4465768094578905E+01 a       504     0    26     1     4
  3.7267870362525719E+00 a       505     0    26     1     5
  3.6632027082139151E+00 a       506     0    26     1     6
 -6.3329345621908901E+00 a       507     0    26     1     7
 -6.7872277728596568E+00 a       508     0    26     1     8
  1.1281304692634638E+01 a       509     0    26     1     9
  1.1643874107079231E+01 a       510     0    26     1    10
 -9.6014695276588551E+00 a       511     0    26     1    11
  5.5819290606715866E+00 a       512     0    26     1    12
 -7.3791697236207705E+00 a       513     0    26     1    13
  4.6990679705947507E+00 a       514     0    26     1    14
  9.3605542156297772E-01 a       515     0    26     1    15
 -1.0585637742780076E+01 a       516     0    26     1    16
 -2.0806168859323355E+00 a       517     0    26     1    17
 -2.9706402884304765E+01 a       518     0    26     1    18
  1.0857963641368556E+01 a       519     0    26     1    19
  2.3917751339131849E-01 a       520     0    26     1    20
  1.2797660200792702E+01 a       521     0    27     1     1
 -5.4943817996369022E+00 a       522     0    27     1     2
  2.7572204193220529E+01 a       523     0    27     1     3
  4.1824487787324207E+00 a       524     0    27     1     4
  2.7633133731420938E+00 a       525     0    27     1     5
  1.7419515586524788E+01 a       526     0    27     1     6
 -7.0751167005255793E+00 a       527     0    27     1     7
 -7.5888697689920376E-02 a       528     0    27     1     8
  2.7731746317486522E+01 a       529     0    27     1     9
 -1.2511016570272352E+01 a       530     0    27     1    10
  5.1273298087228101E+00 a       531     0    27     1    11
  2.7024617856922553E+00 a       532     0    27     1    12
 -6.1309544232944075E+00 a       533     0    27     1    13
  2.0334186909997182E+01 a       534     0    27     1    14
 -1.9658960991747954E+01 a       535     0    27     1    15
  1.8979607460747260E+01 a       536     0    27     1    16
 -1.7911149144014149E+00 a       537     0    27     1    17
  9.2890597609602010E-01 a       538     0    27     1    18
 -1.3730092352124291E+01 a       539     0    27     1    19
 -3.0761775627983731E+01 a       540     0    27     1    20
  5.3647881493648555E+00 a       541     0    28     1     1
  7.0380764331177437E+00 a       542     0    28     1     2
  1.2276803339873940E+01 a       543     0    28     1     3
 -1.5606520105884393E+01 a       544     0    28     1     4
 -1.0434724642351535E+01 a       545     0    28     1     5
  1.0678467262335380E+01 a       546     0    28     1     6
 -1.8765924164381274E+00 a       547     0    28     1     7
 -7.0624848960262471E-02 a       548     0    28     1     8
  1.7320141084044411E+00 a       549     0    28     1     9
 -8.1429189842889151E+00 a       550     0    28     1    10
 -3.2684381944502650E+00 a       551     0    28     1    11
  1.2727701048762696E-02 a       552     0    28     1    12
 -3.7367576649824452E-01 a       553     0    28     1    13
 -9.3303557279426541E-01 a       554     0    28     1    14
 -1.8323277556358739E+00 a       555     0    28     1    15
 -3.1664362876710546E+00 a       556     0    28     1    16
  7.5492542197296153E+00 a       557     0    28     1    17
  1.1392221019123665E+01 a       558     0    28     1    18
 -5.7588561765669422E+00 a       559     0    28     1    19
 -9.9358125831080244E+00 a       560     0    28     1    20
 -1.6493398700770335E+01 a       561     0    29     1     1
  3.5869714781478940E-01 a       562     0    29     1     2
 -9.6081958156573091E+00 a       563     0    29     1     3
 -6.7236098434160327E+00 a       564     0    29     1     4
  1.6987306027363953E+00 a       565     0    29     1     5
 -5.0102316761244561E+00 a       566     0    29     1     6
 -3.8226692882702551E+00 a       567     0    29     1     7
 -7.7265553364544637E-01 a       568     0    29     1     8
 -5.9356981734423790E+00 a       569     0    29     1     9
  9.1749829930609863E+00 a       570     0    29     1    10
 -1.0984438580411979E+01 a       571     0    29     1    11
 -1.1059500130987110E+00 a       572     0    29     1    12
 -3.9659280659938734E-01 a       573     0    29     1    13
 -7.5404809163408553E+00 a       574     0    29     1    14
 -8.0858693671301585E-01 a       575     0    29     1    15
 -1.0113856580821782E+01 a       576     0    29     1    16
 -1.1807469433430420E+01 a       577     0    29     1    17
 -1.6732654626137062E+01 a       578     0    29     1    18
  2.3198539534183954E+01 a       579     0    29     1    19
  1.2939641246561202E+00 a       580     0    29     1    20
  2.2164584742500562E+01 a       581     0    30     1     1
 -6.3698646213161925E-01 a       582     0    30     1     2
  5.8129988058967708E-01 a       583     0    30     1     3
 -1.6172242553244349E+01 a       584     0    30     1     4
 -1.9735451614403818E+01 a       585     0    30     1     5
 -1.4191016445474546E+01 a       586     0    30     1     6
 -1.2610241231451036E+00 a       587     0    30     1     7
  6.9785120983277271E-01 a       588     0    30     1     8
  1.0824924722430739E+01 a       589     0    30     1     9
  1.4183161429926640E+01 a       590     0    30     1    10
 -1.1167738655757567E+01 a       591     0    30     1    11
 -1.4802222636497189E+00 a       592     0    30     1    12
 -1.6396385966822205E-01 a       593     0    30     1    13
 -1.4333891457172461E+01 a       594     0    30     1    14
 -7.6005100559069092E+00 a       595     0    30     1    15
 -1.4819808052005412E+00 a       596     0    30     1    16
  2.3082080938523899E+00 a       597     0    30     1    17
  2.2216400743143655E+01 a       598     0    30     1    18
 -1.4315739908729919E+01 a       599     0    30     1    19
 -2.7931181860409282E+00 a       600     0    30     1    20
 -3.4229285218189659E+01 a       601     0    31     1     1
 -5.0498077219096560E-01 a       602     0    31     1     2
  3.1893948437298523E+00 a       603     0    31     1     3
 -3.3943269614883111E+00 a       604     0    31     1     4
  5.2313608632643618E+00 a       605     0    31     1     5
 -1.2186583251198384E+01 a       606     0    31     1     6
 -1.6611138677441073E+00 a       607     0    31     1     7
  1.7239809144642371E+00 a       608     0    31     1     8
  1.9816517163180318E+01 a       609     0    31     1     9
 -1.3658513387129837E+01 a       610     0    31     1    10
 -9.3233688027162955E+00 a       611     0    31     1    11
 -2.0085146902057511E+00 a       612     0    31     1    12
 -3.5915342521440219E-01 a       613     0    31     1    13
  5.5509304175842091E+00 a       614     0    31     1    14
  4.5656369079960397E+00 a       615     0    31     1    15
  3.3661046031157111E+00 a       616     0    31     1    16
 -2.3329727973544201E+00 a       617     0    31     1    17
 -9.4215719615394971E+00 a       618     0    31     1    18
 -2.7781166800444353E+01 a       619     0    31     1    19
  1.5640937242944172E+01 a       620     0    31     1    20
  2.4078261628242859E-01 a       621     0    32     1     1
  1.8750970668997933E+01 a       622     0    32     1     2
 -4.6739213195142133E+00 a       623     0    32     1     3
 -1.0169459611103319E+01 a       624     0    32     1     4
  1.7013205348244540E+00 a       625     0    32     1     5
  3.1999184531361431E+00 a       626     0    32     1     6
 -2.9735566126981068E+00 a       627     0    32     1     7
  4.9219960803932750E-01 a       628     0    32     1     8
  2.2406693599292236E+01 a       629     0    32     1     9
 -9.4998985287577895E+00 a       630     0    32     1    10
  6.1114714993847741E-01 a       631     0    32     1    11
  7.1770702446886070E-01 a       632     0    32     1    12
  3.6462165077995617E-01 a       633     0    32     1    13
  9.9119048152372979E+00 a       634     0    32     1    14
 -2.2137226565035832E+00 a       635     0    32     1    15
 -2.0068023794492662E+00 a       636     0    32     1    16
  4.7395431556108250E+00 a       637     0    32     1    17
 -2.4787902000459705E+00 a       638     0    32     1    18
  3.8400561946605221E+00 a       639     0    32     1    19
  2.7526485883724183E-01 a       640     0    32     1    20
 -1.9563569655918203E+00 a       641     0    33     1     1
 -7.6616504705192945E+00 a       642     0    33     1     2
 -7.0915649897671980E+00 a       643     0    33     1     3
 -1.4779461018568492E+01 a       644     0    33     1     4
  1.7798524547357636E-01 a       645     0    33     1     5
 -7.8687307776071682E+00 a       646     0    33     1     6
 -4.5866353371523632E+00 a       647     0    33     1     7
  6.1330829290978961E-01 a       648     0    33     1     8
  8.4522137541032494E-02 a       649     0    33     1     9
  5.8686953157386013E+00 a       650     0    33     1    10
  3.2043023437612019E+00 a       651     0    33     1    11
 -6.6740168247816578E-01 a       652     0    33     1    12
 -6.4565687505447245E-01 a       653     0    33     1    13
  1.1638569122070306E+01 a       654     0    33     1    14
 -4.3219842268260650E-01 a       655     0    33     1    15
 -3.1717929972327261E+00 a       656     0    33     1    16
 -4.9915753191883949E+00 a       657     0    33     1    17
  1.1523124541884521E+01 a       658     0    33     1    18
 -2.4396611656123084E+00 a       659     0    33     1    19
  1.0340129755100826E+01 a       660     0    33     1    20
 -9.3928548345237992E+00 a       661     0    34     1     1
  4.1194670319743274E+00 a       662     0    34     1     2
  1.1402376350589261E+01 a       663     0    34     1     3
 -9.7774125822983695E+00 a       664     0    34     1     4
  2.0518956342657400E+01 a       665     0    34     1     5
  1.6898988630828853E+01 a       666     0    34     1     6
 -8.6402699536792393E-01 a       667     0    34     1     7
  2.7114492323606543E+00 a       668     0    34     1     8
 -1.4609107221109799E+01 a       669     0    34     1     9
  2.1264139083763638E+01 a       670     0    34     1    10
 -4.9625709357008158E-01 a       671     0    34     1    11
  1.4250425418773593E+00 a       672     0    34     1    12
  9.6205154702770557E+00 a       673     0    34     1    13
  7.9334588758548445E+00 a       674     0    34     1    14
 -1.6351498979393742E+00 a       675     0    34     1    15
 -1.7451010264139562E+01 a       676     0    34     1    16
 -8.9137871385135075E+00 a       677     0    34     1    17
  1.2857116160390303E+01 a       678     0    34     1    18
  3.6217799194033717E-01 a       679     0    34     1    19
 -1.2112456228160735E+01 a       680     0    34     1    20
 -2.0813101846192619E+00 a       681     0    35     1     1
  1.2942211277707932E+01 a       682     0    35     1     2
  1.2203550383389572E+01 a       683     0    35     1     3
  4.5232661440712532E+00 a       684     0    35     1     4
 -1.9190876127393704E+01 a       685     0    35     1     5
 -1.6395855300834197E+00 a       686     0    35     1     6
  5.7410902865774158E+00 a       687     0    35     1     7
 -5.5585114233304844E-01 a       688     0    35     1     8
 -2.5746004098922839E+01 a       689     0    35     1     9
  1.0382195395891923E+01 a       690     0    35     1    10
 -6.3524591252558720E+00 a       691     0    35     1    11
  1.5483135390418454E+00 a       692     0    35     1    12
  1.7751327468534666E+00 a       693     0    35     1    13
  2.6376931641027440E+01 a       694     0    35     1    14
  7.2048123750312447E+00 a       695     0    35     1    15
  1.0955795874270011E+01 a       696     0    35     1    16
  1.9645959218470965E+00 a       697     0    35     1    17
  1.8536357119162087E+01 a       698     0    35     1    18
  1.0246564737945613E+01 a       699     0    35     1    19
  1.3281597341684844E+01 a       700     0    35     1    20
  2.0465865723855212E+00 a       701     0    36     1     1
  5.6340261321023917E+00 a       702     0    36     1     2
  3.7184232295023136E+00 a       703     0    36     1     3
  2.8635390211241649E+01 a       704     0    36     1     4
  8.0156763826046671E+00 a       705     0    36     1     5
 -6.2234665386374486E+00 a       706     0    36     1     6
  8.1465774750539155E-01 a       707     0    36     1     7
 -1.9956316913258068E+00 a       708     0    36     1     8
 -1.3192084651942870E-01 a       709     0    36     1     9
 -9.8221677555940712E+00 a       710     0    36     1    10
  1.5525510265714846E+01 a       711     0    36     1    11
  1.1035904516767905E+00 a       712     0    36     1    12
  9.2533968925592472E-02 a       713     0    36     1    13
  6.3836554455046102E-01 a       714     0    36     1    14
  1.3164197881774568E+01 a       715     0    36     1    15
 -2.2443151987041365E+00 a       716     0    36     1    16
 -9.1466349324618470E+00 a       717     0    36     1    17
 -3.3858004196273557E+00 a       718     0    36     1    18
  1.1748408790716871E+01 a       719     0    36     1    19
  8.2511952639378094E+00 a       720     0    36     1    20
 -5.9382335314178523E+00 a       721     0    37     1     1
  1.5959753718967214E+01 a       722     0    37     1     2
  1.1709513142195574E+01 a       723     0    37     1     3
  1.3825894783096967E+01 a       724     0    37     1     4
 -4.8392069452474944E+00 a       725     0    37     1     5
  1.2289088163892943E+01 a       726     0    37     1     6
  1.8840391615284162E+00 a       727     0    37     1     7
 -5.1406417252774919E+00 a       728     0    37     1     8
  3.4771810811964903E+00 a       729     0    37     1     9
  4.1585864247769663E+01 a       730     0    37     1    10
 -4.6079444431980150E+00 a       731     0    37     1    11
  4.7382469555591475E+00 a       732     0    37     1    12
  7.9709260947725979E-01 a       733     0    37     1    13
  1.8101835066027768E+01 a       734     0    37     1    14
  8.2623367862327051E+00 a       735     0    37     1    15
  2.0493071150988157E-01 a       736     0    37     1    16
  4.9398058017094719E+00 a       737     0    37     1    17
  1.1178503736341586E+01 a       738     0    37     1    18
  8.0864600229911261E+00 a       739     0    37     1    19
 -1.0034324213586304E+01 a       740     0    37     1    20
  5.4372557215149513E+00 a       741     0    38     1     1
 -1.2729127910691107E+01 a       742     0    38     1     2
 -1.3070939968948791E+01 a       743     0    38     1     3
  1.5420245324070539E+01 a       744     0    38     1     4
  3.1320541629086214E+00 a       745     0    38     1     5
 -1.5690222689357476E+01 a       746     0    38     1     6
  2.5483621186436993E+00 a       747     0    38     1     7
  2.5500266648775001E+00 a       748     0    38     1     8
 -1.7214732434271018E-02 a       749     0    38     1     9
 -1.6535275759298003E+01 a       750     0    38     1    10
  6.5359093913490662E+00 a       751     0    38     1    11
 -1.6335080265982378E+00 a       752     0    38     1    12
  5.4282580545347336E+00 a       753     0    38     1    13
  6.2553900351261582E-01 a       754     0    38     1    14
 -1.7335530890120590E+00 a       755     0    38     1    15
  2.1153032228924533E+00 a       756     0    38     1    16
  8.9722808919291008E+00 a       757     0    38     1    17
  7.2737829768945517E+00 a       758     0    38     1    18
 -1.0775591246107833E+01 a       759     0    38     1    19
 -4.5300034103545067E-01 a       760     0    38     1    20
 -1.6738156894016367E+01 a       761     0    39     1     1
 -7.0410160781423050E+00 a       762     0    39     1     2
 -1.5253045554401373E+01 a       763     0    39     1     3
 -5.2880541416166720E+00 a       764     0    39     1     4
  2.9833454639625150E+00 a       765     0    39     1     5
  1.9791229928542005E+01 a       766     0    39     1     6
  2.3558832241919059E+00 a       767     0    39     1     7
 -1.0230684567316848E+00 a       768     0    39     1     8
 -2.3555356438844957E+01 a       769     0    39     1     9
  1.8233251115074349E+01 a       770     0    39     1    10
 -1.1296846384872727E+00 a       771     0    39     1    11
 -1.7523457267640972E+00 a       772     0    39     1    12
  3.9093377991627705E+00 a       773     0    39     1    13
  1.7241346102778299E+00 a       774     0    39     1    14
  1.1535358596879057E+01 a       775     0    39     1    15
 -2.3650187486883283E+01 a       776     0    39     1    16
 -1.7067060157580123E+00 a       777     0    39     1    17
  4.6429979967880861E+00 a       778     0    39     1    18
  2.3668402410060230E+00 a       779     0    39     1    19
  1.7182751787568431E+01 a       780     0    39     1    20
  4.0432600829657632E+00 a       781     0    40     1     1
  2.0999073438196405E+01 a       782     0    40     1     2
 -3.0503545056853500E+00 a       783     0    40     1     3
 -1.0947521790176463E+01 a       784     0    40     1     4
 -1.1964008599751727E+01 a       785     0    40     1     5
 -1.5389792515719403E+01 a       786     0    40     1     6
 -1.7187403712500031E+00 a       787     0    40     1     7
  2.1103663839384277E+00 a       788     0    40     1     8
 -1.8781845622838777E+01 a       789     0    40     1     9
  1.0182297186393251E+01 a       790     0    40     1    10
  5.5853066069896649E+00 a       791     0    40     1    11
  3.9933116507976938E+00 a       792     0    40     1    12
 -5.7133937597824387E+00 a       793     0    40     1    13
  1.4979338372340782E+01 a       794     0    40     1    14
  5.4723969550023921E-01 a       795     0    40     1    15
  3.1220463264860472E+00 a       796     0    40     1    16
 -8.3089469842865711E+00 a       797     0    40     1    17
  1.3873129095678452E+01 a       798     0    40     1    18
 -1.4800374024679992E+00 a       799     0    40     1    19
  2.1649306247353028E+01 a       800     0    40     1    20
  2.7309877236889751E+01 a       801     0    41     1     1
  6.6033341663893887E+00 a       802     0    41     1     2
  1.6951511465671384E+01 a       803     0    41     1     3
 -4.3535177558348312E+00 a       804     0    41     1     4
  3.5622428585542987E+00 a       805     0    41     1     5
  1.1482686362144261E+00 a       806     0    41     1     6
 -5.1134826582795743E+00 a       807     0    41     1     7
  3.9592304936424880E+00 a       808     0    41     1     8
 -6.7360216226146585E+00 a       809     0    41     1     9
 -1.8601938850959055E+01 a       810     0    41     1    10
 -1.2752598055385846E+01 a       811     0    41     1    11
  4.5076450138073376E+00 a       812     0    41     1    12
  3.9683772169051168E+00 a       813     0    41     1    13
  8.5564205693124986E+00 a       814     0    41     1    14
 -1.3516047239922690E+01 a       815     0    41     1    15
 -9.0196793372297701E-01 a       816     0    41     1    16
  7.6518727336487151E+00 a       817     0    41     1    17
  1.6067070066167819E+01 a       818     0    41     1    18
  2.7777483775557432E-01 a       819     0    41     1    19
 -7.3672820076272290E+00 a       820     0    41     1    20
 -1.2953194919501762E+01 a       821     0    42     1     1
  4.1797263150306989E+00 a       822     0    42     1     2
 -3.2057522870078605E+00 a       823     0    42     1     3
 -1.6045183303171917E+00 a       824     0    42     1     4
  8.8459601835081747E-01 a       825     0    42     1     5
  1.9987759735320846E+01 a       826     0    42     1     6
 -1.3965040195538294E+00 a       827     0    42     1     7
  7.4014398078447057E+00 a       828     0    42     1     8
  6.7291039169345401E+00 a       829     0    42     1     9
 -1.0611621578706954E+01 a       830     0    42     1    10
 -1.5685264253691182E+01 a       831     0    42     1    11
  1.3167417707180111E+00 a       832     0    42     1    12
 -5.2567869683482302E-02 a       833     0    42     1    13
  8.8132253671438434E+00 a       834     0    42     1    14
 -1.3636305052880090E+01 a       835     0    42     1    15
 -1.1273683939504933E+01 a       836     0    42     1    16
  5.6324990528373382E+00 a       837     0    42     1    17
 -1.3302633960572543E+01 a       838     0    42     1    18
 -2.6713254956569390E+00 a       839     0    42     1    19
 -1.3554052777723708E+01 a       840     0    42     1    20
  1.4239883027256122E+01 a       841     0    43     1     1
  1.4950785515535264E+01 a       842     0    43     1     2
  1.1829878982492971E+01 a       843     0    43     1     3
  1.5441396849320745E+01 a       844     0    43     1     4
  7.1907047685082777E+00 a       845     0    43     1     5
  1.7305724846491323E+01 a       846     0    43     1     6
 -2.4277844678653380E+00 a       847     0    43     1     7
  5.2737031840763287E+00 a       848     0    43     1     8
 -1.8660326806339896E+01 a       849     0    43     1     9
  8.4131856824082956E+00 a       850     0    43     1    10
 -2.6304083433447214E+01 a       851     0    43     1    11
 -8.0436465041259808E+00 a       852     0    43     1    12
  2.8441249430541831E+00 a       853     0    43     1    13
  1.1879695352154920E+01 a       854     0    43     1    14
  5.9432465880164811E+00 a       855     0    43     1    15
 -1.2849735149872188E+01 a       856     0    43     1    16
  2.2290011029363509E+01 a       857     0    43     1    17
  4.1268040661701937E+00 a       858     0    43     1    18
  4.3520147154715069E+01 a       859     0    43     1    19
 -2.6594045068259060E+01 a       860     0    43     1    20
  1.3787020652472457E+01 a       861     0    44     1     1
 -1.3530961172214662E+00 a       862     0    44     1     2
 -4.1973372409886203E+00 a       863     0    44     1     3
  6.4630704279390088E+00 a       864     0    44     1     4
 -2.1105740865007290E+00 a       865     0    44     1     5
 -3.0114824658299346E+00 a       866     0    44     1     6
 -2.3498880161718860E+00 a       867     0    44     1     7
 -1.2975221163160588E+00 a       868     0    44     1     8
  2.3339478863440610E+00 a       869     0    44     1     9
 -1.7765774956634097E+01 a       870     0    44     1    10
 -1.1878371112893275E+01 a       871     0    44     1    11
  7.5478140093372046E+00 a       872     0    44     1    12
 -1.4864505353787880E+00 a       873     0    44     1    13
  1.7548769830540021E+01 a       874     0    44     1    14
 -1.6608721661312595E+00 a       875     0    44     1    15
 -2.5167796826305800E+01 a       876     0    44     1    16
 -5.5918544555659002E+00 a       877     0    44     1    17
  1.3561855619258914E+01 a       878     0    44     1    18
 -8.5320046457287653E+00 a       879     0    44     1    19
 -8.2674668888887162E+00 a       880     0    44     1    20
 -3.0222907551450767E+01 a       881     0    45     1     1
 -1.7918234408587519E+01 a       882     0    45     1     2
  6.3035368112681747E+00 a       883     0    45     1     3
 -7.8052216812046007E+00 a       884     0    45     1     4
  1.6610341817230454E+00 a       885     0    45     1     5
 -2.0872007403492162E+01 a       886     0    45     1     6
 -1.5832902444852706E+00 a       887     0    45     1     7
  2.9764872411296972E+00 a       888     0    45     1     8
  1.1405278190418906E+01 a       889     0    45     1     9
  1.1476736017362033E+01 a       890     0    45     1    10
  9.9962073400712583E+00 a       891     0    45     1    11
  2.9127440823272646E+00 a       892     0    45     1    12
 -3.4441687766461633E+00 a       893     0    45     1    13
  3.3676603309047579E+01 a       894     0    45     1    14
 -2.9505907698282381E+00 a       895     0    45     1    15
 -1.8571844017301448E+01 a       896     0    45     1    16
 -8.1190121871627436E+00 a       897     0    45     1    17
  1.5728257661660030E+00 a       898     0    45     1    18
 -8.6730631847323298E+00 a       899     0    45     1    19
 -6.5817243881981724E-01 a       900     0    45     1    20
  1.7466606207301574E+00 a       901     0    46     1     1
 -1.6191892589305166E+01 a       902     0    46     1     2
 -3.9324462629499131E+00 a       903     0    46     1     3
  1.2109774507813222E+00 a       904     0    46     1     4
  2.2767831475252649E+01 a       905     0    46     1     5
  1.8845308908548731E+01 a       906     0    46     1     6
  1.6966343883265864E-01 a       907     0    46     1     7
  7.1966714982756419E-01 a       908     0    46     1     8
 -7.9395269041091217E+00 a       909     0    46     1     9
  2.6970147634696100E+00 a       910     0    46     1    10
 -6.7104835296227225E+00 a       911     0    46     1    11
 -3.9269684876891415E+00 a       912     0    46     1    12
  1.4091517902910152E+01 a       913     0    46     1    13
 -1.0192485067872497E+01 a       914     0    46     1    14
  6.0485714796708701E+00 a       915     0    46     1    15
 -1.0942072704750890E+01 a       916     0    46     1    16
 -2.6816821500805408E+00 a       917     0    46     1    17
 -1.5794443570041381E+01 a       918     0    46     1    18
  1.8693853290185142E+01 a       919     0    46     1    19
 -2.9525351487048237E+01 a       920     0    46     1    20
  1.5497018217821144E+00 a       921     0    47     1     1
  7.0202747300826758E+00 a       922     0    47     1     2
 -8.6542350628357241E+00 a       923     0    47     1     3
  2.2676686838971882E+00 a       924     0    47     1     4
 -7.4581625979331507E+00 a       925     0    47     1     5
  5.8376137337984559E+00 a       926     0    47     1     6
  8.5317768030875420E+00 a       927     0    47     1     7
 -3.7181568172764901E+00 a       928     0    47     1     8
 -7.3631443797045470E+00 a       929     0    47     1     9
  1.8200982257469374E+01 a       930     0    47     1    10
  6.1266843321343256E-01 a       931     0    47     1    11
 -7.5282355840187511E+00 a       932     0    47     1    12
 -2.8398563497604963E+00 a       933     0    47     1    13
 -5.5748651241054503E+00 a       934     0    47     1    14
  1.4131961780944410E+01 a       935     0    47     1    15
 -6.4838463882977670E-01 a       936     0    47     1    16
  4.9865162138222976E+00 a       937     0    47     1    17
 -1.4076272453747222E+01 a       938     0    47     1    18
 -3.9916306395166194E+00 a       939     0    47     1    19
  9.1715517741108332E+00 a       940     0    47     1    20
  5.9971803655367255E+00 a       941     0    48     1     1
 -1.1044245123811244E+01 a       942     0    48     1     2
 -2.5500945034994862E+00 a       943     0    48     1     3
  3.2593608545757089E+00 a       944     0    48     1     4
  5.7259620971481064E+00 a       945     0    48     1     5
 -4.9624288952966742E+00 a       946     0    48     1     6
  9.2526632290018551E-01 a       947     0    48     1     7
 -1.1296533740295656E+01 a       948     0    48     1     8
 -4.7077172235511728E+00 a       949     0    48     1     9
 -6.3880178051736305E+00 a       950     0    48     1    10
  3.1778284596947451E+01 a       951     0    48     1    11
 -3.0353301580884233E+00 a       952     0    48     1    12
  3.2632738642512948E+00 a       953     0    48     1    13
 -1.3614330576277734E+01 a       954     0    48     1    14
  2.0613265415832490E+01 a       955     0    48     1    15
 -1.8307746927455000E+01 a       956     0    48     1    16
 -2.3170464746071033E+00 a       957     0    48     1    17
  7.6533476173182287E+00 a       958     0    48     1    18
  1.1046598209380361E+01 a       959     0    48     1    19
  1.6313033099960325E+01 a       960     0    48     1    20
 -2.0845851349392394E+01 a       961     0    49     1     1
 -5.5828982177964503E+00 a       962     0    49     1     2
 -3.8362001811193828E+01 a       963     0    49     1     3
 -1.8688561914996093E+01 a       964     0    49     1     4
  5.7920768864804089E+00 a       965     0    49     1     5
 -1.9448279097455973E+01 a       966     0    49     1     6
  4.9997137467804134E+00 a       967     0    49     1     7
 -1.0115174501245807E+01 a       968     0    49     1     8
  1.0806172142085508E+01 a       969     0    49     1     9
 -2.1106430022066352E+01 a       970     0    49     1    10
  1.8997484230545457E+01 a       971     0    49     1    11
  1.1108194371530573E+01 a       972     0    49     1    12
 -4.8338272281666503E+00 a       973     0    49     1    13
 -2.3959801028396296E+01 a       974     0    49     1    14
 -4.1374990784837795E+00 a       975     0    49     1    15
  1.5092207120047792E+01 a       976     0    49     1    16
  6.6536346503575405E+00 a       977     0    49     1    17
 -1.1296781514065513E+01 a       978     0    49     1    18
 -3.5452627419707483E+01 a       979     0    49     1    19
  2.3718753630041128E+01 a       980     0    49     1    20
 -8.4435097400248651E+00 a       981     0    50     1     1
  5.3344392881815972E-01 a       982     0    50     1     2
  7.2863149480948728E+00 a       983     0    50     1     3
 -1.8395602181260990E+01 a       984     0    50     1     4
  9.9859389908847529E+00 a       985     0    50     1     5
  2.1835512250194102E+00 a       986     0    50     1     6
  1.8126882705382850E+00 a       987     0    50     1     7
  9.0060531864575821E-01 a       988     0    50     1     8
 -8.8753042030739315E-01 a       989     0    50     1     9
 -9.2128240425250016E+00 a       990     0    50     1    10
  1.6550237723123271E+01 a       991     0    50     1    11
 -7.4001865921864836E+00 a       992     0    50     1    12
  8.3333061506727866E+00 a       993     0    50     1    13
 -8.6325556294987020E+00 a       994     0    50     1    14
 -8.9922420266639963E-02 a       995     0    50     1    15
  2.6497938142716624E+01 a       996     0    50     1    16
  2.3031473979301605E+01 a       997     0    50     1    17
 -2.1138219465271249E+01 a       998     0    50     1    18
 -7.4914125319807914E+00 a       999     0    50     1    19
  8.9006810762468795E+00 a      1000     0    50     1    20
  8.6172487123609329E+00 a      1001     0    51     1     1
 -1.2734036836815008E+01 a      1002     0    51     1     2
 -5.1355761520731962E+00 a      1003     0    51     1     3
 -7.8857313209448754E-01 a      1004     0    51     1     4
  8.1464112224129988E+00 a      1005     0    51     1     5
  8.9273591996619039E+00 a      1006     0    51     1     6
 -3.5061591542524717E-01 a      1007     0    51     1     7
 -6.1039646644032297E+00 a      1008     0    51     1     8
 -1.4500951657924185E+01 a      1009     0    51     1     9
  4.2912999842667467E+00 a      1010     0    51     1    10
 -5.8518149229083227E-01 a      1011     0    51     1    11
 -1.9216628569960659E+00 a      1012     0    51     1    12
  1.1438125801130571E+01 a      1013     0    51     1    13
 -1.7032147819580121E+01 a      1014     0    51     1    14
  1.2273208560160734E+01 a      1015     0    51     1    15
 -1.2379790732562016E+01 a      1016     0    51     1    16
  1.0845002152029931E+01 a      1017     0    51     1    17
 -3.0604528055532589E+00 a      1018     0    51     1    18
  4.0729369130903956E+00 a      1019     0    51     1    19
  5.9805067314416127E-01 a      1020     0    51     1    20
  1.0470215852948053E+01 a      1021     0    52     1     1
 -2.2988276918278260E+01 a      1022     0    52     1     2
 -1.4665373370309029E+01 a      1023     0    52     1     3
  2.8953932678836146E+01 a      1024     0    52     1     4
  3.6694042301337859E+00 a      1025     0    52     1     5
 -2.4033344945265673E+00 a      1026     0    52     1     6
  5.7271953536041587E-01 a      1027     0    52     1     7
 -4.8956085453551385E-01 a      1028     0    52     1     8
 -1.1311361730965453E+01 a      1029     0    52     1     9
  1.2439886502861329E+01 a      1030     0    52     1    10
  3.8599505310998228E+00 a      1031     0    52     1    11
 -4.6246103431000057E-01 a      1032     0    52     1    12
 -3.0626610689455319E-01 a      1033     0    52     1    13
 -5.2222803061506200E+00 a      1034     0    52     1    14
  5.5414035652931171E+00 a      1035     0    52     1    15
  6.8002841046932554E+00 a      1036     0    52     1    16
 -1.9890729009310654E+01 a      1037     0    52     1    17
 -1.3848581409400584E+01 a      1038     0    52     1    18
 -5.1911274367236171E+00 a      1039     0    52     1    19
  1.5473217019580872E+01 a      1040     0    52     1    20
  7.5115187960157825E-01 a      1041     0    53     1     1
  7.9485989930917036E+00 a      1042     0    53     1     2
  1.0361249383086593E+01 a      1043     0    53     1     3
  1.4103690234686413E+01 a      1044     0    53     1     4
 -3.7853465292559174E-01 a      1045     0    53     1     5
 -2.2186846490012386E+00 a      1046     0    53     1     6
  3.8045538088190094E+00 a      1047     0    53     1     7
  2.1870828330738039E+00 a      1048     0    53     1     8
  7.6079900307645785E+00 a      1049     0    53     1     9
  1.6362622272578715E+00 a      1050     0    53     1    10
  2.7013145055265834E+01 a      1051     0    53     1    11
  1.6638357087935958E+00 a      1052     0    53     1    12
 -5.5952588776587209E-01 a      1053     0    53     1    13
  1.0687746580895446E+01 a      1054     0    53     1    14
  4.8294366781130149E+00 a      1055     0    53     1    15
  1.8552633727583324E+01 a      1056     0    53     1    16
  2.7444839856493491E+01 a      1057     0    53     1    17
  4.6944645343372152E+01 a      1058     0    53     1    18
 -2.7404726088878174E+01 a      1059     0    53     1    19
 -3.5354930889994161E+00 a      1060     0    53     1    20
 -1.0520230647478177E+01 a      1061     0    54     1     1
 -8.8399277101679310E+00 a      1062     0    54     1     2
  1.9616620654546949E+01 a      1063     0    54     1     3
  1.3104626873196985E+01 a      1064     0    54     1     4
  2.9268875210970979E+01 a      1065     0    54     1     5
  2.2073480963725398E+01 a      1066     0    54     1     6
 -7.5235957424789823E-01 a      1067     0    54     1     7
  2.0606632522560675E-01 a      1068     0    54     1     8
 -6.5312811730772866E+00 a      1069     0    54     1     9
 -3.3820527127261158E+01 a      1070     0    54     1    10
  1.1631309856619316E+01 a      1071     0    54     1    11
  1.8595453197699936E+00 a      1072     0    54     1    12
  1.2438876130040188E+00 a      1073     0    54     1    13
  2.1814929959996164E+01 a      1074     0    54     1    14
  1.7600627421616014E+01 a      1075     0    54     1    15
  2.9151147177559982E+00 a      1076     0    54     1    16
 -7.5158072900419111E+00 a      1077     0    54     1    17
 -2.1388356501336084E+01 a      1078     0    54     1    18
  2.3234358988388809E+01 a      1079     0    54     1    19
  1.9786507635337858E+00 a      1080     0    54     1    20
  2.4797544872897834E+01 a      1081     0    55     1     1
  1.9568847952201405E+00 a      1082     0    55     1     2
  1.0224974101682186E+01 a      1083     0    55     1     3
  9.9257954340091565E+00 a      1084     0    55     1     4
 -1.0993658923777515E+01 a      1085     0    55     1     5
  1.0905527314237359E+01 a      1086     0    55     1     6
  4.0386610774649900E-01 a      1087     0    55     1     7
 -2.6437344606457316E+00 a      1088     0    55     1     8
 -2.2263323479046599E+00 a      1089     0    55     1     9
  6.2211173505128823E+00 a      1090     0    55     1    10
  1.3236969714041686E+01 a      1091     0    55     1    11
  3.5574491522740841E+00 a      1092     0    55     1    12
 -3.6980897812337582E-01 a      1093     0    55     1    13
 -1.7416364446675029E+01 a      1094     0    55     1    14
 -6.4875531211438231E+00 a      1095     0    55     1    15
 -4.7846046413930843E-01 a      1096     0    55     1    16
 -6.0657260135049551E+00 a      1097     0    55     1    17
 -2.2488676003943109E+00 a      1098     0    55     1    18
  1.3664262263003627E+01 a      1099     0    55     1    19
 -2.0479368029857135E+01 a      1100     0    55     1    20
  7.9201628096125667E+00 a      1101     0    56     1     1
 -1.9548651394812705E+01 a      1102     0    56     1     2
  2.3548019305490309E+00 a      1103     0    56     1     3
  1.0794322649576978E+01 a      1104     0    56     1     4
 -8.0969463451129575E-01 a      1105     0    56     1     5
  1.1245440837611957E+01 a      1106     0    56     1     6
  8.0012872387547188E-02 a      1107     0    56     1     7
  9.0292227556977050E-02 a      1108     0    56     1     8
 -3.3339546886092215E+01 a      1109     0    56     1     9
  1.4390612598403443E+01 a      1110     0    56     1    10
 -7.5348327136760869E+00 a      1111     0    56     1    11
 -2.9055418843020309E-01 a      1112     0    56     1    12
  3.9796154792817146E-01 a      1113     0    56     1    13
 -1.9087882155529417E+01 a      1114     0    56     1    14
  1.1189389266636889E+01 a      1115     0    56     1    15
  1.1251699015859673E+01 a      1116     0    56     1    16
 -1.5324276326710969E+01 a      1117     0    56     1    17
  3.7453087632213933E-01 a      1118     0    56     1    18
 -4.1828077854389054E+00 a      1119     0    56     1    19
 -4.5435451255297883E+00 a      1120     0    56     1    20
  1.9602490410958062E+01 a      1121     0    57     1     1
  1.6123824924371643E+01 a      1122     0    57     1     2
  8.9913675339105481E+00 a      1123     0    57     1     3
  1.8557584339478097E+01 a      1124     0    57     1     4
 -7.6067968928529437E+00 a      1125     0    57     1     5
  5.4156894655547902E+01 a      1126     0    57     1     6
  1.2142607011923541E+00 a      1127     0    57     1     7
 -6.5659533500187361E-01 a      1128     0    57     1     8
 -1.6085371637417250E+01 a      1129     0    57     1     9
 -8.2724219544041119E-02 a      1130     0    57     1    10
 -2.0654133831744424E+01 a      1131     0    57     1    11
  2.9037366123461186E+00 a      1132     0    57     1    12
  1.6923874422970695E+00 a      1133     0    57     1    13
 -2.3202641359743801E+01 a      1134     0    57     1    14
  7.0026652695539244E+00 a      1135     0    57     1    15
  1.8306773205709909E+01 a      1136     0    57     1    16
  1.4872080551622945E+01 a      1137     0    57     1    17
 -2.3158867584408156E+01 a      1138     0    57     1    18
 -7.1564297159946859E+00 a      1139     0    57     1    19
 -2.3052926713205458E+01 a      1140     0    57     1    20
  1.2627023099791936E+00 a      1141     0    58     1     1
  1.9321794142190363E+01 a      1142     0    58     1     2
 -3.8203010023826400E+00 a      1143     0    58     1     3
  5.2301671039037614E-02 a      1144     0    58     1     4
 -1.8631580068895619E+01 a      1145     0    58     1     5
 -7.7957167399068377E+00 a      1146     0    58     1     6
  1.0564756587425639E+00 a      1147     0    58     1     7
 -1.3656658508623278E+00 a      1148     0    58     1     8
  1.5483660056839637E+01 a      1149     0    58     1     9
  2.6578229091445231E+00 a      1150     0    58     1    10
  1.7284823105009495E+00 a      1151     0    58     1    11
  1.1209934415728278E+00 a      1152     0    58     1    12
 -9.7063441448223529E+00 a      1153     0    58     1    13
 -3.7854288972442016E+00 a      1154     0    58     1    14
 -6.3051455496535995E+00 a      1155     0    58     1    15
  1.0390758001837989E+01 a      1156     0    58     1    16
  1.1657503003245607E+01 a      1157     0    58     1    17
 -4.4155676049537984E+00 a      1158     0    58     1    18
 -4.4029132952435415E+00 a      1159     0    58     1    19
  2.1600444929439220E+01 a      1160     0    58     1    20
 -8.8991085785318340E+00 a      1161     0    59     1     1
 -1.3478941454860735E+01 a      1162     0    59     1     2
 -6.0578090560448972E-01 a      1163     0    59     1     3
 -1.0302027380055645E+01 a      1164     0    59     1     4
  5.8881059488097005E+00 a      1165     0    59     1     5
 -1.3480552871444804E+00 a      1166     0    59     1     6
 -4.7075512275959097E+00 a      1167     0    59     1     7
  1.2055638991132227E+00 a      1168     0    59     1     8
  1.2620371634426277E+01 a      1169     0    59     1     9
 -1.2264684849755932E+01 a      1170     0    59     1    10
  2.4324771398271983E+00 a      1171     0    59     1    11
  3.2081402617085133E+00 a      1172     0    59     1    12
 -1.3600695616851985E+00 a      1173     0    59     1    13
 -1.2671971440570669E+01 a      1174     0    59     1    14
 -4.4699124714816989E+00 a      1175     0    59     1    15
  4.7315826038195630E-01 a      1176     0    59     1    16
 -3.0010684796246130E+00 a      1177     0    59     1    17
 -1.2708867019611112E+01 a      1178     0    59     1    18
  8.9396779563322877E+00 a      1179     0    59     1    19
 -7.1984999844779862E+00 a      1180     0    59     1    20
 -7.1554777935272931E+00 a      1181     0    60     1     1
  1.4784410534051640E+01 a      1182     0    60     1     2
 -5.5143628809720902E+00 a      1183     0    60     1     3
 -3.4916527621543358E+00 a      1184     0    60     1     4
 -7.8789016466569075E+00 a      1185     0    60     1     5
  2.5320661700422908E+00 a      1186     0    60     1     6
 -3.0955415802547659E-01 a      1187     0    60     1     7
  4.6885246316527631E+00 a      1188     0    60     1     8
 -1.4466532419566203E-01 a      1189     0    60     1     9
  2.1328967537828664E+01 a      1190     0    60     1    10
 -1.9692441318405944E+01 a      1191     0    60     1    11
  2.5463081911783996E+00 a      1192     0    60     1    12
 -1.3582231020296003E+00 a      1193     0    60     1    13
  2.0594727569107083E+00 a      1194     0    60     1    14
 -1.1893080773268519E+01 a      1195     0    60     1    15
  1.5418961986132993E+01 a      1196     0    60     1    16
  2.4252142230523801E+00 a      1197     0    60     1    17
  2.5840726914385717E+00 a      1198     0    60     1    18
 -9.6176451777804086E+00 a      1199     0    60     1    19
 -6.4614934953692158E+00 a      1200     0    60     1    20
 -5.5784454940029109E+00 a      1201     0    61     1     1
 -2.6630414265060409E+00 a      1202     0    61     1     2
  1.4002232144652962E+00 a      1203     0    61     1     3
 -1.0202313640682434E+01 a      1204     0    61     1     4
 -1.2226669800083682E+01 a      1205     0    61     1     5
  2.4939754879364791E+01 a      1206     0    61     1     6
 -3.1860831956733668E+00 a      1207     0    61     1     7
  4.6051285778058908E+00 a      1208     0    61     1     8
  4.5748278100915858E+00 a      1209     0    61     1     9
 -2.0841153356517104E+01 a      1210     0    61     1    10
  1.0861844904082968E+01 a      1211     0    61     1    11
 -3.1051506213523346E+00 a      1212     0    61     1    12
  2.3546888817837526E+00 a      1213     0    61     1    13
 -5.6471703569521061E+00 a      1214     0    61     1    14
 -1.0165694767545059E+00 a      1215     0    61     1    15
 -1.5078521264547646E+01 a      1216     0    61     1    16
 -1.8039225468311145E+01 a      1217     0    61     1    17
 -5.0224115222580838E+00 a      1218     0    61     1    18
  2.0189699233242901E+01 a      1219     0    61     1    19
  6.3464729953275025E+00 a      1220     0    61     1    20
 -2.3135803074387312E-01 a      1221     0    62     1     1
  1.2762132516033684E+01 a      1222     0    62     1     2
  6.0854086671866581E+00 a      1223     0    62     1     3
  8.5045398165324890E+00 a      1224     0    62     1     4
 -6.2429890121524831E+00 a      1225     0    62     1     5
  1.4976552069986161E+01 a      1226     0    62     1     6
 -2.3841849417473759E-01 a      1227     0    62     1     7
 -8.3442180166926549E-01 a      1228     0    62     1     8
 -7.5151963159818820E+00 a      1229     0    62     1     9
  1.6506687218802075E+01 a      1230     0    62     1    10
 -7.7479111874127353E+00 a      1231     0    62     1    11
  2.2594003777049951E+00 a      1232     0    62     1    12
 -5.6263916062701522E+00 a      1233     0    62     1    13
 -9.9867128889394197E-01 a      1234     0    62     1    14
 -6.1831883538397514E-01 a      1235     0    62     1    15
 -7.9442221108402240E+00 a      1236     0    62     1    16
 -1.4581729662024156E+01 a      1237     0    62     1    17
  1.8822609631450163E+01 a      1238     0    62     1    18
  1.0095073996785578E+01 a      1239     0    62     1    19
 -3.7052934224646532E+00 a      1240     0    62     1    20
  1.6722052653231728E+01 a      1241     0    63     1     1
  1.6607859231772217E+01 a      1242     0    63     1     2
  8.3532419272577147E+00 a      1243     0    63     1     3
  2.7734565512484433E+00 a      1244     0    63     1     4
 -5.1804656905167770E+00 a      1245     0    63     1     5
 -1.5502720966949347E+01 a      1246     0    63     1     6
  8.6825238404708693E-01 a      1247     0    63     1     7
  2.8978037778787202E+00 a      1248     0    63     1     8
  1.2522891736608607E+01 a      1249     0    63     1     9
 -7.9938514335379356E+00 a      1250     0    63     1    10
 -1.0108651110118148E+00 a      1251     0    63     1    11
  1.7656199141784956E+00 a      1252     0    63     1    12
 -6.2250290254278040E+00 a      1253     0    63     1    13
 -6.3121281875553397E+00 a      1254     0    63     1    14
 -1.3763566819168199E+01 a      1255     0    63     1    15
  2.3081287821169678E+01 a      1256     0    63     1    16
 -1.7184606975099554E+00 a      1257     0    63     1    17
 -3.4188425942905241E+00 a      1258     0    63     1    18
  3.0855684457249808E+00 a      1259     0    63     1    19
 -5.2631917776830885E+00 a      1260     0    63     1    20
 -3.3674302834025114E+00 a      1261     0    64     1     1
 -1.3156462763039984E+00 a      1262     0    64     1     2
 -3.4989739125010595E+00 a      1263     0    64     1     3
  1.1797343961603389E+01 a      1264     0    64     1     4
  1.0769296481917797E+01 a      1265     0    64     1     5
  1.5350787143233175E+01 a      1266     0    64     1     6
 -1.6120089632576312E-01 a      1267     0    64     1     7
  1.8355234042374953E+00 a      1268     0    64     1     8
  2.5556056836417383E+01 a      1269     0    64     1     9
 -8.2697425348474347E+00 a      1270     0    64     1    10
 -1.3404292185379992E+01 a      1271     0    64     1    11
 -7.1295274459069660E+00 a      1272     0    64     1    12
  3.9008610470907663E+00 a      1273     0    64     1    13
 -6.7569504081041103E+00 a      1274     0    64     1    14
  2.5932141222167884E+00 a      1275     0    64     1    15
 -7.0277340861477700E-01 a      1276     0    64     1    16
  9.4913847348455231E+00 a      1277     0    64     1    17
 -2.3244893706543728E+00 a      1278     0    64     1    18
  1.0371321871913130E+01 a      1279     0    64     1    19
 -4.9704059754181564E+00 a      1280     0    64     1    20
 -2.0563834420803225E+01 a      1281     0    65     1     1
  1.4265556595023807E+00 a      1282     0    65     1     2
 -2.0234821054994718E+01 a      1283     0    65     1     3
  1.8730638485234916E+01 a      1284     0    65     1     4
  5.2708452218705579E+00 a      1285     0    65     1     5
 -7.3489313774556528E+00 a      1286     0    65     1     6
  1.1102569905232054E+00 a      1287     0    65     1     7
  9.0018098773705912E-01 a      1288     0    65     1     8
  5.2829953503471767E+00 a      1289     0    65     1     9
  3.1345990022924086E+00 a      1290     0    65     1    10
  8.4784590149112375E+00 a      1291     0    65     1    11
 -4.8362015155151203E+00 a      1292     0    65     1    12
 -1.8617195697470481E+00 a      1293     0    65     1    13
  7.6628751458900735E-01 a      1294     0    65     1    14
  1.2931480455440139E+01 a      1295     0    65     1    15
 -8.6759214397903026E+00 a      1296     0    65     1    16
 -3.4836866167775042E+00 a      1297     0    65     1    17
 -1.9022353989455642E+01 a      1298     0    65     1    18
  1.5965563510809250E+01 a      1299     0    65     1    19
  8.4948854683264063E-01 a      1300     0    65     1    20
  5.7285589298606796E+00 a      1301     0    66     1     1
  2.6375466494163566E+00 a      1302     0    66     1     2
  1.1225509258857125E+01 a      1303     0    66     1     3
 -1.2285905440426690E+01 a      1304     0    66     1     4
 -2.2834451104578442E+00 a      1305     0    66     1     5
 -5.7863035875874029E+00 a      1306     0    66     1     6
 -1.4492460433256351E+00 a      1307     0    66     1     7
 -2.8949189012507670E+00 a      1308     0    66     1     8
  5.2894539969721266E-01 a      1309     0    66     1     9
  2.0431746567792349E+01 a      1310     0    66     1    10
  4.5344151210429757E+00 a      1311     0    66     1    11
 -1.4426716110682241E+00 a      1312     0    66     1    12
  4.0227973656064620E-01 a      1313     0    66     1    13
  4.9360844657389071E+00 a      1314     0    66     1    14
  5.1059516072791133E+00 a      1315     0    66     1    15
  7.0093418241745686E+00 a      1316     0    66     1    16
  1.4716979916848166E+01 a      1317     0    66     1    17
  7.5388411097996633E+00 a      1318     0    66     1    18
  3.6850398986341966E+00 a      1319     0    66     1    19
  4.5821488776837134E+00 a      1320     0    66     1    20
  5.3861581129218985E+00 a      1321     0    67     1     1
 -6.7173562792841652E+00 a      1322     0    67     1     2
 -1.1174556605780205E+01 a      1323     0    67     1     3
 -2.5468195248062617E+01 a      1324     0    67     1     4
  1.3870624205272374E+01 a      1325     0    67     1     5
  1.3142846236199016E+01 a      1326     0    67     1     6
 -6.3789996224313639E-01 a      1327     0    67     1     7
  7.9419253658967182E-01 a      1328     0    67     1     8
  2.5624089641842406E+01 a      1329     0    67     1     9
 -1.7422024984248527E+01 a      1330     0    67     1    10
 -1.3156373917082165E+01 a      1331     0    67     1    11
  1.0954625557288078E+00 a      1332     0    67     1    12
 -5.5915729589743712E+00 a      1333     0    67     1    13
 -2.4418085543922984E+01 a      1334     0    67     1    14
 -1.6979171339532748E+01 a      1335     0    67     1    15
  1.1385244290138251E+01 a      1336     0    67     1    16
 -1.9983716704254270E+01 a      1337     0    67     1    17
 -6.7571667603969177E+00 a      1338     0    67     1    18
 -2.0684788912322819E+01 a      1339     0    67     1    19
  1.7695173963088795E+01 a      1340     0    67     1    20
 -1.0395112577560372E+01 a      1341     0    68     1     1
  9.6310347372741134E+00 a      1342     0    68     1     2
  2.3087065975570212E+01 a      1343     0    68     1     3
  1.2282371984845850E+00 a      1344     0    68     1     4
  2.6473350997472691E+00 a      1345     0    68     1     5
 -3.4885834071814625E-01 a      1346     0    68     1     6
 -1.0423701295811723E+00 a      1347     0    68     1     7
  2.8257995215725091E+00 a      1348     0    68     1     8
  2.4394054681820453E+01 a      1349     0    68     1     9
  2.1804922006823031E+01 a      1350     0    68     1    10
  9.9823208894671431E+00 a      1351     0    68     1    11
 -6.8627187212232235E+00 a      1352     0    68     1    12
 -1.2625061092694118E-01 a      1353     0    68     1    13
 -9.9424519537097513E+00 a      1354     0    68     1    14
  3.9623811006520393E+00 a      1355     0    68     1    15
  1.2347612389745033E+01 a      1356     0    68     1    16
  1.4585730396715983E+00 a      1357     0    68     1    17
 -3.7710648046947530E+00 a      1358     0    68     1    18
  3.1740119167032976E+01 a      1359     0    68     1    19
 -7.4345076090345472E+00 a      1360     0    68     1    20
  1.2664419250944471E+01 a      1361     0    69     1     1
  1.4959937815449441E+01 a      1362     0    69     1     2
  2.6115218528610843E+01 a      1363     0    69     1     3
  8.9377651423113971E+00 a      1364     0    69     1     4
  8.3058646107584870E+00 a      1365     0    69     1     5
 -1.0872244538309644E+01 a      1366     0    69     1     6
 -4.4995934307250511E+00 a      1367     0    69     1     7
 -6.9493172499216704E-01 a      1368     0    69     1     8
  1.5461578855761964E+01 a      1369     0    69     1     9
 -8.8701760683380755E+00 a      1370     0    69     1    10
  7.9616453925114818E+00 a      1371     0    69     1    11
  4.7639432714616320E-02 a      1372     0    69     1    12
  3.0384872723408396E+00 a      1373     0    69     1    13
 -1.8963339838786176E+01 a      1374     0    69     1    14
 -6.8732144596958156E-01 a      1375     0    69     1    15
  1.2046232156930881E+01 a      1376     0    69     1    16
  8.5990859411196148E+00 a      1377     0    69     1    17
 -6.9553586353157408E+00 a      1378     0    69     1    18
  3.4737942883156090E+00 a      1379     0    69     1    19
 -3.9007115270504691E+01 a      1380     0    69     1    20
 -1.1459554792579034E+01 a      1381     0    70     1     1
 -2.7791565090708243E+01 a      1382     0    70     1     2
  2.8724026697289329E+01 a      1383     0    70     1     3
 -5.1222980842867241E+00 a      1384     0    70     1     4
 -1.1706987371506397E+01 a      1385     0    70     1     5
  1.7602316007943404E+01 a      1386     0    70     1     6
  1.2507978489115845E+00 a      1387     0    70     1     7
 -6.6850992700539482E+00 a      1388     0    70     1     8
 -1.8405178364315848E+01 a      1389     0    70     1     9
  1.5901962940864465E+01 a      1390     0    70     1    10
  1.8324704758095098E+01 a      1391     0    70     1    11
  7.6656084308663077E+00 a      1392     0    70     1    12
 -9.3607100513613393E+00 a      1393     0    70     1    13
 -9.6900570495106586E-01 a      1394     0    70     1    14
 -1.7764954644989938E+01 a      1395     0    70     1    15
  4.6735803106763552E+00 a      1396     0    70     1    16
 -3.5954066422091391E-01 a      1397     0    70     1    17
  1.5171615554160074E+00 a      1398     0    70     1    18
 -1.3412405017983563E+01 a      1399     0    70     1    19
  4.0103664308706322E-01 a      1400     0    70     1    20
 -1.4340992881322453E+01 a      1401     0    71     1     1
 -9.2085996167201714E+00 a      1402     0    71     1     2
  1.9491772381343349E+01 a      1403     0    71     1     3
 -2.1960717091516837E+01 a      1404     0    71     1     4
 -3.4199792956648856E+00 a      1405     0    71     1     5
  1.2623067942412723E+01 a      1406     0    71     1     6
 -2.6148279435221973E+00 a      1407     0    71     1     7
 -3.8084194695384972E+00 a      1408     0    71     1     8
  7.0907894287654907E+00 a      1409     0    71     1     9
  1.0193797561746257E+01 a      1410     0    71     1    10
  9.3211426676471927E+00 a      1411     0    71     1    11
  8.8431870499062217E+00 a      1412     0    71     1    12
  1.9337110749796023E+00 a      1413     0    71     1    13
 -8.0632321413160639E+00 a      1414     0    71     1    14
 -1.7751638712886876E+01 a      1415     0    71     1    15
  1.7991000529335206E+01 a      1416     0    71     1    16
  2.0466729895168401E+00 a      1417     0    71     1    17
  1.8617927168555621E+01 a      1418     0    71     1    18
 -1.7056626450818406E+01 a      1419     0    71     1    19
  1.1749359187011197E+00 a      1420     0    71     1    20
  1.3508976397336793E+01 a      1421     0    72     1     1
  1.8657640746810884E+01 a      1422     0    72     1     2
 -1.2741942326236311E+01 a      1423     0    72     1     3
  2.7594444939852796E+01 a      1424     0    72     1     4
  3.5401008994093512E+00 a      1425     0    72     1     5
 -1.5046207030919689E+01 a      1426     0    72     1     6
  3.3486199951471485E+00 a      1427     0    72     1     7
  2.9185394902944961E+00 a      1428     0    72     1     8
 -1.1348901714036083E+01 a      1429     0    72     1     9
 -9.0150301817730458E+00 a      1430     0    72     1    10
 -8.2668297794976109E+00 a      1431     0    72     1    11
  3.1439795656928551E+00 a      1432     0    72     1    12
 -6.7211632814923650E-01 a      1433     0    72     1    13
 -5.8877676911007164E+00 a      1434     0    72     1    14
 -1.1397427009181069E+01 a      1435     0    72     1    15
  1.4864187292506102E+01 a      1436     0    72     1    16
 -2.3837940454288209E+01 a      1437     0    72     1    17
  2.7192121975490000E+00 a      1438     0    72     1    18
 -2.8645799364058382E+00 a      1439     0    72     1    19
 -6.0500612240080933E+00 a      1440     0    72     1    20
 -3.0250360643769811E+00 a      1441     0    73     1     1
 -1.3823007000302351E+01 a      1442     0    73     1     2
  3.1349633796733599E+01 a      1443     0    73     1     3
  3.3471676791223167E+01 a      1444     0    73     1     4
 -3.1042862846662864E+01 a      1445     0    73     1     5
 -2.1828848868753244E+01 a      1446     0    73     1     6
 -7.7492202052835291E-01 a      1447     0    73     1     7
 -5.7789342720512693E-01 a      1448     0    73     1     8
  1.0612376773323424E+01 a      1449     0    73     1     9
  2.9397268928575311E+01 a      1450     0    73     1    10
  4.0446711032035168E+01 a      1451     0    73     1    11
 -9.1919250410895936E-02 a      1452     0    73     1    12
  1.0498656515948239E+01 a      1453     0    73     1    13
  3.7749905070505569E+01 a      1454     0    73     1    14
  2.4846862905059062E+01 a      1455     0    73     1    15
 -1.5148162010374749E+01 a      1456     0    73     1    16
  6.5736426865350230E+00 a      1457     0    73     1    17
  1.0880473390668291E+01 a      1458     0    73     1    18
 -1.7510701101729094E+01 a      1459     0    73     1    19
 -1.3408845813861335E+01 a      1460     0    73     1    20
 -2.2229824042643367E+00 a      1461     0    74     1     1
 -1.5097872749329133E+01 a      1462     0    74     1     2
 -3.2716170130625585E+01 a      1463     0    74     1     3
  2.1378157086225182E+00 a      1464     0    74     1     4
 -4.3597677616660846E+00 a      1465     0    74     1     5
 -7.5648414805715480E-01 a      1466     0    74     1     6
  2.4232509685101840E+00 a      1467     0    74     1     7
 -4.3501322673218663E+00 a      1468     0    74     1     8
 -2.8341009253761335E+01 a      1469     0    74     1     9
 -6.1377266124869063E+00 a      1470     0    74     1    10
 -1.3272178972947154E+01 a      1471     0    74     1    11
  7.8621924496753843E+00 a      1472     0    74     1    12
 -2.7283967014349497E+00 a      1473     0    74     1    13
 -9.2701939076702633E-01 a      1474     0    74     1    14
 -6.7196164329658483E+00 a      1475     0    74     1    15
 -9.5115288855652338E+00 a      1476     0    74     1    16
 -2.5230734548056013E+00 a      1477     0    74     1    17
  1.3188410830844333E+00 a      1478     0    74     1    18
 -2.5535006695827999E+01 a      1479     0    74     1    19
  1.1710386933469461E+01 a      1480     0    74     1    20
  1.6393834669229971E+01 a      1481     0    75     1     1
  1.1115965565250642E+01 a      1482     0    75     1     2
 -3.9321400225996456E+01 a      1483     0    75     1     3
  3.5343545163842409E-02 a      1484     0    75     1     4
 -1.0035747942734355E+01 a      1485     0    75     1     5
  2.7555812359502085E+01 a      1486     0    75     1     6
  8.5520552455180745E+00 a      1487     0    75     1     7
  4.5149593088868789E-01 a      1488     0    75     1     8
 -3.1833982480487311E+01 a      1489     0    75     1     9
  5.4700293948287708E+00 a      1490     0    75     1    10
 -1.8752093539417146E+01 a      1491     0    75     1    11
 -9.9319945064640547E-01 a      1492     0    75     1    12
 -8.2004319158045558E+00 a      1493     0    75     1    13
 -4.9447339727738857E+00 a      1494     0    75     1    14
 -1.0126909563811585E+01 a      1495     0    75     1    15
  8.9867321388693995E+00 a      1496     0    75     1    16
 -5.7759401511075170E-01 a      1497     0    75     1    17
  8.1216734865649958E+00 a      1498     0    75     1    18
  1.9669286429931319E+01 a      1499     0    75     1    19
  4.6148759402963847E+01 a      1500     0    75     1    20
 -1.7901787792861107E+01 a      1501     0    76     1     1
  3.5612667535354902E+01 a      1502     0    76     1     2
  2.7296512336028198E+00 a      1503     0    76     1     3
 -2.5737168001706216E+01 a      1504     0    76     1     4
 -9.3634115471890123E-01 a      1505     0    76     1     5
 -1.5412571942886927E+01 a      1506     0    76     1     6
 -1.4009203363640688E+00 a      1507     0    76     1     7
  6.1800054578801467E-01 a      1508     0    76     1     8
  1.4879479405219126E+01 a      1509     0    76     1     9
 -2.2226822769758545E+01 a      1510     0    76     1    10
  3.9795538009921300E-01 a      1511     0    76     1    11
  4.1000905568188317E+00 a      1512     0    76     1    12
  1.9835067974723586E+00 a      1513     0    76     1    13
  1.1587414533936213E+01 a      1514     0    76     1    14
 -1.1445582248824027E+00 a      1515     0    76     1    15
 -2.8908116660421990E+00 a      1516     0    76     1    16
  2.6559690017760257E+01 a      1517     0    76     1    17
  3.5397648882782797E+00 a      1518     0    76     1    18
  1.5261849460322532E+01 a      1519     0    76     1    19
 -1.8239972834503497E+01 a      1520     0    76     1    20
 -3.9533349866711540E+00 a      1521     0    77     1     1
 -5.1093237294549079E+00 a      1522     0    77     1     2
 -2.2753587647647353E+00 a      1523     0    77     1     3
 -1.6338111213053313E+01 a      1524     0    77     1     4
 -9.9164856739871805E+00 a      1525     0    77     1     5
  2.2122740596684917E+01 a      1526     0    77     1     6
 -3.3131502199933238E+00 a      1527     0    77     1     7
 -1.4863933704984327E+00 a      1528     0    77     1     8
 -1.0648392830262041E+00 a      1529     0    77     1     9
  1.6303621353579256E+00 a      1530     0    77     1    10
 -2.8398602945733714E+01 a      1531     0    77     1    11
  1.2833134806595665E+00 a      1532     0    77     1    12
  1.7238137099786124E+00 a      1533     0    77     1    13
 -4.4756730725456562E+00 a      1534     0    77     1    14
 -2.1876082010061006E+00 a      1535     0    77     1    15
 -6.2419257404807187E+00 a      1536     0    77     1    16
 -2.3180354749371048E+01 a      1537     0    77     1    17
 -5.0045787128293718E+01 a      1538     0    77     1    18
  9.7316714358101883E+00 a      1539     0    77     1    19
  2.5163002756334949E+00 a      1540     0    77     1    20
 -1.6779713776941070E+00 a      1541     0    78     1     1
 -1.9222423444341570E+00 a      1542     0    78     1     2
 -2.3169415341074455E+01 a      1543     0    78     1     3
  1.6246994016617411E+00 a      1544     0    78     1     4
 -2.2249444152700665E+01 a      1545     0    78     1     5
 -1.3648031073237455E+01 a      1546     0    78     1     6
 -4.0168218321178722E-01 a      1547     0    78     1     7
  7.1366736802651010E-01 a      1548     0    78     1     8
  1.6499812877028897E+00 a      1549     0    78     1     9
  2.0287694852116303E+01 a      1550     0    78     1    10
 -3.4147074527195453E+00 a      1551     0    78     1    11
  1.9559716806945693E-01 a      1552     0    78     1    12
 -6.0832095197975555E-01 a      1553     0    78     1    13
 -6.6552343264777871E+00 a      1554     0    78     1    14
 -8.6955448537508744E+00 a      1555     0    78     1    15
 -6.4329511987224297E-01 a      1556     0    78     1    16
  3.6409690933676048E-01 a      1557     0    78     1    17
  6.9238134945752980E+00 a      1558     0    78     1    18
 -8.6646460243804508E+00 a      1559     0    78     1    19
 -9.0926165441196571E-01 a      1560     0    78     1    20
  3.6289410865906335E+00 a      1561     0    79     1     1
  9.8939229600630991E+00 a      1562     0    79     1     2
 -2.2879248029180146E+00 a      1563     0    79     1     3
  1.5530515137218153E+01 a      1564     0    79     1     4
 -1.4399337835282469E+00 a      1565     0    79     1     5
 -2.3287402094020520E+00 a      1566     0    79     1     6
 -1.0166338341954573E+00 a      1567     0    79     1     7
  3.3746861685748843E+00 a      1568     0    79     1     8
 -6.1537407779240896E+00 a      1569     0    79     1     9
 -4.5032749524884705E+00 a      1570     0    79     1    10
 -3.7925384716912420E+00 a      1571     0    79     1    11
  4.5219392344409570E-01 a      1572     0    79     1    12
  3.9290303260809782E+00 a      1573     0    79     1    13
  2.0416791588137173E+01 a      1574     0    79     1    14
  9.3266840268620825E+00 a      1575     0    79     1    15
 -5.5731036193279477E+00 a      1576     0    79     1    16
  1.7381616305057399E+00 a      1577     0    79     1    17
  1.2922058822316954E+01 a      1578     0    79     1    18
 -3.9572549081212300E+00 a      1579     0    79     1    19
  1.6038458733761608E+01 a      1580     0    79     1    20
  1.3373396525132787E+01 a      1581     0    80     1     1
  1.4515675646296858E+01 a      1582     0    80     1     2
 -4.4834226651084572E+00 a      1583     0    80     1     3
 -2.9023410058156234E+00 a      1584     0    80     1     4
 -8.0604389725220837E+00 a      1585     0    80     1     5
 -1.1582736914180861E+01 a      1586     0    80     1     6
 -1.7599411472176532E-01 a      1587     0    80     1     7
  6.8290307204323886E-01 a      1588     0    80     1     8
  1.7412705219387007E+01 a      1589     0    80     1     9
 -1.4200710911782922E+01 a      1590     0    80     1    10
  3.7043791338589607E+00 a      1591     0    80     1    11
  1.0216452193911054E+00 a      1592     0    80     1    12
  1.2297106455611689E-01 a      1593     0    80     1    13
  1.6803055806444547E+01 a      1594     0    80     1    14
 -7.5230673255177853E+00 a      1595     0    80     1    15
 -8.9014006738360667E+00 a      1596     0    80     1    16
  1.9015751067487173E+01 a      1597     0    80     1    17
 -7.1472360601320428E+00 a      1598     0    80     1    18
 -3.9784895286215702E+00 a      1599     0    80     1    19
  7.1692636529701828E+00 a      1600     0    80     1    20
 -1.7751775624501580E+01 a      1601     0    81     1     1
 -1.0834026644644043E+01 a      1602     0    81     1     2
 -1.0913057440394631E+01 a      1603     0    81     1     3
 -3.2758025474490187E+00 a      1604     0    81     1     4
 -3.1424001340198238E-02 a      1605     0    81     1     5
 -3.7235812376982615E+01 a      1606     0    81     1     6
 -8.6493119182799538E-01 a      1607     0    81     1     7
  2.6257135401379199E+00 a      1608     0    81     1     8
  2.1565570706236876E+01 a      1609     0    81     1     9
 -4.9256329050706107E+00 a      1610     0    81     1    10
  1.4246555405774481E+01 a      1611     0    81     1    11
 -1.5006023443809551E+00 a      1612     0    81     1    12
 -3.4037311802560748E-02 a      1613     0    81     1    13
  2.4984499858327023E+01 a      1614     0    81     1    14
 -3.1973702773009478E+00 a      1615     0    81     1    15
 -2.2372636644952880E+01 a      1616     0    81     1    16
 -1.8146466682114298E+01 a      1617     0    81     1    17
  2.4685462198873442E+01 a      1618     0    81     1    18
  1.4881096220538613E+01 a      1619     0    81     1    19
  2.4856656066835317E+01 a      1620     0    81     1    20
  9.5042356118543463E+00 a      1621     0    82     1     1
  3.7457311599206742E+00 a      1622     0    82     1     2
 -1.4460719103470350E+01 a      1623     0    82     1     3
